digraph Tree {
node [shape=box, style="filled", color="black"] ;
0 [label="due_vs_submission_date <= -40.0\ngini = 0.058\nsamples = 2835\nvalue = [84, 2751]", fillcolor="#399de5f7"] ;
1 [label="resource_clicks_by_days_change <= -1.0\ngini = 0.32\nsamples = 5\nvalue = [4, 1]", fillcolor="#e58139bf"] ;
0 -> 1 [labeldistance=2.5, labelangle=45, headlabel="True"] ;
2 [label="gini = 0.0\nsamples = 1\nvalue = [0, 1]", fillcolor="#399de5ff"] ;
1 -> 2 ;
3 [label="gini = 0.0\nsamples = 4\nvalue = [4, 0]", fillcolor="#e58139ff"] ;
1 -> 3 ;
4 [label="homepage_clicks_by_days <= 4.5\ngini = 0.055\nsamples = 2830\nvalue = [80, 2750]", fillcolor="#399de5f8"] ;
0 -> 4 [labeldistance=2.5, labelangle=-45, headlabel="False"] ;
5 [label="due_vs_submission_date <= -14.5\ngini = 0.178\nsamples = 386\nvalue = [38, 348]", fillcolor="#399de5e3"] ;
4 -> 5 ;
6 [label="resource_clicks_by_days_change <= -13.5\ngini = 0.368\nsamples = 37\nvalue = [9, 28]", fillcolor="#399de5ad"] ;
5 -> 6 ;
7 [label="gini = 0.0\nsamples = 1\nvalue = [1, 0]", fillcolor="#e58139ff"] ;
6 -> 7 ;
8 [label="resource_clicks_by_days <= 1.5\ngini = 0.346\nsamples = 36\nvalue = [8, 28]", fillcolor="#399de5b6"] ;
6 -> 8 ;
9 [label="subpage_clicks_by_days <= 0.5\ngini = 0.32\nsamples = 35\nvalue = [7, 28]", fillcolor="#399de5bf"] ;
8 -> 9 ;
10 [label="forumng_clicks_by_days_change <= 1.5\ngini = 0.384\nsamples = 27\nvalue = [7, 20]", fillcolor="#399de5a6"] ;
9 -> 10 ;
11 [label="oucontent_clicks_by_days_change <= -63.0\ngini = 0.355\nsamples = 26\nvalue = [6, 20]", fillcolor="#399de5b3"] ;
10 -> 11 ;
12 [label="url_clicks_by_days_change <= -0.5\ngini = 0.444\nsamples = 3\nvalue = [2, 1]", fillcolor="#e581397f"] ;
11 -> 12 ;
13 [label="gini = 0.0\nsamples = 1\nvalue = [0, 1]", fillcolor="#399de5ff"] ;
12 -> 13 ;
14 [label="gini = 0.0\nsamples = 2\nvalue = [2, 0]", fillcolor="#e58139ff"] ;
12 -> 14 ;
15 [label="weight <= 25.0\ngini = 0.287\nsamples = 23\nvalue = [4, 19]", fillcolor="#399de5c9"] ;
11 -> 15 ;
16 [label="homepage_clicks_by_days_change <= -5.0\ngini = 0.236\nsamples = 22\nvalue = [3, 19]", fillcolor="#399de5d7"] ;
15 -> 16 ;
17 [label="gini = 0.0\nsamples = 10\nvalue = [0, 10]", fillcolor="#399de5ff"] ;
16 -> 17 ;
18 [label="gini = 0.375\nsamples = 12\nvalue = [3, 9]", fillcolor="#399de5aa"] ;
16 -> 18 ;
19 [label="gini = 0.0\nsamples = 1\nvalue = [1, 0]", fillcolor="#e58139ff"] ;
15 -> 19 ;
20 [label="gini = 0.0\nsamples = 1\nvalue = [1, 0]", fillcolor="#e58139ff"] ;
10 -> 20 ;
21 [label="gini = 0.0\nsamples = 8\nvalue = [0, 8]", fillcolor="#399de5ff"] ;
9 -> 21 ;
22 [label="gini = 0.0\nsamples = 1\nvalue = [1, 0]", fillcolor="#e58139ff"] ;
8 -> 22 ;
23 [label="subpage_clicks_by_days_change <= -52.0\ngini = 0.152\nsamples = 349\nvalue = [29, 320]", fillcolor="#399de5e8"] ;
5 -> 23 ;
24 [label="gini = 0.0\nsamples = 1\nvalue = [1, 0]", fillcolor="#e58139ff"] ;
23 -> 24 ;
25 [label="resource_clicks_by_days_change <= 8.0\ngini = 0.148\nsamples = 348\nvalue = [28, 320]", fillcolor="#399de5e9"] ;
23 -> 25 ;
26 [label="resource_clicks_by_days_change <= -1.5\ngini = 0.144\nsamples = 346\nvalue = [27, 319]", fillcolor="#399de5e9"] ;
25 -> 26 ;
27 [label="oucollaborate_clicks_by_days_change <= -1.0\ngini = 0.278\nsamples = 30\nvalue = [5, 25]", fillcolor="#399de5cc"] ;
26 -> 27 ;
28 [label="gini = 0.0\nsamples = 1\nvalue = [1, 0]", fillcolor="#e58139ff"] ;
27 -> 28 ;
29 [label="oucontent_clicks_by_days_change <= -8.5\ngini = 0.238\nsamples = 29\nvalue = [4, 25]", fillcolor="#399de5d6"] ;
27 -> 29 ;
30 [label="homepage_clicks_by_days_change <= -35.0\ngini = 0.095\nsamples = 20\nvalue = [1, 19]", fillcolor="#399de5f2"] ;
29 -> 30 ;
31 [label="subpage_clicks_by_days_change <= -19.5\ngini = 0.444\nsamples = 3\nvalue = [1, 2]", fillcolor="#399de57f"] ;
30 -> 31 ;
32 [label="gini = 0.0\nsamples = 2\nvalue = [0, 2]", fillcolor="#399de5ff"] ;
31 -> 32 ;
33 [label="gini = 0.0\nsamples = 1\nvalue = [1, 0]", fillcolor="#e58139ff"] ;
31 -> 33 ;
34 [label="gini = 0.0\nsamples = 17\nvalue = [0, 17]", fillcolor="#399de5ff"] ;
30 -> 34 ;
35 [label="homepage_clicks_by_days <= 2.5\ngini = 0.444\nsamples = 9\nvalue = [3, 6]", fillcolor="#399de57f"] ;
29 -> 35 ;
36 [label="homepage_clicks_by_days_change <= -3.5\ngini = 0.48\nsamples = 5\nvalue = [3, 2]", fillcolor="#e5813955"] ;
35 -> 36 ;
37 [label="gini = 0.444\nsamples = 3\nvalue = [1, 2]", fillcolor="#399de57f"] ;
36 -> 37 ;
38 [label="gini = 0.0\nsamples = 2\nvalue = [2, 0]", fillcolor="#e58139ff"] ;
36 -> 38 ;
39 [label="gini = 0.0\nsamples = 4\nvalue = [0, 4]", fillcolor="#399de5ff"] ;
35 -> 39 ;
40 [label="due_vs_submission_date <= -6.5\ngini = 0.13\nsamples = 316\nvalue = [22, 294]", fillcolor="#399de5ec"] ;
26 -> 40 ;
41 [label="url_clicks_by_days_change <= 1.5\ngini = 0.231\nsamples = 60\nvalue = [8, 52]", fillcolor="#399de5d8"] ;
40 -> 41 ;
42 [label="oucontent_clicks_by_days <= 2.5\ngini = 0.209\nsamples = 59\nvalue = [7, 52]", fillcolor="#399de5dd"] ;
41 -> 42 ;
43 [label="forumng_clicks_by_days <= 4.5\ngini = 0.289\nsamples = 40\nvalue = [7, 33]", fillcolor="#399de5c9"] ;
42 -> 43 ;
44 [label="gini = 0.26\nsamples = 39\nvalue = [6, 33]", fillcolor="#399de5d1"] ;
43 -> 44 ;
45 [label="gini = 0.0\nsamples = 1\nvalue = [1, 0]", fillcolor="#e58139ff"] ;
43 -> 45 ;
46 [label="gini = 0.0\nsamples = 19\nvalue = [0, 19]", fillcolor="#399de5ff"] ;
42 -> 46 ;
47 [label="gini = 0.0\nsamples = 1\nvalue = [1, 0]", fillcolor="#e58139ff"] ;
41 -> 47 ;
48 [label="forumng_clicks_by_days_change <= -4.5\ngini = 0.103\nsamples = 256\nvalue = [14, 242]", fillcolor="#399de5f0"] ;
40 -> 48 ;
49 [label="gini = 0.0\nsamples = 53\nvalue = [0, 53]", fillcolor="#399de5ff"] ;
48 -> 49 ;
50 [label="subpage_clicks_by_days_change <= -9.5\ngini = 0.128\nsamples = 203\nvalue = [14, 189]", fillcolor="#399de5ec"] ;
48 -> 50 ;
51 [label="oucontent_clicks_by_days_change <= -28.5\ngini = 0.5\nsamples = 2\nvalue = [1, 1]", fillcolor="#e5813900"] ;
50 -> 51 ;
52 [label="gini = 0.0\nsamples = 1\nvalue = [0, 1]", fillcolor="#399de5ff"] ;
51 -> 52 ;
53 [label="gini = 0.0\nsamples = 1\nvalue = [1, 0]", fillcolor="#e58139ff"] ;
51 -> 53 ;
54 [label="forumng_clicks_by_days_change <= -3.5\ngini = 0.121\nsamples = 201\nvalue = [13, 188]", fillcolor="#399de5ed"] ;
50 -> 54 ;
55 [label="gini = 0.375\nsamples = 8\nvalue = [2, 6]", fillcolor="#399de5aa"] ;
54 -> 55 ;
56 [label="gini = 0.107\nsamples = 193\nvalue = [11, 182]", fillcolor="#399de5f0"] ;
54 -> 56 ;
57 [label="forumng_clicks_by_days_change <= -29.5\ngini = 0.5\nsamples = 2\nvalue = [1, 1]", fillcolor="#e5813900"] ;
25 -> 57 ;
58 [label="gini = 0.0\nsamples = 1\nvalue = [1, 0]", fillcolor="#e58139ff"] ;
57 -> 58 ;
59 [label="gini = 0.0\nsamples = 1\nvalue = [0, 1]", fillcolor="#399de5ff"] ;
57 -> 59 ;
60 [label="homepage_clicks_by_days <= 13.5\ngini = 0.034\nsamples = 2444\nvalue = [42, 2402]", fillcolor="#399de5fb"] ;
4 -> 60 ;
61 [label="due_vs_submission_date <= -11.5\ngini = 0.064\nsamples = 730\nvalue = [24, 706]", fillcolor="#399de5f6"] ;
60 -> 61 ;
62 [label="url_clicks_by_days <= 6.0\ngini = 0.272\nsamples = 37\nvalue = [6, 31]", fillcolor="#399de5ce"] ;
61 -> 62 ;
63 [label="homepage_clicks_by_days <= 5.5\ngini = 0.239\nsamples = 36\nvalue = [5, 31]", fillcolor="#399de5d6"] ;
62 -> 63 ;
64 [label="gini = 0.0\nsamples = 1\nvalue = [1, 0]", fillcolor="#e58139ff"] ;
63 -> 64 ;
65 [label="oucontent_clicks_by_days_change <= 19.5\ngini = 0.202\nsamples = 35\nvalue = [4, 31]", fillcolor="#399de5de"] ;
63 -> 65 ;
66 [label="oucontent_clicks_by_days <= 6.5\ngini = 0.121\nsamples = 31\nvalue = [2, 29]", fillcolor="#399de5ed"] ;
65 -> 66 ;
67 [label="subpage_clicks_by_days <= 4.5\ngini = 0.444\nsamples = 6\nvalue = [2, 4]", fillcolor="#399de57f"] ;
66 -> 67 ;
68 [label="gini = 0.0\nsamples = 4\nvalue = [0, 4]", fillcolor="#399de5ff"] ;
67 -> 68 ;
69 [label="gini = 0.0\nsamples = 2\nvalue = [2, 0]", fillcolor="#e58139ff"] ;
67 -> 69 ;
70 [label="gini = 0.0\nsamples = 25\nvalue = [0, 25]", fillcolor="#399de5ff"] ;
66 -> 70 ;
71 [label="homepage_clicks_by_days_change <= -6.5\ngini = 0.5\nsamples = 4\nvalue = [2, 2]", fillcolor="#e5813900"] ;
65 -> 71 ;
72 [label="gini = 0.0\nsamples = 1\nvalue = [1, 0]", fillcolor="#e58139ff"] ;
71 -> 72 ;
73 [label="date <= 141.5\ngini = 0.444\nsamples = 3\nvalue = [1, 2]", fillcolor="#399de57f"] ;
71 -> 73 ;
74 [label="gini = 0.0\nsamples = 2\nvalue = [0, 2]", fillcolor="#399de5ff"] ;
73 -> 74 ;
75 [label="gini = 0.0\nsamples = 1\nvalue = [1, 0]", fillcolor="#e58139ff"] ;
73 -> 75 ;
76 [label="gini = 0.0\nsamples = 1\nvalue = [1, 0]", fillcolor="#e58139ff"] ;
62 -> 76 ;
77 [label="resource_clicks_by_days_change <= -12.0\ngini = 0.051\nsamples = 693\nvalue = [18, 675]", fillcolor="#399de5f8"] ;
61 -> 77 ;
78 [label="forumng_clicks_by_days_change <= -2.0\ngini = 0.5\nsamples = 2\nvalue = [1, 1]", fillcolor="#e5813900"] ;
77 -> 78 ;
79 [label="gini = 0.0\nsamples = 1\nvalue = [1, 0]", fillcolor="#e58139ff"] ;
78 -> 79 ;
80 [label="gini = 0.0\nsamples = 1\nvalue = [0, 1]", fillcolor="#399de5ff"] ;
78 -> 80 ;
81 [label="forumng_clicks_by_days_change <= 49.5\ngini = 0.048\nsamples = 691\nvalue = [17, 674]", fillcolor="#399de5f9"] ;
77 -> 81 ;
82 [label="oucontent_clicks_by_days <= 4.5\ngini = 0.045\nsamples = 687\nvalue = [16, 671]", fillcolor="#399de5f9"] ;
81 -> 82 ;
83 [label="homepage_clicks_by_days <= 11.5\ngini = 0.112\nsamples = 101\nvalue = [6, 95]", fillcolor="#399de5ef"] ;
82 -> 83 ;
84 [label="forumng_clicks_by_days_change <= 13.5\ngini = 0.065\nsamples = 89\nvalue = [3, 86]", fillcolor="#399de5f6"] ;
83 -> 84 ;
85 [label="resource_clicks_by_days_change <= -1.5\ngini = 0.024\nsamples = 82\nvalue = [1, 81]", fillcolor="#399de5fc"] ;
84 -> 85 ;
86 [label="gini = 0.32\nsamples = 5\nvalue = [1, 4]", fillcolor="#399de5bf"] ;
85 -> 86 ;
87 [label="gini = 0.0\nsamples = 77\nvalue = [0, 77]", fillcolor="#399de5ff"] ;
85 -> 87 ;
88 [label="url_clicks_by_days_change <= 0.5\ngini = 0.408\nsamples = 7\nvalue = [2, 5]", fillcolor="#399de599"] ;
84 -> 88 ;
89 [label="gini = 0.278\nsamples = 6\nvalue = [1, 5]", fillcolor="#399de5cc"] ;
88 -> 89 ;
90 [label="gini = 0.0\nsamples = 1\nvalue = [1, 0]", fillcolor="#e58139ff"] ;
88 -> 90 ;
91 [label="subpage_clicks_by_days <= 11.5\ngini = 0.375\nsamples = 12\nvalue = [3, 9]", fillcolor="#399de5aa"] ;
83 -> 91 ;
92 [label="forumng_clicks_by_days_change <= 2.5\ngini = 0.298\nsamples = 11\nvalue = [2, 9]", fillcolor="#399de5c6"] ;
91 -> 92 ;
93 [label="gini = 0.0\nsamples = 6\nvalue = [0, 6]", fillcolor="#399de5ff"] ;
92 -> 93 ;
94 [label="gini = 0.48\nsamples = 5\nvalue = [2, 3]", fillcolor="#399de555"] ;
92 -> 94 ;
95 [label="gini = 0.0\nsamples = 1\nvalue = [1, 0]", fillcolor="#e58139ff"] ;
91 -> 95 ;
96 [label="forumng_clicks_by_days_change <= -98.0\ngini = 0.034\nsamples = 586\nvalue = [10, 576]", fillcolor="#399de5fb"] ;
82 -> 96 ;
97 [label="forumng_clicks_by_days_change <= -101.0\ngini = 0.375\nsamples = 4\nvalue = [1, 3]", fillcolor="#399de5aa"] ;
96 -> 97 ;
98 [label="gini = 0.0\nsamples = 3\nvalue = [0, 3]", fillcolor="#399de5ff"] ;
97 -> 98 ;
99 [label="gini = 0.0\nsamples = 1\nvalue = [1, 0]", fillcolor="#e58139ff"] ;
97 -> 99 ;
100 [label="resource_clicks_by_days <= 5.5\ngini = 0.03\nsamples = 582\nvalue = [9, 573]", fillcolor="#399de5fb"] ;
96 -> 100 ;
101 [label="oucontent_clicks_by_days <= 27.5\ngini = 0.027\nsamples = 575\nvalue = [8, 567]", fillcolor="#399de5fb"] ;
100 -> 101 ;
102 [label="gini = 0.041\nsamples = 334\nvalue = [7, 327]", fillcolor="#399de5fa"] ;
101 -> 102 ;
103 [label="gini = 0.008\nsamples = 241\nvalue = [1, 240]", fillcolor="#399de5fe"] ;
101 -> 103 ;
104 [label="resource_clicks_by_days_change <= 6.5\ngini = 0.245\nsamples = 7\nvalue = [1, 6]", fillcolor="#399de5d4"] ;
100 -> 104 ;
105 [label="gini = 0.0\nsamples = 1\nvalue = [1, 0]", fillcolor="#e58139ff"] ;
104 -> 105 ;
106 [label="gini = 0.0\nsamples = 6\nvalue = [0, 6]", fillcolor="#399de5ff"] ;
104 -> 106 ;
107 [label="due_vs_submission_date <= -3.5\ngini = 0.375\nsamples = 4\nvalue = [1, 3]", fillcolor="#399de5aa"] ;
81 -> 107 ;
108 [label="gini = 0.0\nsamples = 1\nvalue = [1, 0]", fillcolor="#e58139ff"] ;
107 -> 108 ;
109 [label="gini = 0.0\nsamples = 3\nvalue = [0, 3]", fillcolor="#399de5ff"] ;
107 -> 109 ;
110 [label="dataplus_clicks_by_days <= 14.5\ngini = 0.021\nsamples = 1714\nvalue = [18, 1696]", fillcolor="#399de5fc"] ;
60 -> 110 ;
111 [label="oucontent_clicks_by_days_change <= -264.0\ngini = 0.02\nsamples = 1710\nvalue = [17, 1693]", fillcolor="#399de5fc"] ;
110 -> 111 ;
112 [label="resource_clicks_by_days_change <= -2.5\ngini = 0.375\nsamples = 4\nvalue = [1, 3]", fillcolor="#399de5aa"] ;
111 -> 112 ;
113 [label="gini = 0.0\nsamples = 1\nvalue = [1, 0]", fillcolor="#e58139ff"] ;
112 -> 113 ;
114 [label="gini = 0.0\nsamples = 3\nvalue = [0, 3]", fillcolor="#399de5ff"] ;
112 -> 114 ;
115 [label="homepage_clicks_by_days <= 25.5\ngini = 0.019\nsamples = 1706\nvalue = [16, 1690]", fillcolor="#399de5fd"] ;
111 -> 115 ;
116 [label="subpage_clicks_by_days_change <= -1.5\ngini = 0.035\nsamples = 674\nvalue = [12, 662]", fillcolor="#399de5fa"] ;
115 -> 116 ;
117 [label="gini = 0.0\nsamples = 252\nvalue = [0, 252]", fillcolor="#399de5ff"] ;
116 -> 117 ;
118 [label="subpage_clicks_by_days <= 0.5\ngini = 0.055\nsamples = 422\nvalue = [12, 410]", fillcolor="#399de5f8"] ;
116 -> 118 ;
119 [label="due_vs_submission_date <= -6.0\ngini = 0.32\nsamples = 10\nvalue = [2, 8]", fillcolor="#399de5bf"] ;
118 -> 119 ;
120 [label="gini = 0.0\nsamples = 2\nvalue = [2, 0]", fillcolor="#e58139ff"] ;
119 -> 120 ;
121 [label="gini = 0.0\nsamples = 8\nvalue = [0, 8]", fillcolor="#399de5ff"] ;
119 -> 121 ;
122 [label="dataplus_clicks_by_days_change <= 5.5\ngini = 0.047\nsamples = 412\nvalue = [10, 402]", fillcolor="#399de5f9"] ;
118 -> 122 ;
123 [label="subpage_clicks_by_days <= 5.5\ngini = 0.043\nsamples = 408\nvalue = [9, 399]", fillcolor="#399de5f9"] ;
122 -> 123 ;
124 [label="gini = 0.086\nsamples = 111\nvalue = [5, 106]", fillcolor="#399de5f3"] ;
123 -> 124 ;
125 [label="gini = 0.027\nsamples = 297\nvalue = [4, 293]", fillcolor="#399de5fc"] ;
123 -> 125 ;
126 [label="forumng_clicks_by_days_change <= -7.0\ngini = 0.375\nsamples = 4\nvalue = [1, 3]", fillcolor="#399de5aa"] ;
122 -> 126 ;
127 [label="gini = 0.0\nsamples = 1\nvalue = [1, 0]", fillcolor="#e58139ff"] ;
126 -> 127 ;
128 [label="gini = 0.0\nsamples = 3\nvalue = [0, 3]", fillcolor="#399de5ff"] ;
126 -> 128 ;
129 [label="glossary_clicks_by_days <= 2.5\ngini = 0.008\nsamples = 1032\nvalue = [4, 1028]", fillcolor="#399de5fe"] ;
115 -> 129 ;
130 [label="subpage_clicks_by_days_change <= 19.5\ngini = 0.006\nsamples = 1020\nvalue = [3, 1017]", fillcolor="#399de5fe"] ;
129 -> 130 ;
131 [label="forumng_clicks_by_days <= 8.5\ngini = 0.002\nsamples = 831\nvalue = [1, 830]", fillcolor="#399de5ff"] ;
130 -> 131 ;
132 [label="forumng_clicks_by_days <= 7.5\ngini = 0.013\nsamples = 148\nvalue = [1, 147]", fillcolor="#399de5fd"] ;
131 -> 132 ;
133 [label="gini = 0.0\nsamples = 132\nvalue = [0, 132]", fillcolor="#399de5ff"] ;
132 -> 133 ;
134 [label="gini = 0.117\nsamples = 16\nvalue = [1, 15]", fillcolor="#399de5ee"] ;
132 -> 134 ;
135 [label="gini = 0.0\nsamples = 683\nvalue = [0, 683]", fillcolor="#399de5ff"] ;
131 -> 135 ;
136 [label="subpage_clicks_by_days <= 20.5\ngini = 0.021\nsamples = 189\nvalue = [2, 187]", fillcolor="#399de5fc"] ;
130 -> 136 ;
137 [label="oucontent_clicks_by_days_change <= 135.5\ngini = 0.165\nsamples = 11\nvalue = [1, 10]", fillcolor="#399de5e6"] ;
136 -> 137 ;
138 [label="gini = 0.0\nsamples = 9\nvalue = [0, 9]", fillcolor="#399de5ff"] ;
137 -> 138 ;
139 [label="gini = 0.5\nsamples = 2\nvalue = [1, 1]", fillcolor="#e5813900"] ;
137 -> 139 ;
140 [label="url_clicks_by_days <= 3.5\ngini = 0.011\nsamples = 178\nvalue = [1, 177]", fillcolor="#399de5fe"] ;
136 -> 140 ;
141 [label="gini = 0.105\nsamples = 18\nvalue = [1, 17]", fillcolor="#399de5f0"] ;
140 -> 141 ;
142 [label="gini = 0.0\nsamples = 160\nvalue = [0, 160]", fillcolor="#399de5ff"] ;
140 -> 142 ;
143 [label="due_vs_submission_date <= -1.5\ngini = 0.153\nsamples = 12\nvalue = [1, 11]", fillcolor="#399de5e8"] ;
129 -> 143 ;
144 [label="weight <= 15.0\ngini = 0.5\nsamples = 2\nvalue = [1, 1]", fillcolor="#e5813900"] ;
143 -> 144 ;
145 [label="gini = 0.0\nsamples = 1\nvalue = [1, 0]", fillcolor="#e58139ff"] ;
144 -> 145 ;
146 [label="gini = 0.0\nsamples = 1\nvalue = [0, 1]", fillcolor="#399de5ff"] ;
144 -> 146 ;
147 [label="gini = 0.0\nsamples = 10\nvalue = [0, 10]", fillcolor="#399de5ff"] ;
143 -> 147 ;
148 [label="dataplus_clicks_by_days <= 15.5\ngini = 0.375\nsamples = 4\nvalue = [1, 3]", fillcolor="#399de5aa"] ;
110 -> 148 ;
149 [label="gini = 0.0\nsamples = 1\nvalue = [1, 0]", fillcolor="#e58139ff"] ;
148 -> 149 ;
150 [label="gini = 0.0\nsamples = 3\nvalue = [0, 3]", fillcolor="#399de5ff"] ;
148 -> 150 ;
}