digraph Tree {
node [shape=box, style="filled", color="black"] ;
0 [label="studied_credits <= 175.0\ngini = 0.058\nsamples = 2835\nvalue = [84, 2751]", fillcolor="#399de5f7"] ;
1 [label="imd_band_60-70% <= 0.5\ngini = 0.048\nsamples = 2693\nvalue = [66, 2627]", fillcolor="#399de5f9"] ;
0 -> 1 [labeldistance=2.5, labelangle=45, headlabel="True"] ;
2 [label="studied_credits <= 85.0\ngini = 0.043\nsamples = 2445\nvalue = [54, 2391]", fillcolor="#399de5f9"] ;
1 -> 2 ;
3 [label="gini = 0.033\nsamples = 1855\nvalue = [31, 1824]", fillcolor="#399de5fb"] ;
2 -> 3 ;
4 [label="gini = 0.075\nsamples = 590\nvalue = [23, 567]", fillcolor="#399de5f5"] ;
2 -> 4 ;
5 [label="age_band_35-55 <= 0.5\ngini = 0.092\nsamples = 248\nvalue = [12, 236]", fillcolor="#399de5f2"] ;
1 -> 5 ;
6 [label="gini = 0.161\nsamples = 125\nvalue = [11, 114]", fillcolor="#399de5e6"] ;
5 -> 6 ;
7 [label="gini = 0.016\nsamples = 123\nvalue = [1, 122]", fillcolor="#399de5fd"] ;
5 -> 7 ;
8 [label="disability_N <= 0.5\ngini = 0.221\nsamples = 142\nvalue = [18, 124]", fillcolor="#399de5da"] ;
0 -> 8 [labeldistance=2.5, labelangle=-45, headlabel="False"] ;
9 [label="gender_F <= 0.5\ngini = 0.434\nsamples = 22\nvalue = [7, 15]", fillcolor="#399de588"] ;
8 -> 9 ;
10 [label="gini = 0.26\nsamples = 13\nvalue = [2, 11]", fillcolor="#399de5d1"] ;
9 -> 10 ;
11 [label="gini = 0.494\nsamples = 9\nvalue = [5, 4]", fillcolor="#e5813933"] ;
9 -> 11 ;
12 [label="imd_band_80-90% <= 0.5\ngini = 0.167\nsamples = 120\nvalue = [11, 109]", fillcolor="#399de5e5"] ;
8 -> 12 ;
13 [label="gini = 0.111\nsamples = 102\nvalue = [6, 96]", fillcolor="#399de5ef"] ;
12 -> 13 ;
14 [label="gini = 0.401\nsamples = 18\nvalue = [5, 13]", fillcolor="#399de59d"] ;
12 -> 14 ;
}