digraph Tree {
node [shape=box, style="filled", color="black"] ;
0 [label="weight <= 0.5\ngini = 0.066\nsamples = 38730\nvalue = [1327, 37403]", fillcolor="#399de5f6"] ;
1 [label="due_vs_submission_date <= 11.5\ngini = 0.485\nsamples = 1592\nvalue = [660, 932]", fillcolor="#399de54a"] ;
0 -> 1 [labeldistance=2.5, labelangle=45, headlabel="True"] ;
2 [label="forumng_clicks_by_interval_change <= 204.0\ngini = 0.48\nsamples = 1357\nvalue = [542, 815]", fillcolor="#399de555"] ;
1 -> 2 ;
3 [label="oucontent_clicks_by_interval_change <= 84.5\ngini = 0.478\nsamples = 1344\nvalue = [532, 812]", fillcolor="#399de558"] ;
2 -> 3 ;
4 [label="oucontent_clicks_by_interval <= 13.5\ngini = 0.483\nsamples = 1207\nvalue = [493, 714]", fillcolor="#399de54f"] ;
3 -> 4 ;
5 [label="url_clicks_by_interval_change <= 0.5\ngini = 0.459\nsamples = 434\nvalue = [155, 279]", fillcolor="#399de571"] ;
4 -> 5 ;
6 [label="forumng_clicks_by_interval <= 66.0\ngini = 0.472\nsamples = 359\nvalue = [137, 222]", fillcolor="#399de562"] ;
5 -> 6 ;
7 [label="oucontent_clicks_by_interval <= 12.5\ngini = 0.469\nsamples = 356\nvalue = [134, 222]", fillcolor="#399de565"] ;
6 -> 7 ;
8 [label="forumng_clicks_by_interval_change <= 9.5\ngini = 0.472\nsamples = 351\nvalue = [134, 217]", fillcolor="#399de562"] ;
7 -> 8 ;
9 [label="gini = 0.479\nsamples = 307\nvalue = [122, 185]", fillcolor="#399de557"] ;
8 -> 9 ;
10 [label="gini = 0.397\nsamples = 44\nvalue = [12, 32]", fillcolor="#399de59f"] ;
8 -> 10 ;
11 [label="gini = 0.0\nsamples = 5\nvalue = [0, 5]", fillcolor="#399de5ff"] ;
7 -> 11 ;
12 [label="gini = 0.0\nsamples = 3\nvalue = [3, 0]", fillcolor="#e58139ff"] ;
6 -> 12 ;
13 [label="due_vs_submission_date <= -4.0\ngini = 0.365\nsamples = 75\nvalue = [18, 57]", fillcolor="#399de5ae"] ;
5 -> 13 ;
14 [label="subpage_clicks_by_interval <= 4.0\ngini = 0.48\nsamples = 5\nvalue = [3, 2]", fillcolor="#e5813955"] ;
13 -> 14 ;
15 [label="gini = 0.0\nsamples = 2\nvalue = [2, 0]", fillcolor="#e58139ff"] ;
14 -> 15 ;
16 [label="resource_clicks_by_interval_change <= 4.5\ngini = 0.444\nsamples = 3\nvalue = [1, 2]", fillcolor="#399de57f"] ;
14 -> 16 ;
17 [label="gini = 0.0\nsamples = 2\nvalue = [0, 2]", fillcolor="#399de5ff"] ;
16 -> 17 ;
18 [label="gini = 0.0\nsamples = 1\nvalue = [1, 0]", fillcolor="#e58139ff"] ;
16 -> 18 ;
19 [label="forumng_clicks_by_interval_change <= 25.0\ngini = 0.337\nsamples = 70\nvalue = [15, 55]", fillcolor="#399de5b9"] ;
13 -> 19 ;
20 [label="forumng_clicks_by_interval <= 12.5\ngini = 0.363\nsamples = 63\nvalue = [15, 48]", fillcolor="#399de5af"] ;
19 -> 20 ;
21 [label="gini = 0.316\nsamples = 56\nvalue = [11, 45]", fillcolor="#399de5c1"] ;
20 -> 21 ;
22 [label="gini = 0.49\nsamples = 7\nvalue = [4, 3]", fillcolor="#e5813940"] ;
20 -> 22 ;
23 [label="gini = 0.0\nsamples = 7\nvalue = [0, 7]", fillcolor="#399de5ff"] ;
19 -> 23 ;
24 [label="due_vs_submission_date <= -8.5\ngini = 0.492\nsamples = 773\nvalue = [338, 435]", fillcolor="#399de539"] ;
4 -> 24 ;
25 [label="gini = 0.0\nsamples = 6\nvalue = [6, 0]", fillcolor="#e58139ff"] ;
24 -> 25 ;
26 [label="forumng_clicks_by_interval_change <= 134.5\ngini = 0.491\nsamples = 767\nvalue = [332, 435]", fillcolor="#399de53c"] ;
24 -> 26 ;
27 [label="due_vs_submission_date <= -3.5\ngini = 0.492\nsamples = 756\nvalue = [331, 425]", fillcolor="#399de538"] ;
26 -> 27 ;
28 [label="oucontent_clicks_by_interval <= 55.0\ngini = 0.308\nsamples = 21\nvalue = [4, 17]", fillcolor="#399de5c3"] ;
27 -> 28 ;
29 [label="gini = 0.198\nsamples = 18\nvalue = [2, 16]", fillcolor="#399de5df"] ;
28 -> 29 ;
30 [label="gini = 0.444\nsamples = 3\nvalue = [2, 1]", fillcolor="#e581397f"] ;
28 -> 30 ;
31 [label="resource_clicks_by_interval <= 74.0\ngini = 0.494\nsamples = 735\nvalue = [327, 408]", fillcolor="#399de533"] ;
27 -> 31 ;
32 [label="gini = 0.495\nsamples = 729\nvalue = [327, 402]", fillcolor="#399de530"] ;
31 -> 32 ;
33 [label="gini = 0.0\nsamples = 6\nvalue = [0, 6]", fillcolor="#399de5ff"] ;
31 -> 33 ;
34 [label="resource_clicks_by_interval <= 14.5\ngini = 0.165\nsamples = 11\nvalue = [1, 10]", fillcolor="#399de5e6"] ;
26 -> 34 ;
35 [label="gini = 0.0\nsamples = 10\nvalue = [0, 10]", fillcolor="#399de5ff"] ;
34 -> 35 ;
36 [label="gini = 0.0\nsamples = 1\nvalue = [1, 0]", fillcolor="#e58139ff"] ;
34 -> 36 ;
37 [label="glossary_clicks_by_interval <= 9.5\ngini = 0.407\nsamples = 137\nvalue = [39, 98]", fillcolor="#399de59a"] ;
3 -> 37 ;
38 [label="subpage_clicks_by_interval <= 8.5\ngini = 0.393\nsamples = 134\nvalue = [36, 98]", fillcolor="#399de5a1"] ;
37 -> 38 ;
39 [label="due_vs_submission_date <= 6.5\ngini = 0.17\nsamples = 32\nvalue = [3, 29]", fillcolor="#399de5e5"] ;
38 -> 39 ;
40 [label="subpage_clicks_by_interval <= 2.5\ngini = 0.074\nsamples = 26\nvalue = [1, 25]", fillcolor="#399de5f5"] ;
39 -> 40 ;
41 [label="homepage_clicks_by_interval <= 22.0\ngini = 0.375\nsamples = 4\nvalue = [1, 3]", fillcolor="#399de5aa"] ;
40 -> 41 ;
42 [label="gini = 0.0\nsamples = 1\nvalue = [1, 0]", fillcolor="#e58139ff"] ;
41 -> 42 ;
43 [label="gini = 0.0\nsamples = 3\nvalue = [0, 3]", fillcolor="#399de5ff"] ;
41 -> 43 ;
44 [label="gini = 0.0\nsamples = 22\nvalue = [0, 22]", fillcolor="#399de5ff"] ;
40 -> 44 ;
45 [label="resource_clicks_by_interval_change <= 13.0\ngini = 0.444\nsamples = 6\nvalue = [2, 4]", fillcolor="#399de57f"] ;
39 -> 45 ;
46 [label="gini = 0.0\nsamples = 3\nvalue = [0, 3]", fillcolor="#399de5ff"] ;
45 -> 46 ;
47 [label="homepage_clicks_by_interval_change <= 28.0\ngini = 0.444\nsamples = 3\nvalue = [2, 1]", fillcolor="#e581397f"] ;
45 -> 47 ;
48 [label="gini = 0.0\nsamples = 1\nvalue = [0, 1]", fillcolor="#399de5ff"] ;
47 -> 48 ;
49 [label="gini = 0.0\nsamples = 2\nvalue = [2, 0]", fillcolor="#e58139ff"] ;
47 -> 49 ;
50 [label="oucontent_clicks_by_interval_change <= 156.5\ngini = 0.438\nsamples = 102\nvalue = [33, 69]", fillcolor="#399de585"] ;
38 -> 50 ;
51 [label="oucontent_clicks_by_interval <= 120.0\ngini = 0.463\nsamples = 85\nvalue = [31, 54]", fillcolor="#399de56d"] ;
50 -> 51 ;
52 [label="glossary_clicks_by_interval_change <= 4.5\ngini = 0.392\nsamples = 56\nvalue = [15, 41]", fillcolor="#399de5a2"] ;
51 -> 52 ;
53 [label="gini = 0.355\nsamples = 52\nvalue = [12, 40]", fillcolor="#399de5b3"] ;
52 -> 53 ;
54 [label="gini = 0.375\nsamples = 4\nvalue = [3, 1]", fillcolor="#e58139aa"] ;
52 -> 54 ;
55 [label="url_clicks_by_interval <= 1.5\ngini = 0.495\nsamples = 29\nvalue = [16, 13]", fillcolor="#e5813930"] ;
51 -> 55 ;
56 [label="gini = 0.245\nsamples = 14\nvalue = [12, 2]", fillcolor="#e58139d4"] ;
55 -> 56 ;
57 [label="gini = 0.391\nsamples = 15\nvalue = [4, 11]", fillcolor="#399de5a2"] ;
55 -> 57 ;
58 [label="due_vs_submission_date <= -1.5\ngini = 0.208\nsamples = 17\nvalue = [2, 15]", fillcolor="#399de5dd"] ;
50 -> 58 ;
59 [label="gini = 0.0\nsamples = 1\nvalue = [1, 0]", fillcolor="#e58139ff"] ;
58 -> 59 ;
60 [label="due_vs_submission_date <= 8.5\ngini = 0.117\nsamples = 16\nvalue = [1, 15]", fillcolor="#399de5ee"] ;
58 -> 60 ;
61 [label="gini = 0.0\nsamples = 15\nvalue = [0, 15]", fillcolor="#399de5ff"] ;
60 -> 61 ;
62 [label="gini = 0.0\nsamples = 1\nvalue = [1, 0]", fillcolor="#e58139ff"] ;
60 -> 62 ;
63 [label="gini = 0.0\nsamples = 3\nvalue = [3, 0]", fillcolor="#e58139ff"] ;
37 -> 63 ;
64 [label="homepage_clicks_by_interval <= 107.0\ngini = 0.355\nsamples = 13\nvalue = [10, 3]", fillcolor="#e58139b3"] ;
2 -> 64 ;
65 [label="gini = 0.0\nsamples = 8\nvalue = [8, 0]", fillcolor="#e58139ff"] ;
64 -> 65 ;
66 [label="glossary_clicks_by_interval_change <= 0.5\ngini = 0.48\nsamples = 5\nvalue = [2, 3]", fillcolor="#399de555"] ;
64 -> 66 ;
67 [label="oucollaborate_clicks_by_interval <= 2.0\ngini = 0.444\nsamples = 3\nvalue = [2, 1]", fillcolor="#e581397f"] ;
66 -> 67 ;
68 [label="gini = 0.0\nsamples = 2\nvalue = [2, 0]", fillcolor="#e58139ff"] ;
67 -> 68 ;
69 [label="gini = 0.0\nsamples = 1\nvalue = [0, 1]", fillcolor="#399de5ff"] ;
67 -> 69 ;
70 [label="gini = 0.0\nsamples = 2\nvalue = [0, 2]", fillcolor="#399de5ff"] ;
66 -> 70 ;
71 [label="oucollaborate_clicks_by_interval <= 2.5\ngini = 0.5\nsamples = 235\nvalue = [118, 117]", fillcolor="#e5813902"] ;
1 -> 71 ;
72 [label="subpage_clicks_by_interval <= 20.5\ngini = 0.499\nsamples = 226\nvalue = [118, 108]", fillcolor="#e5813916"] ;
71 -> 72 ;
73 [label="subpage_clicks_by_interval <= 13.5\ngini = 0.5\nsamples = 210\nvalue = [106, 104]", fillcolor="#e5813905"] ;
72 -> 73 ;
74 [label="subpage_clicks_by_interval <= 3.5\ngini = 0.497\nsamples = 189\nvalue = [102, 87]", fillcolor="#e5813925"] ;
73 -> 74 ;
75 [label="homepage_clicks_by_interval_change <= 11.5\ngini = 0.499\nsamples = 108\nvalue = [52, 56]", fillcolor="#399de512"] ;
74 -> 75 ;
76 [label="oucontent_clicks_by_interval <= 3.5\ngini = 0.477\nsamples = 61\nvalue = [37, 24]", fillcolor="#e581395a"] ;
75 -> 76 ;
77 [label="resource_clicks_by_interval <= 3.5\ngini = 0.489\nsamples = 33\nvalue = [14, 19]", fillcolor="#399de543"] ;
76 -> 77 ;
78 [label="gini = 0.475\nsamples = 31\nvalue = [12, 19]", fillcolor="#399de55e"] ;
77 -> 78 ;
79 [label="gini = 0.0\nsamples = 2\nvalue = [2, 0]", fillcolor="#e58139ff"] ;
77 -> 79 ;
80 [label="url_clicks_by_interval <= 0.5\ngini = 0.293\nsamples = 28\nvalue = [23, 5]", fillcolor="#e58139c8"] ;
76 -> 80 ;
81 [label="gini = 0.211\nsamples = 25\nvalue = [22, 3]", fillcolor="#e58139dc"] ;
80 -> 81 ;
82 [label="gini = 0.444\nsamples = 3\nvalue = [1, 2]", fillcolor="#399de57f"] ;
80 -> 82 ;
83 [label="forumng_clicks_by_interval_change <= 8.5\ngini = 0.435\nsamples = 47\nvalue = [15, 32]", fillcolor="#399de587"] ;
75 -> 83 ;
84 [label="resource_clicks_by_interval <= 12.0\ngini = 0.204\nsamples = 26\nvalue = [3, 23]", fillcolor="#399de5de"] ;
83 -> 84 ;
85 [label="gini = 0.147\nsamples = 25\nvalue = [2, 23]", fillcolor="#399de5e9"] ;
84 -> 85 ;
86 [label="gini = 0.0\nsamples = 1\nvalue = [1, 0]", fillcolor="#e58139ff"] ;
84 -> 86 ;
87 [label="due_vs_submission_date <= 20.5\ngini = 0.49\nsamples = 21\nvalue = [12, 9]", fillcolor="#e5813940"] ;
83 -> 87 ;
88 [label="gini = 0.444\nsamples = 18\nvalue = [12, 6]", fillcolor="#e581397f"] ;
87 -> 88 ;
89 [label="gini = 0.0\nsamples = 3\nvalue = [0, 3]", fillcolor="#399de5ff"] ;
87 -> 89 ;
90 [label="homepage_clicks_by_interval <= 17.5\ngini = 0.472\nsamples = 81\nvalue = [50, 31]", fillcolor="#e5813961"] ;
74 -> 90 ;
91 [label="oucontent_clicks_by_interval <= 1.5\ngini = 0.491\nsamples = 30\nvalue = [13, 17]", fillcolor="#399de53c"] ;
90 -> 91 ;
92 [label="gini = 0.0\nsamples = 3\nvalue = [3, 0]", fillcolor="#e58139ff"] ;
91 -> 92 ;
93 [label="homepage_clicks_by_interval_change <= 14.5\ngini = 0.466\nsamples = 27\nvalue = [10, 17]", fillcolor="#399de569"] ;
91 -> 93 ;
94 [label="gini = 0.495\nsamples = 20\nvalue = [9, 11]", fillcolor="#399de52e"] ;
93 -> 94 ;
95 [label="gini = 0.245\nsamples = 7\nvalue = [1, 6]", fillcolor="#399de5d4"] ;
93 -> 95 ;
96 [label="due_vs_submission_date <= 14.5\ngini = 0.398\nsamples = 51\nvalue = [37, 14]", fillcolor="#e581399f"] ;
90 -> 96 ;
97 [label="url_clicks_by_interval <= 0.5\ngini = 0.5\nsamples = 16\nvalue = [8, 8]", fillcolor="#e5813900"] ;
96 -> 97 ;
98 [label="gini = 0.245\nsamples = 7\nvalue = [6, 1]", fillcolor="#e58139d4"] ;
97 -> 98 ;
99 [label="gini = 0.346\nsamples = 9\nvalue = [2, 7]", fillcolor="#399de5b6"] ;
97 -> 99 ;
100 [label="oucontent_clicks_by_interval_change <= 8.0\ngini = 0.284\nsamples = 35\nvalue = [29, 6]", fillcolor="#e58139ca"] ;
96 -> 100 ;
101 [label="gini = 0.0\nsamples = 2\nvalue = [0, 2]", fillcolor="#399de5ff"] ;
100 -> 101 ;
102 [label="gini = 0.213\nsamples = 33\nvalue = [29, 4]", fillcolor="#e58139dc"] ;
100 -> 102 ;
103 [label="resource_clicks_by_interval_change <= 15.5\ngini = 0.308\nsamples = 21\nvalue = [4, 17]", fillcolor="#399de5c3"] ;
73 -> 103 ;
104 [label="oucontent_clicks_by_interval_change <= 20.0\ngini = 0.117\nsamples = 16\nvalue = [1, 15]", fillcolor="#399de5ee"] ;
103 -> 104 ;
105 [label="gini = 0.0\nsamples = 1\nvalue = [1, 0]", fillcolor="#e58139ff"] ;
104 -> 105 ;
106 [label="gini = 0.0\nsamples = 15\nvalue = [0, 15]", fillcolor="#399de5ff"] ;
104 -> 106 ;
107 [label="forumng_clicks_by_interval_change <= 6.0\ngini = 0.48\nsamples = 5\nvalue = [3, 2]", fillcolor="#e5813955"] ;
103 -> 107 ;
108 [label="due_vs_submission_date <= 16.5\ngini = 0.444\nsamples = 3\nvalue = [1, 2]", fillcolor="#399de57f"] ;
107 -> 108 ;
109 [label="gini = 0.0\nsamples = 2\nvalue = [0, 2]", fillcolor="#399de5ff"] ;
108 -> 109 ;
110 [label="gini = 0.0\nsamples = 1\nvalue = [1, 0]", fillcolor="#e58139ff"] ;
108 -> 110 ;
111 [label="gini = 0.0\nsamples = 2\nvalue = [2, 0]", fillcolor="#e58139ff"] ;
107 -> 111 ;
112 [label="subpage_clicks_by_interval <= 35.0\ngini = 0.375\nsamples = 16\nvalue = [12, 4]", fillcolor="#e58139aa"] ;
72 -> 112 ;
113 [label="glossary_clicks_by_interval_change <= 1.5\ngini = 0.26\nsamples = 13\nvalue = [11, 2]", fillcolor="#e58139d1"] ;
112 -> 113 ;
114 [label="forumng_clicks_by_interval <= 7.5\ngini = 0.153\nsamples = 12\nvalue = [11, 1]", fillcolor="#e58139e8"] ;
113 -> 114 ;
115 [label="oucontent_clicks_by_interval_change <= 170.0\ngini = 0.444\nsamples = 3\nvalue = [2, 1]", fillcolor="#e581397f"] ;
114 -> 115 ;
116 [label="gini = 0.0\nsamples = 2\nvalue = [2, 0]", fillcolor="#e58139ff"] ;
115 -> 116 ;
117 [label="gini = 0.0\nsamples = 1\nvalue = [0, 1]", fillcolor="#399de5ff"] ;
115 -> 117 ;
118 [label="gini = 0.0\nsamples = 9\nvalue = [9, 0]", fillcolor="#e58139ff"] ;
114 -> 118 ;
119 [label="gini = 0.0\nsamples = 1\nvalue = [0, 1]", fillcolor="#399de5ff"] ;
113 -> 119 ;
120 [label="due_vs_submission_date <= 14.0\ngini = 0.444\nsamples = 3\nvalue = [1, 2]", fillcolor="#399de57f"] ;
112 -> 120 ;
121 [label="gini = 0.0\nsamples = 1\nvalue = [1, 0]", fillcolor="#e58139ff"] ;
120 -> 121 ;
122 [label="gini = 0.0\nsamples = 2\nvalue = [0, 2]", fillcolor="#399de5ff"] ;
120 -> 122 ;
123 [label="gini = 0.0\nsamples = 9\nvalue = [0, 9]", fillcolor="#399de5ff"] ;
71 -> 123 ;
124 [label="due_vs_submission_date <= -29.5\ngini = 0.035\nsamples = 37138\nvalue = [667, 36471]", fillcolor="#399de5fa"] ;
0 -> 124 [labeldistance=2.5, labelangle=-45, headlabel="False"] ;
125 [label="date <= 68.0\ngini = 0.341\nsamples = 142\nvalue = [31, 111]", fillcolor="#399de5b8"] ;
124 -> 125 ;
126 [label="due_vs_submission_date <= -30.5\ngini = 0.103\nsamples = 55\nvalue = [3, 52]", fillcolor="#399de5f0"] ;
125 -> 126 ;
127 [label="homepage_clicks_by_interval_change <= -16.5\ngini = 0.071\nsamples = 54\nvalue = [2, 52]", fillcolor="#399de5f5"] ;
126 -> 127 ;
128 [label="forumng_clicks_by_interval_change <= -17.0\ngini = 0.375\nsamples = 4\nvalue = [1, 3]", fillcolor="#399de5aa"] ;
127 -> 128 ;
129 [label="gini = 0.0\nsamples = 3\nvalue = [0, 3]", fillcolor="#399de5ff"] ;
128 -> 129 ;
130 [label="gini = 0.0\nsamples = 1\nvalue = [1, 0]", fillcolor="#e58139ff"] ;
128 -> 130 ;
131 [label="forumng_clicks_by_interval_change <= 36.0\ngini = 0.039\nsamples = 50\nvalue = [1, 49]", fillcolor="#399de5fa"] ;
127 -> 131 ;
132 [label="gini = 0.0\nsamples = 46\nvalue = [0, 46]", fillcolor="#399de5ff"] ;
131 -> 132 ;
133 [label="date <= 29.5\ngini = 0.375\nsamples = 4\nvalue = [1, 3]", fillcolor="#399de5aa"] ;
131 -> 133 ;
134 [label="gini = 0.0\nsamples = 1\nvalue = [1, 0]", fillcolor="#e58139ff"] ;
133 -> 134 ;
135 [label="gini = 0.0\nsamples = 3\nvalue = [0, 3]", fillcolor="#399de5ff"] ;
133 -> 135 ;
136 [label="gini = 0.0\nsamples = 1\nvalue = [1, 0]", fillcolor="#e58139ff"] ;
126 -> 136 ;
137 [label="weight <= 27.5\ngini = 0.437\nsamples = 87\nvalue = [28, 59]", fillcolor="#399de586"] ;
125 -> 137 ;
138 [label="homepage_clicks_by_interval_change <= -1.5\ngini = 0.468\nsamples = 75\nvalue = [28, 47]", fillcolor="#399de567"] ;
137 -> 138 ;
139 [label="due_vs_submission_date <= -111.0\ngini = 0.416\nsamples = 61\nvalue = [18, 43]", fillcolor="#399de594"] ;
138 -> 139 ;
140 [label="forumng_clicks_by_interval_change <= -16.5\ngini = 0.32\nsamples = 5\nvalue = [4, 1]", fillcolor="#e58139bf"] ;
139 -> 140 ;
141 [label="gini = 0.0\nsamples = 1\nvalue = [0, 1]", fillcolor="#399de5ff"] ;
140 -> 141 ;
142 [label="gini = 0.0\nsamples = 4\nvalue = [4, 0]", fillcolor="#e58139ff"] ;
140 -> 142 ;
143 [label="resource_clicks_by_interval <= 5.0\ngini = 0.375\nsamples = 56\nvalue = [14, 42]", fillcolor="#399de5aa"] ;
139 -> 143 ;
144 [label="sharedsubpage_clicks_by_interval_change <= -0.5\ngini = 0.361\nsamples = 55\nvalue = [13, 42]", fillcolor="#399de5b0"] ;
143 -> 144 ;
145 [label="gini = 0.0\nsamples = 1\nvalue = [1, 0]", fillcolor="#e58139ff"] ;
144 -> 145 ;
146 [label="forumng_clicks_by_interval_change <= -2.5\ngini = 0.346\nsamples = 54\nvalue = [12, 42]", fillcolor="#399de5b6"] ;
144 -> 146 ;
147 [label="gini = 0.238\nsamples = 29\nvalue = [4, 25]", fillcolor="#399de5d6"] ;
146 -> 147 ;
148 [label="gini = 0.435\nsamples = 25\nvalue = [8, 17]", fillcolor="#399de587"] ;
146 -> 148 ;
149 [label="gini = 0.0\nsamples = 1\nvalue = [1, 0]", fillcolor="#e58139ff"] ;
143 -> 149 ;
150 [label="homepage_clicks_by_interval_change <= -0.5\ngini = 0.408\nsamples = 14\nvalue = [10, 4]", fillcolor="#e5813999"] ;
138 -> 150 ;
151 [label="gini = 0.0\nsamples = 5\nvalue = [5, 0]", fillcolor="#e58139ff"] ;
150 -> 151 ;
152 [label="date <= 117.0\ngini = 0.494\nsamples = 9\nvalue = [5, 4]", fillcolor="#e5813933"] ;
150 -> 152 ;
153 [label="gini = 0.0\nsamples = 3\nvalue = [3, 0]", fillcolor="#e58139ff"] ;
152 -> 153 ;
154 [label="due_vs_submission_date <= -80.5\ngini = 0.444\nsamples = 6\nvalue = [2, 4]", fillcolor="#399de57f"] ;
152 -> 154 ;
155 [label="gini = 0.0\nsamples = 1\nvalue = [1, 0]", fillcolor="#e58139ff"] ;
154 -> 155 ;
156 [label="date <= 162.5\ngini = 0.32\nsamples = 5\nvalue = [1, 4]", fillcolor="#399de5bf"] ;
154 -> 156 ;
157 [label="gini = 0.0\nsamples = 3\nvalue = [0, 3]", fillcolor="#399de5ff"] ;
156 -> 157 ;
158 [label="gini = 0.5\nsamples = 2\nvalue = [1, 1]", fillcolor="#e5813900"] ;
156 -> 158 ;
159 [label="gini = 0.0\nsamples = 12\nvalue = [0, 12]", fillcolor="#399de5ff"] ;
137 -> 159 ;
160 [label="forumng_clicks_by_interval <= 1.5\ngini = 0.034\nsamples = 36996\nvalue = [636, 36360]", fillcolor="#399de5fb"] ;
124 -> 160 ;
161 [label="forumng_clicks_by_interval_change <= -2.5\ngini = 0.053\nsamples = 18328\nvalue = [499, 17829]", fillcolor="#399de5f8"] ;
160 -> 161 ;
162 [label="sharedsubpage_clicks_by_interval_change <= -4.0\ngini = 0.036\nsamples = 9288\nvalue = [172, 9116]", fillcolor="#399de5fa"] ;
161 -> 162 ;
163 [label="gini = 0.0\nsamples = 1\nvalue = [1, 0]", fillcolor="#e58139ff"] ;
162 -> 163 ;
164 [label="due_vs_submission_date <= 0.5\ngini = 0.036\nsamples = 9287\nvalue = [171, 9116]", fillcolor="#399de5fa"] ;
162 -> 164 ;
165 [label="oucollaborate_clicks_by_interval <= 8.0\ngini = 0.052\nsamples = 4980\nvalue = [134, 4846]", fillcolor="#399de5f8"] ;
164 -> 165 ;
166 [label="weight <= 14.0\ngini = 0.052\nsamples = 4977\nvalue = [132, 4845]", fillcolor="#399de5f8"] ;
165 -> 166 ;
167 [label="glossary_clicks_by_interval_change <= -9.5\ngini = 0.009\nsamples = 921\nvalue = [4, 917]", fillcolor="#399de5fe"] ;
166 -> 167 ;
168 [label="gini = 0.0\nsamples = 1\nvalue = [1, 0]", fillcolor="#e58139ff"] ;
167 -> 168 ;
169 [label="gini = 0.007\nsamples = 920\nvalue = [3, 917]", fillcolor="#399de5fe"] ;
167 -> 169 ;
170 [label="oucollaborate_clicks_by_interval_change <= -15.0\ngini = 0.061\nsamples = 4056\nvalue = [128, 3928]", fillcolor="#399de5f7"] ;
166 -> 170 ;
171 [label="gini = 0.5\nsamples = 2\nvalue = [1, 1]", fillcolor="#e5813900"] ;
170 -> 171 ;
172 [label="gini = 0.061\nsamples = 4054\nvalue = [127, 3927]", fillcolor="#399de5f7"] ;
170 -> 172 ;
173 [label="oucontent_clicks_by_interval <= 203.0\ngini = 0.444\nsamples = 3\nvalue = [2, 1]", fillcolor="#e581397f"] ;
165 -> 173 ;
174 [label="gini = 0.0\nsamples = 2\nvalue = [2, 0]", fillcolor="#e58139ff"] ;
173 -> 174 ;
175 [label="gini = 0.0\nsamples = 1\nvalue = [0, 1]", fillcolor="#399de5ff"] ;
173 -> 175 ;
176 [label="resource_clicks_by_interval_change <= -138.5\ngini = 0.017\nsamples = 4307\nvalue = [37, 4270]", fillcolor="#399de5fd"] ;
164 -> 176 ;
177 [label="due_vs_submission_date <= 3.0\ngini = 0.5\nsamples = 2\nvalue = [1, 1]", fillcolor="#e5813900"] ;
176 -> 177 ;
178 [label="gini = 0.0\nsamples = 1\nvalue = [0, 1]", fillcolor="#399de5ff"] ;
177 -> 178 ;
179 [label="gini = 0.0\nsamples = 1\nvalue = [1, 0]", fillcolor="#e58139ff"] ;
177 -> 179 ;
180 [label="homepage_clicks_by_interval_change <= -20.5\ngini = 0.017\nsamples = 4305\nvalue = [36, 4269]", fillcolor="#399de5fd"] ;
176 -> 180 ;
181 [label="forumng_clicks_by_interval_change <= -1776.5\ngini = 0.007\nsamples = 2539\nvalue = [9, 2530]", fillcolor="#399de5fe"] ;
180 -> 181 ;
182 [label="gini = 0.198\nsamples = 9\nvalue = [1, 8]", fillcolor="#399de5df"] ;
181 -> 182 ;
183 [label="gini = 0.006\nsamples = 2530\nvalue = [8, 2522]", fillcolor="#399de5fe"] ;
181 -> 183 ;
184 [label="sharedsubpage_clicks_by_interval_change <= -0.5\ngini = 0.03\nsamples = 1766\nvalue = [27, 1739]", fillcolor="#399de5fb"] ;
180 -> 184 ;
185 [label="gini = 0.444\nsamples = 3\nvalue = [1, 2]", fillcolor="#399de57f"] ;
184 -> 185 ;
186 [label="gini = 0.029\nsamples = 1763\nvalue = [26, 1737]", fillcolor="#399de5fb"] ;
184 -> 186 ;
187 [label="weight <= 14.0\ngini = 0.07\nsamples = 9040\nvalue = [327, 8713]", fillcolor="#399de5f5"] ;
161 -> 187 ;
188 [label="oucontent_clicks_by_interval_change <= -152.0\ngini = 0.038\nsamples = 4306\nvalue = [83, 4223]", fillcolor="#399de5fa"] ;
187 -> 188 ;
189 [label="resource_clicks_by_interval_change <= 1.0\ngini = 0.5\nsamples = 2\nvalue = [1, 1]", fillcolor="#e5813900"] ;
188 -> 189 ;
190 [label="gini = 0.0\nsamples = 1\nvalue = [1, 0]", fillcolor="#e58139ff"] ;
189 -> 190 ;
191 [label="gini = 0.0\nsamples = 1\nvalue = [0, 1]", fillcolor="#399de5ff"] ;
189 -> 191 ;
192 [label="due_vs_submission_date <= -7.5\ngini = 0.037\nsamples = 4304\nvalue = [82, 4222]", fillcolor="#399de5fa"] ;
188 -> 192 ;
193 [label="due_vs_submission_date <= -9.5\ngini = 0.146\nsamples = 88\nvalue = [7, 81]", fillcolor="#399de5e9"] ;
192 -> 193 ;
194 [label="resource_clicks_by_interval_change <= 1.5\ngini = 0.079\nsamples = 73\nvalue = [3, 70]", fillcolor="#399de5f4"] ;
193 -> 194 ;
195 [label="gini = 0.034\nsamples = 57\nvalue = [1, 56]", fillcolor="#399de5fa"] ;
194 -> 195 ;
196 [label="gini = 0.219\nsamples = 16\nvalue = [2, 14]", fillcolor="#399de5db"] ;
194 -> 196 ;
197 [label="assessment_type_CMA <= 0.5\ngini = 0.391\nsamples = 15\nvalue = [4, 11]", fillcolor="#399de5a2"] ;
193 -> 197 ;
198 [label="gini = 0.337\nsamples = 14\nvalue = [3, 11]", fillcolor="#399de5b9"] ;
197 -> 198 ;
199 [label="gini = 0.0\nsamples = 1\nvalue = [1, 0]", fillcolor="#e58139ff"] ;
197 -> 199 ;
200 [label="quiz_clicks_by_interval_change <= 131.5\ngini = 0.035\nsamples = 4216\nvalue = [75, 4141]", fillcolor="#399de5fa"] ;
192 -> 200 ;
201 [label="due_vs_submission_date <= 202.0\ngini = 0.035\nsamples = 4213\nvalue = [74, 4139]", fillcolor="#399de5fa"] ;
200 -> 201 ;
202 [label="gini = 0.034\nsamples = 4209\nvalue = [73, 4136]", fillcolor="#399de5fa"] ;
201 -> 202 ;
203 [label="gini = 0.375\nsamples = 4\nvalue = [1, 3]", fillcolor="#399de5aa"] ;
201 -> 203 ;
204 [label="homepage_clicks_by_interval_change <= -9.5\ngini = 0.444\nsamples = 3\nvalue = [1, 2]", fillcolor="#399de57f"] ;
200 -> 204 ;
205 [label="gini = 0.0\nsamples = 1\nvalue = [1, 0]", fillcolor="#e58139ff"] ;
204 -> 205 ;
206 [label="gini = 0.0\nsamples = 2\nvalue = [0, 2]", fillcolor="#399de5ff"] ;
204 -> 206 ;
207 [label="oucontent_clicks_by_interval <= 19.5\ngini = 0.098\nsamples = 4734\nvalue = [244, 4490]", fillcolor="#399de5f1"] ;
187 -> 207 ;
208 [label="quiz_clicks_by_interval_change <= -4.5\ngini = 0.111\nsamples = 3764\nvalue = [223, 3541]", fillcolor="#399de5ef"] ;
207 -> 208 ;
209 [label="quiz_clicks_by_interval_change <= -28.5\ngini = 0.092\nsamples = 2579\nvalue = [124, 2455]", fillcolor="#399de5f2"] ;
208 -> 209 ;
210 [label="date <= 141.5\ngini = 0.23\nsamples = 158\nvalue = [21, 137]", fillcolor="#399de5d8"] ;
209 -> 210 ;
211 [label="gini = 0.101\nsamples = 75\nvalue = [4, 71]", fillcolor="#399de5f1"] ;
210 -> 211 ;
212 [label="gini = 0.326\nsamples = 83\nvalue = [17, 66]", fillcolor="#399de5bd"] ;
210 -> 212 ;
213 [label="oucontent_clicks_by_interval_change <= -1.5\ngini = 0.081\nsamples = 2421\nvalue = [103, 2318]", fillcolor="#399de5f4"] ;
209 -> 213 ;
214 [label="gini = 0.038\nsamples = 674\nvalue = [13, 661]", fillcolor="#399de5fa"] ;
213 -> 214 ;
215 [label="gini = 0.098\nsamples = 1747\nvalue = [90, 1657]", fillcolor="#399de5f1"] ;
213 -> 215 ;
216 [label="quiz_clicks_by_interval <= 29.5\ngini = 0.153\nsamples = 1185\nvalue = [99, 1086]", fillcolor="#399de5e8"] ;
208 -> 216 ;
217 [label="homepage_clicks_by_interval <= 0.5\ngini = 0.146\nsamples = 1152\nvalue = [91, 1061]", fillcolor="#399de5e9"] ;
216 -> 217 ;
218 [label="gini = 0.198\nsamples = 564\nvalue = [63, 501]", fillcolor="#399de5df"] ;
217 -> 218 ;
219 [label="gini = 0.091\nsamples = 588\nvalue = [28, 560]", fillcolor="#399de5f2"] ;
217 -> 219 ;
220 [label="forumng_clicks_by_interval_change <= -0.5\ngini = 0.367\nsamples = 33\nvalue = [8, 25]", fillcolor="#399de5ad"] ;
216 -> 220 ;
221 [label="gini = 0.0\nsamples = 2\nvalue = [2, 0]", fillcolor="#e58139ff"] ;
220 -> 221 ;
222 [label="gini = 0.312\nsamples = 31\nvalue = [6, 25]", fillcolor="#399de5c2"] ;
220 -> 222 ;
223 [label="subpage_clicks_by_interval_change <= -51.5\ngini = 0.042\nsamples = 970\nvalue = [21, 949]", fillcolor="#399de5f9"] ;
207 -> 223 ;
224 [label="gini = 0.0\nsamples = 1\nvalue = [1, 0]", fillcolor="#e58139ff"] ;
223 -> 224 ;
225 [label="subpage_clicks_by_interval_change <= 33.5\ngini = 0.04\nsamples = 969\nvalue = [20, 949]", fillcolor="#399de5fa"] ;
223 -> 225 ;
226 [label="homepage_clicks_by_interval <= 0.5\ngini = 0.039\nsamples = 967\nvalue = [19, 948]", fillcolor="#399de5fa"] ;
225 -> 226 ;
227 [label="gini = 0.444\nsamples = 3\nvalue = [1, 2]", fillcolor="#399de57f"] ;
226 -> 227 ;
228 [label="gini = 0.037\nsamples = 964\nvalue = [18, 946]", fillcolor="#399de5fa"] ;
226 -> 228 ;
229 [label="oucontent_clicks_by_interval <= 179.5\ngini = 0.5\nsamples = 2\nvalue = [1, 1]", fillcolor="#e5813900"] ;
225 -> 229 ;
230 [label="gini = 0.0\nsamples = 1\nvalue = [1, 0]", fillcolor="#e58139ff"] ;
229 -> 230 ;
231 [label="gini = 0.0\nsamples = 1\nvalue = [0, 1]", fillcolor="#399de5ff"] ;
229 -> 231 ;
232 [label="sharedsubpage_clicks_by_interval <= 4.5\ngini = 0.015\nsamples = 18668\nvalue = [137, 18531]", fillcolor="#399de5fd"] ;
160 -> 232 ;
233 [label="subpage_clicks_by_interval_change <= -96.0\ngini = 0.014\nsamples = 18667\nvalue = [136, 18531]", fillcolor="#399de5fd"] ;
232 -> 233 ;
234 [label="gini = 0.0\nsamples = 1\nvalue = [1, 0]", fillcolor="#e58139ff"] ;
233 -> 234 ;
235 [label="weight <= 14.0\ngini = 0.014\nsamples = 18666\nvalue = [135, 18531]", fillcolor="#399de5fd"] ;
233 -> 235 ;
236 [label="due_vs_submission_date <= -21.5\ngini = 0.011\nsamples = 14230\nvalue = [76, 14154]", fillcolor="#399de5fe"] ;
235 -> 236 ;
237 [label="resource_clicks_by_interval_change <= 34.5\ngini = 0.375\nsamples = 4\nvalue = [1, 3]", fillcolor="#399de5aa"] ;
236 -> 237 ;
238 [label="gini = 0.0\nsamples = 3\nvalue = [0, 3]", fillcolor="#399de5ff"] ;
237 -> 238 ;
239 [label="gini = 0.0\nsamples = 1\nvalue = [1, 0]", fillcolor="#e58139ff"] ;
237 -> 239 ;
240 [label="due_vs_submission_date <= -6.5\ngini = 0.01\nsamples = 14226\nvalue = [75, 14151]", fillcolor="#399de5fe"] ;
236 -> 240 ;
241 [label="date <= 148.5\ngini = 0.076\nsamples = 101\nvalue = [4, 97]", fillcolor="#399de5f4"] ;
240 -> 241 ;
242 [label="gini = 0.058\nsamples = 100\nvalue = [3, 97]", fillcolor="#399de5f7"] ;
241 -> 242 ;
243 [label="gini = 0.0\nsamples = 1\nvalue = [1, 0]", fillcolor="#e58139ff"] ;
241 -> 243 ;
244 [label="forumng_clicks_by_interval <= 13.5\ngini = 0.01\nsamples = 14125\nvalue = [71, 14054]", fillcolor="#399de5fe"] ;
240 -> 244 ;
245 [label="gini = 0.018\nsamples = 4071\nvalue = [37, 4034]", fillcolor="#399de5fd"] ;
244 -> 245 ;
246 [label="gini = 0.007\nsamples = 10054\nvalue = [34, 10020]", fillcolor="#399de5fe"] ;
244 -> 246 ;
247 [label="homepage_clicks_by_interval <= 10.5\ngini = 0.026\nsamples = 4436\nvalue = [59, 4377]", fillcolor="#399de5fc"] ;
235 -> 247 ;
248 [label="forumng_clicks_by_interval_change <= 63.5\ngini = 0.081\nsamples = 494\nvalue = [21, 473]", fillcolor="#399de5f4"] ;
247 -> 248 ;
249 [label="url_clicks_by_interval_change <= -1.5\ngini = 0.071\nsamples = 489\nvalue = [18, 471]", fillcolor="#399de5f5"] ;
248 -> 249 ;
250 [label="gini = 0.139\nsamples = 146\nvalue = [11, 135]", fillcolor="#399de5ea"] ;
249 -> 250 ;
251 [label="gini = 0.04\nsamples = 343\nvalue = [7, 336]", fillcolor="#399de5fa"] ;
249 -> 251 ;
252 [label="homepage_clicks_by_interval_change <= 4.5\ngini = 0.48\nsamples = 5\nvalue = [3, 2]", fillcolor="#e5813955"] ;
248 -> 252 ;
253 [label="gini = 0.0\nsamples = 3\nvalue = [3, 0]", fillcolor="#e58139ff"] ;
252 -> 253 ;
254 [label="gini = 0.0\nsamples = 2\nvalue = [0, 2]", fillcolor="#399de5ff"] ;
252 -> 254 ;
255 [label="subpage_clicks_by_interval_change <= -62.5\ngini = 0.019\nsamples = 3942\nvalue = [38, 3904]", fillcolor="#399de5fd"] ;
247 -> 255 ;
256 [label="subpage_clicks_by_interval <= 3.5\ngini = 0.32\nsamples = 5\nvalue = [1, 4]", fillcolor="#399de5bf"] ;
255 -> 256 ;
257 [label="gini = 0.0\nsamples = 1\nvalue = [1, 0]", fillcolor="#e58139ff"] ;
256 -> 257 ;
258 [label="gini = 0.0\nsamples = 4\nvalue = [0, 4]", fillcolor="#399de5ff"] ;
256 -> 258 ;
259 [label="url_clicks_by_interval <= 30.5\ngini = 0.019\nsamples = 3937\nvalue = [37, 3900]", fillcolor="#399de5fd"] ;
255 -> 259 ;
260 [label="gini = 0.018\nsamples = 3932\nvalue = [36, 3896]", fillcolor="#399de5fd"] ;
259 -> 260 ;
261 [label="gini = 0.32\nsamples = 5\nvalue = [1, 4]", fillcolor="#399de5bf"] ;
259 -> 261 ;
262 [label="gini = 0.0\nsamples = 1\nvalue = [1, 0]", fillcolor="#e58139ff"] ;
232 -> 262 ;
}