digraph Tree {
node [shape=box, style="filled", color="black"] ;
0 [label="highest_education_Lower Than A Level <= 0.5\ngini = 0.165\nsamples = 15324\nvalue = [1386, 13938]", fillcolor="#399de5e6"] ;
1 [label="imd_band_20-30% <= 0.5\ngini = 0.145\nsamples = 11787\nvalue = [925, 10862]", fillcolor="#399de5e9"] ;
0 -> 1 [labeldistance=2.5, labelangle=45, headlabel="True"] ;
2 [label="date <= 25.0\ngini = 0.136\nsamples = 10812\nvalue = [794, 10018]", fillcolor="#399de5eb"] ;
1 -> 2 ;
3 [label="region_West Midlands Region <= 0.5\ngini = 0.183\nsamples = 1962\nvalue = [200, 1762]", fillcolor="#399de5e2"] ;
2 -> 3 ;
4 [label="studied_credits <= 260.0\ngini = 0.173\nsamples = 1820\nvalue = [174, 1646]", fillcolor="#399de5e4"] ;
3 -> 4 ;
5 [label="gender_F <= 0.5\ngini = 0.172\nsamples = 1819\nvalue = [173, 1646]", fillcolor="#399de5e4"] ;
4 -> 5 ;
6 [label="imd_band_80-90% <= 0.5\ngini = 0.188\nsamples = 1352\nvalue = [142, 1210]", fillcolor="#399de5e1"] ;
5 -> 6 ;
7 [label="gini = 0.2\nsamples = 1179\nvalue = [133, 1046]", fillcolor="#399de5df"] ;
6 -> 7 ;
8 [label="gini = 0.099\nsamples = 173\nvalue = [9, 164]", fillcolor="#399de5f1"] ;
6 -> 8 ;
9 [label="region_London Region <= 0.5\ngini = 0.124\nsamples = 467\nvalue = [31, 436]", fillcolor="#399de5ed"] ;
5 -> 9 ;
10 [label="gini = 0.109\nsamples = 415\nvalue = [24, 391]", fillcolor="#399de5ef"] ;
9 -> 10 ;
11 [label="gini = 0.233\nsamples = 52\nvalue = [7, 45]", fillcolor="#399de5d7"] ;
9 -> 11 ;
12 [label="gini = 0.0\nsamples = 1\nvalue = [1, 0]", fillcolor="#e58139ff"] ;
4 -> 12 ;
13 [label="studied_credits <= 140.0\ngini = 0.299\nsamples = 142\nvalue = [26, 116]", fillcolor="#399de5c6"] ;
3 -> 13 ;
14 [label="studied_credits <= 70.0\ngini = 0.278\nsamples = 132\nvalue = [22, 110]", fillcolor="#399de5cc"] ;
13 -> 14 ;
15 [label="imd_band_0-10% <= 0.5\ngini = 0.314\nsamples = 87\nvalue = [17, 70]", fillcolor="#399de5c1"] ;
14 -> 15 ;
16 [label="gini = 0.272\nsamples = 74\nvalue = [12, 62]", fillcolor="#399de5ce"] ;
15 -> 16 ;
17 [label="gini = 0.473\nsamples = 13\nvalue = [5, 8]", fillcolor="#399de560"] ;
15 -> 17 ;
18 [label="imd_band_60-70% <= 0.5\ngini = 0.198\nsamples = 45\nvalue = [5, 40]", fillcolor="#399de5df"] ;
14 -> 18 ;
19 [label="gini = 0.139\nsamples = 40\nvalue = [3, 37]", fillcolor="#399de5ea"] ;
18 -> 19 ;
20 [label="gini = 0.48\nsamples = 5\nvalue = [2, 3]", fillcolor="#399de555"] ;
18 -> 20 ;
21 [label="imd_band_10-20% <= 0.5\ngini = 0.48\nsamples = 10\nvalue = [4, 6]", fillcolor="#399de555"] ;
13 -> 21 ;
22 [label="age_band_0-35 <= 0.5\ngini = 0.5\nsamples = 8\nvalue = [4, 4]", fillcolor="#e5813900"] ;
21 -> 22 ;
23 [label="gini = 0.0\nsamples = 1\nvalue = [0, 1]", fillcolor="#399de5ff"] ;
22 -> 23 ;
24 [label="gini = 0.49\nsamples = 7\nvalue = [4, 3]", fillcolor="#e5813940"] ;
22 -> 24 ;
25 [label="gini = 0.0\nsamples = 2\nvalue = [0, 2]", fillcolor="#399de5ff"] ;
21 -> 25 ;
26 [label="highest_education_A Level or Equivalent <= 0.5\ngini = 0.125\nsamples = 8850\nvalue = [594, 8256]", fillcolor="#399de5ed"] ;
2 -> 26 ;
27 [label="imd_band_0-10% <= 0.5\ngini = 0.095\nsamples = 3397\nvalue = [169, 3228]", fillcolor="#399de5f2"] ;
26 -> 27 ;
28 [label="date <= 84.5\ngini = 0.087\nsamples = 3222\nvalue = [146, 3076]", fillcolor="#399de5f3"] ;
27 -> 28 ;
29 [label="imd_band_50-60% <= 0.5\ngini = 0.047\nsamples = 1091\nvalue = [26, 1065]", fillcolor="#399de5f9"] ;
28 -> 29 ;
30 [label="gini = 0.035\nsamples = 996\nvalue = [18, 978]", fillcolor="#399de5fa"] ;
29 -> 30 ;
31 [label="gini = 0.154\nsamples = 95\nvalue = [8, 87]", fillcolor="#399de5e8"] ;
29 -> 31 ;
32 [label="region_North Western Region <= 0.5\ngini = 0.106\nsamples = 2131\nvalue = [120, 2011]", fillcolor="#399de5f0"] ;
28 -> 32 ;
33 [label="gini = 0.096\nsamples = 2027\nvalue = [103, 1924]", fillcolor="#399de5f1"] ;
32 -> 33 ;
34 [label="gini = 0.273\nsamples = 104\nvalue = [17, 87]", fillcolor="#399de5cd"] ;
32 -> 34 ;
35 [label="disability_N <= 0.5\ngini = 0.228\nsamples = 175\nvalue = [23, 152]", fillcolor="#399de5d8"] ;
27 -> 35 ;
36 [label="region_London Region <= 0.5\ngini = 0.459\nsamples = 14\nvalue = [5, 9]", fillcolor="#399de571"] ;
35 -> 36 ;
37 [label="gini = 0.375\nsamples = 12\nvalue = [3, 9]", fillcolor="#399de5aa"] ;
36 -> 37 ;
38 [label="gini = 0.0\nsamples = 2\nvalue = [2, 0]", fillcolor="#e58139ff"] ;
36 -> 38 ;
39 [label="region_Yorkshire Region <= 0.5\ngini = 0.199\nsamples = 161\nvalue = [18, 143]", fillcolor="#399de5df"] ;
35 -> 39 ;
40 [label="gini = 0.157\nsamples = 140\nvalue = [12, 128]", fillcolor="#399de5e7"] ;
39 -> 40 ;
41 [label="gini = 0.408\nsamples = 21\nvalue = [6, 15]", fillcolor="#399de599"] ;
39 -> 41 ;
42 [label="region_North Western Region <= 0.5\ngini = 0.144\nsamples = 5453\nvalue = [425, 5028]", fillcolor="#399de5e9"] ;
26 -> 42 ;
43 [label="date <= 154.5\ngini = 0.137\nsamples = 5012\nvalue = [370, 4642]", fillcolor="#399de5eb"] ;
42 -> 43 ;
44 [label="num_of_prev_attempts <= 0.5\ngini = 0.121\nsamples = 3424\nvalue = [221, 3203]", fillcolor="#399de5ed"] ;
43 -> 44 ;
45 [label="gini = 0.115\nsamples = 3251\nvalue = [199, 3052]", fillcolor="#399de5ee"] ;
44 -> 45 ;
46 [label="gini = 0.222\nsamples = 173\nvalue = [22, 151]", fillcolor="#399de5da"] ;
44 -> 46 ;
47 [label="region_Scotland <= 0.5\ngini = 0.17\nsamples = 1588\nvalue = [149, 1439]", fillcolor="#399de5e5"] ;
43 -> 47 ;
48 [label="gini = 0.156\nsamples = 1394\nvalue = [119, 1275]", fillcolor="#399de5e7"] ;
47 -> 48 ;
49 [label="gini = 0.261\nsamples = 194\nvalue = [30, 164]", fillcolor="#399de5d0"] ;
47 -> 49 ;
50 [label="studied_credits <= 75.0\ngini = 0.218\nsamples = 441\nvalue = [55, 386]", fillcolor="#399de5db"] ;
42 -> 50 ;
51 [label="imd_band_30-40% <= 0.5\ngini = 0.172\nsamples = 327\nvalue = [31, 296]", fillcolor="#399de5e4"] ;
50 -> 51 ;
52 [label="gini = 0.134\nsamples = 305\nvalue = [22, 283]", fillcolor="#399de5eb"] ;
51 -> 52 ;
53 [label="gini = 0.483\nsamples = 22\nvalue = [9, 13]", fillcolor="#399de54e"] ;
51 -> 53 ;
54 [label="date <= 84.5\ngini = 0.332\nsamples = 114\nvalue = [24, 90]", fillcolor="#399de5bb"] ;
50 -> 54 ;
55 [label="gini = 0.139\nsamples = 40\nvalue = [3, 37]", fillcolor="#399de5ea"] ;
54 -> 55 ;
56 [label="gini = 0.407\nsamples = 74\nvalue = [21, 53]", fillcolor="#399de59a"] ;
54 -> 56 ;
57 [label="studied_credits <= 70.0\ngini = 0.233\nsamples = 975\nvalue = [131, 844]", fillcolor="#399de5d7"] ;
1 -> 57 ;
58 [label="region_East Midlands Region <= 0.5\ngini = 0.182\nsamples = 653\nvalue = [66, 587]", fillcolor="#399de5e2"] ;
57 -> 58 ;
59 [label="studied_credits <= 40.0\ngini = 0.166\nsamples = 615\nvalue = [56, 559]", fillcolor="#399de5e5"] ;
58 -> 59 ;
60 [label="highest_education_HE Qualification <= 0.5\ngini = 0.258\nsamples = 197\nvalue = [30, 167]", fillcolor="#399de5d1"] ;
59 -> 60 ;
61 [label="age_band_0-35 <= 0.5\ngini = 0.35\nsamples = 93\nvalue = [21, 72]", fillcolor="#399de5b5"] ;
60 -> 61 ;
62 [label="gini = 0.0\nsamples = 34\nvalue = [0, 34]", fillcolor="#399de5ff"] ;
61 -> 62 ;
63 [label="gini = 0.458\nsamples = 59\nvalue = [21, 38]", fillcolor="#399de572"] ;
61 -> 63 ;
64 [label="region_South Region <= 0.5\ngini = 0.158\nsamples = 104\nvalue = [9, 95]", fillcolor="#399de5e7"] ;
60 -> 64 ;
65 [label="gini = 0.143\nsamples = 103\nvalue = [8, 95]", fillcolor="#399de5ea"] ;
64 -> 65 ;
66 [label="gini = 0.0\nsamples = 1\nvalue = [1, 0]", fillcolor="#e58139ff"] ;
64 -> 66 ;
67 [label="date <= 25.0\ngini = 0.117\nsamples = 418\nvalue = [26, 392]", fillcolor="#399de5ee"] ;
59 -> 67 ;
68 [label="region_Scotland <= 0.5\ngini = 0.217\nsamples = 89\nvalue = [11, 78]", fillcolor="#399de5db"] ;
67 -> 68 ;
69 [label="gini = 0.159\nsamples = 69\nvalue = [6, 63]", fillcolor="#399de5e7"] ;
68 -> 69 ;
70 [label="gini = 0.375\nsamples = 20\nvalue = [5, 15]", fillcolor="#399de5aa"] ;
68 -> 70 ;
71 [label="region_Scotland <= 0.5\ngini = 0.087\nsamples = 329\nvalue = [15, 314]", fillcolor="#399de5f3"] ;
67 -> 71 ;
72 [label="gini = 0.106\nsamples = 250\nvalue = [14, 236]", fillcolor="#399de5f0"] ;
71 -> 72 ;
73 [label="gini = 0.025\nsamples = 79\nvalue = [1, 78]", fillcolor="#399de5fc"] ;
71 -> 73 ;
74 [label="gender_M <= 0.5\ngini = 0.388\nsamples = 38\nvalue = [10, 28]", fillcolor="#399de5a4"] ;
58 -> 74 ;
75 [label="num_of_prev_attempts <= 0.5\ngini = 0.48\nsamples = 10\nvalue = [6, 4]", fillcolor="#e5813955"] ;
74 -> 75 ;
76 [label="weight <= 8.5\ngini = 0.32\nsamples = 5\nvalue = [4, 1]", fillcolor="#e58139bf"] ;
75 -> 76 ;
77 [label="gini = 0.0\nsamples = 3\nvalue = [3, 0]", fillcolor="#e58139ff"] ;
76 -> 77 ;
78 [label="gini = 0.5\nsamples = 2\nvalue = [1, 1]", fillcolor="#e5813900"] ;
76 -> 78 ;
79 [label="weight <= 4.5\ngini = 0.48\nsamples = 5\nvalue = [2, 3]", fillcolor="#399de555"] ;
75 -> 79 ;
80 [label="gini = 0.0\nsamples = 1\nvalue = [1, 0]", fillcolor="#e58139ff"] ;
79 -> 80 ;
81 [label="gini = 0.375\nsamples = 4\nvalue = [1, 3]", fillcolor="#399de5aa"] ;
79 -> 81 ;
82 [label="date <= 123.0\ngini = 0.245\nsamples = 28\nvalue = [4, 24]", fillcolor="#399de5d4"] ;
74 -> 82 ;
83 [label="date <= 105.5\ngini = 0.375\nsamples = 16\nvalue = [4, 12]", fillcolor="#399de5aa"] ;
82 -> 83 ;
84 [label="gini = 0.337\nsamples = 14\nvalue = [3, 11]", fillcolor="#399de5b9"] ;
83 -> 84 ;
85 [label="gini = 0.5\nsamples = 2\nvalue = [1, 1]", fillcolor="#e5813900"] ;
83 -> 85 ;
86 [label="gini = 0.0\nsamples = 12\nvalue = [0, 12]", fillcolor="#399de5ff"] ;
82 -> 86 ;
87 [label="region_Yorkshire Region <= 0.5\ngini = 0.322\nsamples = 322\nvalue = [65, 257]", fillcolor="#399de5bf"] ;
57 -> 87 ;
88 [label="region_North Region <= 0.5\ngini = 0.304\nsamples = 310\nvalue = [58, 252]", fillcolor="#399de5c4"] ;
87 -> 88 ;
89 [label="region_East Midlands Region <= 0.5\ngini = 0.298\nsamples = 308\nvalue = [56, 252]", fillcolor="#399de5c6"] ;
88 -> 89 ;
90 [label="studied_credits <= 215.0\ngini = 0.276\nsamples = 290\nvalue = [48, 242]", fillcolor="#399de5cc"] ;
89 -> 90 ;
91 [label="gini = 0.263\nsamples = 283\nvalue = [44, 239]", fillcolor="#399de5d0"] ;
90 -> 91 ;
92 [label="gini = 0.49\nsamples = 7\nvalue = [4, 3]", fillcolor="#e5813940"] ;
90 -> 92 ;
93 [label="gender_F <= 0.5\ngini = 0.494\nsamples = 18\nvalue = [8, 10]", fillcolor="#399de533"] ;
89 -> 93 ;
94 [label="gini = 0.49\nsamples = 14\nvalue = [8, 6]", fillcolor="#e5813940"] ;
93 -> 94 ;
95 [label="gini = 0.0\nsamples = 4\nvalue = [0, 4]", fillcolor="#399de5ff"] ;
93 -> 95 ;
96 [label="gini = 0.0\nsamples = 2\nvalue = [2, 0]", fillcolor="#e58139ff"] ;
88 -> 96 ;
97 [label="date <= 49.5\ngini = 0.486\nsamples = 12\nvalue = [7, 5]", fillcolor="#e5813949"] ;
87 -> 97 ;
98 [label="highest_education_A Level or Equivalent <= 0.5\ngini = 0.408\nsamples = 7\nvalue = [2, 5]", fillcolor="#399de599"] ;
97 -> 98 ;
99 [label="weight <= 5.5\ngini = 0.444\nsamples = 3\nvalue = [2, 1]", fillcolor="#e581397f"] ;
98 -> 99 ;
100 [label="gini = 0.0\nsamples = 2\nvalue = [2, 0]", fillcolor="#e58139ff"] ;
99 -> 100 ;
101 [label="gini = 0.0\nsamples = 1\nvalue = [0, 1]", fillcolor="#399de5ff"] ;
99 -> 101 ;
102 [label="gini = 0.0\nsamples = 4\nvalue = [0, 4]", fillcolor="#399de5ff"] ;
98 -> 102 ;
103 [label="gini = 0.0\nsamples = 5\nvalue = [5, 0]", fillcolor="#e58139ff"] ;
97 -> 103 ;
104 [label="studied_credits <= 85.0\ngini = 0.227\nsamples = 3537\nvalue = [461, 3076]", fillcolor="#399de5d9"] ;
0 -> 104 [labeldistance=2.5, labelangle=-45, headlabel="False"] ;
105 [label="region_Yorkshire Region <= 0.5\ngini = 0.197\nsamples = 2450\nvalue = [272, 2178]", fillcolor="#399de5df"] ;
104 -> 105 ;
106 [label="region_East Anglian Region <= 0.5\ngini = 0.187\nsamples = 2326\nvalue = [243, 2083]", fillcolor="#399de5e1"] ;
105 -> 106 ;
107 [label="imd_band_50-60% <= 0.5\ngini = 0.178\nsamples = 2097\nvalue = [207, 1890]", fillcolor="#399de5e3"] ;
106 -> 107 ;
108 [label="weight <= 4.5\ngini = 0.168\nsamples = 1938\nvalue = [179, 1759]", fillcolor="#399de5e5"] ;
107 -> 108 ;
109 [label="region_East Midlands Region <= 0.5\ngini = 0.208\nsamples = 407\nvalue = [48, 359]", fillcolor="#399de5dd"] ;
108 -> 109 ;
110 [label="gini = 0.194\nsamples = 377\nvalue = [41, 336]", fillcolor="#399de5e0"] ;
109 -> 110 ;
111 [label="gini = 0.358\nsamples = 30\nvalue = [7, 23]", fillcolor="#399de5b1"] ;
109 -> 111 ;
112 [label="region_South East Region <= 0.5\ngini = 0.156\nsamples = 1531\nvalue = [131, 1400]", fillcolor="#399de5e7"] ;
108 -> 112 ;
113 [label="gini = 0.152\nsamples = 1429\nvalue = [118, 1311]", fillcolor="#399de5e8"] ;
112 -> 113 ;
114 [label="gini = 0.222\nsamples = 102\nvalue = [13, 89]", fillcolor="#399de5da"] ;
112 -> 114 ;
115 [label="region_North Western Region <= 0.5\ngini = 0.29\nsamples = 159\nvalue = [28, 131]", fillcolor="#399de5c8"] ;
107 -> 115 ;
116 [label="region_Wales <= 0.5\ngini = 0.257\nsamples = 152\nvalue = [23, 129]", fillcolor="#399de5d2"] ;
115 -> 116 ;
117 [label="gini = 0.242\nsamples = 149\nvalue = [21, 128]", fillcolor="#399de5d5"] ;
116 -> 117 ;
118 [label="gini = 0.444\nsamples = 3\nvalue = [2, 1]", fillcolor="#e581397f"] ;
116 -> 118 ;
119 [label="date <= 49.5\ngini = 0.408\nsamples = 7\nvalue = [5, 2]", fillcolor="#e5813999"] ;
115 -> 119 ;
120 [label="gini = 0.48\nsamples = 5\nvalue = [3, 2]", fillcolor="#e5813955"] ;
119 -> 120 ;
121 [label="gini = 0.0\nsamples = 2\nvalue = [2, 0]", fillcolor="#e58139ff"] ;
119 -> 121 ;
122 [label="imd_band_70-80% <= 0.5\ngini = 0.265\nsamples = 229\nvalue = [36, 193]", fillcolor="#399de5cf"] ;
106 -> 122 ;
123 [label="studied_credits <= 45.0\ngini = 0.301\nsamples = 184\nvalue = [34, 150]", fillcolor="#399de5c5"] ;
122 -> 123 ;
124 [label="imd_band_40-50% <= 0.5\ngini = 0.42\nsamples = 50\nvalue = [15, 35]", fillcolor="#399de592"] ;
123 -> 124 ;
125 [label="gini = 0.357\nsamples = 43\nvalue = [10, 33]", fillcolor="#399de5b2"] ;
124 -> 125 ;
126 [label="gini = 0.408\nsamples = 7\nvalue = [5, 2]", fillcolor="#e5813999"] ;
124 -> 126 ;
127 [label="imd_band_80-90% <= 0.5\ngini = 0.243\nsamples = 134\nvalue = [19, 115]", fillcolor="#399de5d5"] ;
123 -> 127 ;
128 [label="gini = 0.18\nsamples = 110\nvalue = [11, 99]", fillcolor="#399de5e3"] ;
127 -> 128 ;
129 [label="gini = 0.444\nsamples = 24\nvalue = [8, 16]", fillcolor="#399de57f"] ;
127 -> 129 ;
130 [label="studied_credits <= 45.0\ngini = 0.085\nsamples = 45\nvalue = [2, 43]", fillcolor="#399de5f3"] ;
122 -> 130 ;
131 [label="gini = 0.0\nsamples = 25\nvalue = [0, 25]", fillcolor="#399de5ff"] ;
130 -> 131 ;
132 [label="age_band_35-55 <= 0.5\ngini = 0.18\nsamples = 20\nvalue = [2, 18]", fillcolor="#399de5e3"] ;
130 -> 132 ;
133 [label="gini = 0.26\nsamples = 13\nvalue = [2, 11]", fillcolor="#399de5d1"] ;
132 -> 133 ;
134 [label="gini = 0.0\nsamples = 7\nvalue = [0, 7]", fillcolor="#399de5ff"] ;
132 -> 134 ;
135 [label="gender_M <= 0.5\ngini = 0.358\nsamples = 124\nvalue = [29, 95]", fillcolor="#399de5b1"] ;
105 -> 135 ;
136 [label="age_band_0-35 <= 0.5\ngini = 0.061\nsamples = 32\nvalue = [1, 31]", fillcolor="#399de5f7"] ;
135 -> 136 ;
137 [label="weight <= 15.5\ngini = 0.245\nsamples = 7\nvalue = [1, 6]", fillcolor="#399de5d4"] ;
136 -> 137 ;
138 [label="gini = 0.0\nsamples = 5\nvalue = [0, 5]", fillcolor="#399de5ff"] ;
137 -> 138 ;
139 [label="date <= 126.5\ngini = 0.5\nsamples = 2\nvalue = [1, 1]", fillcolor="#e5813900"] ;
137 -> 139 ;
140 [label="gini = 0.0\nsamples = 1\nvalue = [1, 0]", fillcolor="#e58139ff"] ;
139 -> 140 ;
141 [label="gini = 0.0\nsamples = 1\nvalue = [0, 1]", fillcolor="#399de5ff"] ;
139 -> 141 ;
142 [label="gini = 0.0\nsamples = 25\nvalue = [0, 25]", fillcolor="#399de5ff"] ;
136 -> 142 ;
143 [label="imd_band_10-20% <= 0.5\ngini = 0.423\nsamples = 92\nvalue = [28, 64]", fillcolor="#399de58f"] ;
135 -> 143 ;
144 [label="date <= 154.5\ngini = 0.365\nsamples = 79\nvalue = [19, 60]", fillcolor="#399de5ae"] ;
143 -> 144 ;
145 [label="imd_band_50-60% <= 0.5\ngini = 0.289\nsamples = 57\nvalue = [10, 47]", fillcolor="#399de5c9"] ;
144 -> 145 ;
146 [label="gini = 0.27\nsamples = 56\nvalue = [9, 47]", fillcolor="#399de5ce"] ;
145 -> 146 ;
147 [label="gini = 0.0\nsamples = 1\nvalue = [1, 0]", fillcolor="#e58139ff"] ;
145 -> 147 ;
148 [label="num_of_prev_attempts <= 0.5\ngini = 0.483\nsamples = 22\nvalue = [9, 13]", fillcolor="#399de54e"] ;
144 -> 148 ;
149 [label="gini = 0.375\nsamples = 16\nvalue = [4, 12]", fillcolor="#399de5aa"] ;
148 -> 149 ;
150 [label="gini = 0.278\nsamples = 6\nvalue = [5, 1]", fillcolor="#e58139cc"] ;
148 -> 150 ;
151 [label="num_of_prev_attempts <= 0.5\ngini = 0.426\nsamples = 13\nvalue = [9, 4]", fillcolor="#e581398e"] ;
143 -> 151 ;
152 [label="assessment_type_TMA <= 0.5\ngini = 0.5\nsamples = 8\nvalue = [4, 4]", fillcolor="#e5813900"] ;
151 -> 152 ;
153 [label="gini = 0.49\nsamples = 7\nvalue = [4, 3]", fillcolor="#e5813940"] ;
152 -> 153 ;
154 [label="gini = 0.0\nsamples = 1\nvalue = [0, 1]", fillcolor="#399de5ff"] ;
152 -> 154 ;
155 [label="gini = 0.0\nsamples = 5\nvalue = [5, 0]", fillcolor="#e58139ff"] ;
151 -> 155 ;
156 [label="imd_band_0-10% <= 0.5\ngini = 0.287\nsamples = 1087\nvalue = [189, 898]", fillcolor="#399de5c9"] ;
104 -> 156 ;
157 [label="imd_band_30-40% <= 0.5\ngini = 0.272\nsamples = 990\nvalue = [161, 829]", fillcolor="#399de5cd"] ;
156 -> 157 ;
158 [label="date <= 25.0\ngini = 0.255\nsamples = 858\nvalue = [129, 729]", fillcolor="#399de5d2"] ;
157 -> 158 ;
159 [label="age_band_0-35 <= 0.5\ngini = 0.326\nsamples = 195\nvalue = [40, 155]", fillcolor="#399de5bd"] ;
158 -> 159 ;
160 [label="region_South West Region <= 0.5\ngini = 0.124\nsamples = 45\nvalue = [3, 42]", fillcolor="#399de5ed"] ;
159 -> 160 ;
161 [label="gini = 0.089\nsamples = 43\nvalue = [2, 41]", fillcolor="#399de5f3"] ;
160 -> 161 ;
162 [label="gini = 0.5\nsamples = 2\nvalue = [1, 1]", fillcolor="#e5813900"] ;
160 -> 162 ;
163 [label="gender_F <= 0.5\ngini = 0.372\nsamples = 150\nvalue = [37, 113]", fillcolor="#399de5ac"] ;
159 -> 163 ;
164 [label="gini = 0.417\nsamples = 108\nvalue = [32, 76]", fillcolor="#399de594"] ;
163 -> 164 ;
165 [label="gini = 0.21\nsamples = 42\nvalue = [5, 37]", fillcolor="#399de5dd"] ;
163 -> 165 ;
166 [label="imd_band_80-90% <= 0.5\ngini = 0.232\nsamples = 663\nvalue = [89, 574]", fillcolor="#399de5d7"] ;
158 -> 166 ;
167 [label="date <= 84.5\ngini = 0.249\nsamples = 575\nvalue = [84, 491]", fillcolor="#399de5d3"] ;
166 -> 167 ;
168 [label="gini = 0.201\nsamples = 230\nvalue = [26, 204]", fillcolor="#399de5de"] ;
167 -> 168 ;
169 [label="gini = 0.28\nsamples = 345\nvalue = [58, 287]", fillcolor="#399de5cb"] ;
167 -> 169 ;
170 [label="date <= 179.0\ngini = 0.107\nsamples = 88\nvalue = [5, 83]", fillcolor="#399de5f0"] ;
166 -> 170 ;
171 [label="gini = 0.056\nsamples = 69\nvalue = [2, 67]", fillcolor="#399de5f7"] ;
170 -> 171 ;
172 [label="gini = 0.266\nsamples = 19\nvalue = [3, 16]", fillcolor="#399de5cf"] ;
170 -> 172 ;
173 [label="studied_credits <= 105.0\ngini = 0.367\nsamples = 132\nvalue = [32, 100]", fillcolor="#399de5ad"] ;
157 -> 173 ;
174 [label="age_band_0-35 <= 0.5\ngini = 0.46\nsamples = 64\nvalue = [23, 41]", fillcolor="#399de570"] ;
173 -> 174 ;
175 [label="region_London Region <= 0.5\ngini = 0.278\nsamples = 24\nvalue = [4, 20]", fillcolor="#399de5cc"] ;
174 -> 175 ;
176 [label="gini = 0.227\nsamples = 23\nvalue = [3, 20]", fillcolor="#399de5d9"] ;
175 -> 176 ;
177 [label="gini = 0.0\nsamples = 1\nvalue = [1, 0]", fillcolor="#e58139ff"] ;
175 -> 177 ;
178 [label="weight <= 15.5\ngini = 0.499\nsamples = 40\nvalue = [19, 21]", fillcolor="#399de518"] ;
174 -> 178 ;
179 [label="gini = 0.478\nsamples = 33\nvalue = [13, 20]", fillcolor="#399de559"] ;
178 -> 179 ;
180 [label="gini = 0.245\nsamples = 7\nvalue = [6, 1]", fillcolor="#e58139d4"] ;
178 -> 180 ;
181 [label="region_South East Region <= 0.5\ngini = 0.23\nsamples = 68\nvalue = [9, 59]", fillcolor="#399de5d8"] ;
173 -> 181 ;
182 [label="gender_M <= 0.5\ngini = 0.21\nsamples = 67\nvalue = [8, 59]", fillcolor="#399de5dc"] ;
181 -> 182 ;
183 [label="gini = 0.365\nsamples = 25\nvalue = [6, 19]", fillcolor="#399de5ae"] ;
182 -> 183 ;
184 [label="gini = 0.091\nsamples = 42\nvalue = [2, 40]", fillcolor="#399de5f2"] ;
182 -> 184 ;
185 [label="gini = 0.0\nsamples = 1\nvalue = [1, 0]", fillcolor="#e58139ff"] ;
181 -> 185 ;
186 [label="studied_credits <= 165.0\ngini = 0.411\nsamples = 97\nvalue = [28, 69]", fillcolor="#399de598"] ;
156 -> 186 ;
187 [label="region_South West Region <= 0.5\ngini = 0.383\nsamples = 93\nvalue = [24, 69]", fillcolor="#399de5a6"] ;
186 -> 187 ;
188 [label="region_West Midlands Region <= 0.5\ngini = 0.344\nsamples = 86\nvalue = [19, 67]", fillcolor="#399de5b7"] ;
187 -> 188 ;
189 [label="region_Ireland <= 0.5\ngini = 0.323\nsamples = 84\nvalue = [17, 67]", fillcolor="#399de5be"] ;
188 -> 189 ;
190 [label="gini = 0.311\nsamples = 83\nvalue = [16, 67]", fillcolor="#399de5c2"] ;
189 -> 190 ;
191 [label="gini = 0.0\nsamples = 1\nvalue = [1, 0]", fillcolor="#e58139ff"] ;
189 -> 191 ;
192 [label="gini = 0.0\nsamples = 2\nvalue = [2, 0]", fillcolor="#e58139ff"] ;
188 -> 192 ;
193 [label="date <= 67.0\ngini = 0.408\nsamples = 7\nvalue = [5, 2]", fillcolor="#e5813999"] ;
187 -> 193 ;
194 [label="weight <= 5.5\ngini = 0.444\nsamples = 3\nvalue = [1, 2]", fillcolor="#399de57f"] ;
193 -> 194 ;
195 [label="gini = 0.5\nsamples = 2\nvalue = [1, 1]", fillcolor="#e5813900"] ;
194 -> 195 ;
196 [label="gini = 0.0\nsamples = 1\nvalue = [0, 1]", fillcolor="#399de5ff"] ;
194 -> 196 ;
197 [label="gini = 0.0\nsamples = 4\nvalue = [4, 0]", fillcolor="#e58139ff"] ;
193 -> 197 ;
198 [label="gini = 0.0\nsamples = 4\nvalue = [4, 0]", fillcolor="#e58139ff"] ;
186 -> 198 ;
}