digraph Tree {
node [shape=box, style="filled", color="black"] ;
0 [label="date <= 115.0\ngini = 0.166\nsamples = 26924\nvalue = [2456, 24468]", fillcolor="#399de5e5"] ;
1 [label="due_vs_submission_date <= 0.5\ngini = 0.101\nsamples = 15974\nvalue = [854, 15120]", fillcolor="#399de5f1"] ;
0 -> 1 [labeldistance=2.5, labelangle=45, headlabel="True"] ;
2 [label="homepage_clicks_by_days <= 10.5\ngini = 0.151\nsamples = 8588\nvalue = [705, 7883]", fillcolor="#399de5e8"] ;
1 -> 2 ;
3 [label="due_vs_submission_date <= -7.5\ngini = 0.229\nsamples = 2860\nvalue = [378, 2482]", fillcolor="#399de5d8"] ;
2 -> 3 ;
4 [label="oucontent_clicks_by_days <= 12.5\ngini = 0.379\nsamples = 295\nvalue = [75, 220]", fillcolor="#399de5a8"] ;
3 -> 4 ;
5 [label="subpage_clicks_by_interval <= 0.5\ngini = 0.345\nsamples = 257\nvalue = [57, 200]", fillcolor="#399de5b6"] ;
4 -> 5 ;
6 [label="gini = 0.439\nsamples = 83\nvalue = [27, 56]", fillcolor="#399de584"] ;
5 -> 6 ;
7 [label="gini = 0.285\nsamples = 174\nvalue = [30, 144]", fillcolor="#399de5ca"] ;
5 -> 7 ;
8 [label="ouwiki_clicks_by_interval_change <= -0.5\ngini = 0.499\nsamples = 38\nvalue = [18, 20]", fillcolor="#399de519"] ;
4 -> 8 ;
9 [label="gini = 0.0\nsamples = 6\nvalue = [0, 6]", fillcolor="#399de5ff"] ;
8 -> 9 ;
10 [label="gini = 0.492\nsamples = 32\nvalue = [18, 14]", fillcolor="#e5813939"] ;
8 -> 10 ;
11 [label="homepage_clicks_by_interval <= 4.5\ngini = 0.208\nsamples = 2565\nvalue = [303, 2262]", fillcolor="#399de5dd"] ;
3 -> 11 ;
12 [label="forumng_clicks_by_interval_change <= -16.5\ngini = 0.314\nsamples = 482\nvalue = [94, 388]", fillcolor="#399de5c1"] ;
11 -> 12 ;
13 [label="gini = 0.073\nsamples = 79\nvalue = [3, 76]", fillcolor="#399de5f5"] ;
12 -> 13 ;
14 [label="gini = 0.35\nsamples = 403\nvalue = [91, 312]", fillcolor="#399de5b5"] ;
12 -> 14 ;
15 [label="url_clicks_by_interval_change <= 18.0\ngini = 0.181\nsamples = 2083\nvalue = [209, 1874]", fillcolor="#399de5e3"] ;
11 -> 15 ;
16 [label="gini = 0.177\nsamples = 2075\nvalue = [204, 1871]", fillcolor="#399de5e3"] ;
15 -> 16 ;
17 [label="gini = 0.469\nsamples = 8\nvalue = [5, 3]", fillcolor="#e5813966"] ;
15 -> 17 ;
18 [label="due_vs_submission_date <= -40.5\ngini = 0.108\nsamples = 5728\nvalue = [327, 5401]", fillcolor="#399de5f0"] ;
2 -> 18 ;
19 [label="gini = 0.0\nsamples = 3\nvalue = [3, 0]", fillcolor="#e58139ff"] ;
18 -> 19 ;
20 [label="due_vs_submission_date <= -4.5\ngini = 0.107\nsamples = 5725\nvalue = [324, 5401]", fillcolor="#399de5f0"] ;
18 -> 20 ;
21 [label="externalquiz_clicks_by_interval_change <= 0.5\ngini = 0.212\nsamples = 414\nvalue = [50, 364]", fillcolor="#399de5dc"] ;
20 -> 21 ;
22 [label="gini = 0.157\nsamples = 303\nvalue = [26, 277]", fillcolor="#399de5e7"] ;
21 -> 22 ;
23 [label="gini = 0.339\nsamples = 111\nvalue = [24, 87]", fillcolor="#399de5b9"] ;
21 -> 23 ;
24 [label="weight <= 2.5\ngini = 0.098\nsamples = 5311\nvalue = [274, 5037]", fillcolor="#399de5f1"] ;
20 -> 24 ;
25 [label="gini = 0.177\nsamples = 752\nvalue = [74, 678]", fillcolor="#399de5e3"] ;
24 -> 25 ;
26 [label="gini = 0.084\nsamples = 4559\nvalue = [200, 4359]", fillcolor="#399de5f3"] ;
24 -> 26 ;
27 [label="forumng_clicks_by_interval <= 4.5\ngini = 0.04\nsamples = 7386\nvalue = [149, 7237]", fillcolor="#399de5fa"] ;
1 -> 27 ;
28 [label="oucontent_clicks_by_days <= 51.5\ngini = 0.079\nsamples = 2074\nvalue = [85, 1989]", fillcolor="#399de5f4"] ;
27 -> 28 ;
29 [label="forumng_clicks_by_interval_change <= -2.5\ngini = 0.072\nsamples = 1985\nvalue = [74, 1911]", fillcolor="#399de5f5"] ;
28 -> 29 ;
30 [label="subpage_clicks_by_interval_change <= 26.0\ngini = 0.046\nsamples = 1159\nvalue = [27, 1132]", fillcolor="#399de5f9"] ;
29 -> 30 ;
31 [label="gini = 0.042\nsamples = 1152\nvalue = [25, 1127]", fillcolor="#399de5f9"] ;
30 -> 31 ;
32 [label="gini = 0.408\nsamples = 7\nvalue = [2, 5]", fillcolor="#399de599"] ;
30 -> 32 ;
33 [label="ouwiki_clicks_by_days_change <= 32.5\ngini = 0.107\nsamples = 826\nvalue = [47, 779]", fillcolor="#399de5f0"] ;
29 -> 33 ;
34 [label="gini = 0.105\nsamples = 825\nvalue = [46, 779]", fillcolor="#399de5f0"] ;
33 -> 34 ;
35 [label="gini = 0.0\nsamples = 1\nvalue = [1, 0]", fillcolor="#e58139ff"] ;
33 -> 35 ;
36 [label="homepage_clicks_by_days <= 9.5\ngini = 0.217\nsamples = 89\nvalue = [11, 78]", fillcolor="#399de5db"] ;
28 -> 36 ;
37 [label="externalquiz_clicks_by_interval_change <= -1.0\ngini = 0.32\nsamples = 5\nvalue = [4, 1]", fillcolor="#e58139bf"] ;
36 -> 37 ;
38 [label="gini = 0.0\nsamples = 1\nvalue = [0, 1]", fillcolor="#399de5ff"] ;
37 -> 38 ;
39 [label="gini = 0.0\nsamples = 4\nvalue = [4, 0]", fillcolor="#e58139ff"] ;
37 -> 39 ;
40 [label="externalquiz_clicks_by_interval <= 6.0\ngini = 0.153\nsamples = 84\nvalue = [7, 77]", fillcolor="#399de5e8"] ;
36 -> 40 ;
41 [label="gini = 0.134\nsamples = 83\nvalue = [6, 77]", fillcolor="#399de5eb"] ;
40 -> 41 ;
42 [label="gini = 0.0\nsamples = 1\nvalue = [1, 0]", fillcolor="#e58139ff"] ;
40 -> 42 ;
43 [label="homepage_clicks_by_days_change <= 394.0\ngini = 0.024\nsamples = 5312\nvalue = [64, 5248]", fillcolor="#399de5fc"] ;
27 -> 43 ;
44 [label="homepage_clicks_by_interval <= 0.5\ngini = 0.023\nsamples = 5310\nvalue = [63, 5247]", fillcolor="#399de5fc"] ;
43 -> 44 ;
45 [label="imd_band_30-40% <= 0.5\ngini = 0.444\nsamples = 3\nvalue = [1, 2]", fillcolor="#399de57f"] ;
44 -> 45 ;
46 [label="gini = 0.0\nsamples = 2\nvalue = [0, 2]", fillcolor="#399de5ff"] ;
45 -> 46 ;
47 [label="gini = 0.0\nsamples = 1\nvalue = [1, 0]", fillcolor="#e58139ff"] ;
45 -> 47 ;
48 [label="oucontent_clicks_by_interval_change <= 20.5\ngini = 0.023\nsamples = 5307\nvalue = [62, 5245]", fillcolor="#399de5fc"] ;
44 -> 48 ;
49 [label="gini = 0.016\nsamples = 4183\nvalue = [33, 4150]", fillcolor="#399de5fd"] ;
48 -> 49 ;
50 [label="gini = 0.05\nsamples = 1124\nvalue = [29, 1095]", fillcolor="#399de5f8"] ;
48 -> 50 ;
51 [label="resource_clicks_by_days_change <= 10.5\ngini = 0.5\nsamples = 2\nvalue = [1, 1]", fillcolor="#e5813900"] ;
43 -> 51 ;
52 [label="gini = 0.0\nsamples = 1\nvalue = [0, 1]", fillcolor="#399de5ff"] ;
51 -> 52 ;
53 [label="gini = 0.0\nsamples = 1\nvalue = [1, 0]", fillcolor="#e58139ff"] ;
51 -> 53 ;
54 [label="homepage_clicks_by_interval <= 21.5\ngini = 0.25\nsamples = 10950\nvalue = [1602, 9348]", fillcolor="#399de5d3"] ;
0 -> 54 [labeldistance=2.5, labelangle=-45, headlabel="False"] ;
55 [label="due_vs_submission_date <= -7.5\ngini = 0.336\nsamples = 4851\nvalue = [1035, 3816]", fillcolor="#399de5ba"] ;
54 -> 55 ;
56 [label="ouwiki_clicks_by_days <= 15.0\ngini = 0.495\nsamples = 238\nvalue = [107, 131]", fillcolor="#399de52f"] ;
55 -> 56 ;
57 [label="date <= 203.0\ngini = 0.499\nsamples = 215\nvalue = [104, 111]", fillcolor="#399de510"] ;
56 -> 57 ;
58 [label="num_of_prev_attempts <= 2.5\ngini = 0.496\nsamples = 198\nvalue = [90, 108]", fillcolor="#399de52a"] ;
57 -> 58 ;
59 [label="gini = 0.492\nsamples = 192\nvalue = [84, 108]", fillcolor="#399de539"] ;
58 -> 59 ;
60 [label="gini = 0.0\nsamples = 6\nvalue = [6, 0]", fillcolor="#e58139ff"] ;
58 -> 60 ;
61 [label="resource_clicks_by_interval_change <= -17.5\ngini = 0.291\nsamples = 17\nvalue = [14, 3]", fillcolor="#e58139c8"] ;
57 -> 61 ;
62 [label="gini = 0.0\nsamples = 2\nvalue = [0, 2]", fillcolor="#399de5ff"] ;
61 -> 62 ;
63 [label="gini = 0.124\nsamples = 15\nvalue = [14, 1]", fillcolor="#e58139ed"] ;
61 -> 63 ;
64 [label="homepage_clicks_by_days <= 27.0\ngini = 0.227\nsamples = 23\nvalue = [3, 20]", fillcolor="#399de5d9"] ;
56 -> 64 ;
65 [label="gini = 0.0\nsamples = 19\nvalue = [0, 19]", fillcolor="#399de5ff"] ;
64 -> 65 ;
66 [label="forumng_clicks_by_days <= 64.0\ngini = 0.375\nsamples = 4\nvalue = [3, 1]", fillcolor="#e58139aa"] ;
64 -> 66 ;
67 [label="gini = 0.0\nsamples = 3\nvalue = [3, 0]", fillcolor="#e58139ff"] ;
66 -> 67 ;
68 [label="gini = 0.0\nsamples = 1\nvalue = [0, 1]", fillcolor="#399de5ff"] ;
66 -> 68 ;
69 [label="highest_education_Lower Than A Level <= 0.5\ngini = 0.321\nsamples = 4613\nvalue = [928, 3685]", fillcolor="#399de5bf"] ;
55 -> 69 ;
70 [label="forumng_clicks_by_days <= 10.5\ngini = 0.282\nsamples = 3322\nvalue = [565, 2757]", fillcolor="#399de5cb"] ;
69 -> 70 ;
71 [label="assessment_type_TMA <= 0.5\ngini = 0.316\nsamples = 2495\nvalue = [491, 2004]", fillcolor="#399de5c1"] ;
70 -> 71 ;
72 [label="gini = 0.23\nsamples = 957\nvalue = [127, 830]", fillcolor="#399de5d8"] ;
71 -> 72 ;
73 [label="gini = 0.361\nsamples = 1538\nvalue = [364, 1174]", fillcolor="#399de5b0"] ;
71 -> 73 ;
74 [label="resource_clicks_by_days <= 1.5\ngini = 0.163\nsamples = 827\nvalue = [74, 753]", fillcolor="#399de5e6"] ;
70 -> 74 ;
75 [label="gini = 0.237\nsamples = 335\nvalue = [46, 289]", fillcolor="#399de5d6"] ;
74 -> 75 ;
76 [label="gini = 0.107\nsamples = 492\nvalue = [28, 464]", fillcolor="#399de5f0"] ;
74 -> 76 ;
77 [label="url_clicks_by_days <= 1.5\ngini = 0.404\nsamples = 1291\nvalue = [363, 928]", fillcolor="#399de59b"] ;
69 -> 77 ;
78 [label="assessment_type_TMA <= 0.5\ngini = 0.441\nsamples = 951\nvalue = [312, 639]", fillcolor="#399de582"] ;
77 -> 78 ;
79 [label="gini = 0.376\nsamples = 338\nvalue = [85, 253]", fillcolor="#399de5a9"] ;
78 -> 79 ;
80 [label="gini = 0.466\nsamples = 613\nvalue = [227, 386]", fillcolor="#399de569"] ;
78 -> 80 ;
81 [label="region_East Anglian Region <= 0.5\ngini = 0.255\nsamples = 340\nvalue = [51, 289]", fillcolor="#399de5d2"] ;
77 -> 81 ;
82 [label="gini = 0.209\nsamples = 286\nvalue = [34, 252]", fillcolor="#399de5dd"] ;
81 -> 82 ;
83 [label="gini = 0.431\nsamples = 54\nvalue = [17, 37]", fillcolor="#399de58a"] ;
81 -> 83 ;
84 [label="url_clicks_by_interval <= 3.5\ngini = 0.169\nsamples = 6099\nvalue = [567, 5532]", fillcolor="#399de5e5"] ;
54 -> 84 ;
85 [label="due_vs_submission_date <= -3.5\ngini = 0.228\nsamples = 2863\nvalue = [375, 2488]", fillcolor="#399de5d9"] ;
84 -> 85 ;
86 [label="oucontent_clicks_by_days <= 19.5\ngini = 0.409\nsamples = 209\nvalue = [60, 149]", fillcolor="#399de598"] ;
85 -> 86 ;
87 [label="oucontent_clicks_by_interval_change <= 12.5\ngini = 0.451\nsamples = 166\nvalue = [57, 109]", fillcolor="#399de57a"] ;
86 -> 87 ;
88 [label="gini = 0.41\nsamples = 139\nvalue = [40, 99]", fillcolor="#399de598"] ;
87 -> 88 ;
89 [label="gini = 0.466\nsamples = 27\nvalue = [17, 10]", fillcolor="#e5813969"] ;
87 -> 89 ;
90 [label="glossary_clicks_by_interval_change <= -4.5\ngini = 0.13\nsamples = 43\nvalue = [3, 40]", fillcolor="#399de5ec"] ;
86 -> 90 ;
91 [label="gini = 0.0\nsamples = 2\nvalue = [2, 0]", fillcolor="#e58139ff"] ;
90 -> 91 ;
92 [label="gini = 0.048\nsamples = 41\nvalue = [1, 40]", fillcolor="#399de5f9"] ;
90 -> 92 ;
93 [label="externalquiz_clicks_by_interval <= 1.5\ngini = 0.209\nsamples = 2654\nvalue = [315, 2339]", fillcolor="#399de5dd"] ;
85 -> 93 ;
94 [label="forumng_clicks_by_interval <= 1.5\ngini = 0.247\nsamples = 1778\nvalue = [257, 1521]", fillcolor="#399de5d4"] ;
93 -> 94 ;
95 [label="gini = 0.411\nsamples = 121\nvalue = [35, 86]", fillcolor="#399de597"] ;
94 -> 95 ;
96 [label="gini = 0.232\nsamples = 1657\nvalue = [222, 1435]", fillcolor="#399de5d8"] ;
94 -> 96 ;
97 [label="ouwiki_clicks_by_interval_change <= -9.5\ngini = 0.124\nsamples = 876\nvalue = [58, 818]", fillcolor="#399de5ed"] ;
93 -> 97 ;
98 [label="gini = 0.332\nsamples = 76\nvalue = [16, 60]", fillcolor="#399de5bb"] ;
97 -> 98 ;
99 [label="gini = 0.099\nsamples = 800\nvalue = [42, 758]", fillcolor="#399de5f1"] ;
97 -> 99 ;
100 [label="due_vs_submission_date <= 0.5\ngini = 0.112\nsamples = 3236\nvalue = [192, 3044]", fillcolor="#399de5ef"] ;
84 -> 100 ;
101 [label="date <= 197.5\ngini = 0.154\nsamples = 1507\nvalue = [127, 1380]", fillcolor="#399de5e8"] ;
100 -> 101 ;
102 [label="num_of_prev_attempts <= 1.5\ngini = 0.125\nsamples = 1237\nvalue = [83, 1154]", fillcolor="#399de5ed"] ;
101 -> 102 ;
103 [label="gini = 0.118\nsamples = 1211\nvalue = [76, 1135]", fillcolor="#399de5ee"] ;
102 -> 103 ;
104 [label="gini = 0.393\nsamples = 26\nvalue = [7, 19]", fillcolor="#399de5a1"] ;
102 -> 104 ;
105 [label="resource_clicks_by_days_change <= -8.5\ngini = 0.273\nsamples = 270\nvalue = [44, 226]", fillcolor="#399de5cd"] ;
101 -> 105 ;
106 [label="gini = 0.497\nsamples = 13\nvalue = [7, 6]", fillcolor="#e5813924"] ;
105 -> 106 ;
107 [label="gini = 0.246\nsamples = 257\nvalue = [37, 220]", fillcolor="#399de5d4"] ;
105 -> 107 ;
108 [label="ouelluminate_clicks_by_interval_change <= -6.0\ngini = 0.072\nsamples = 1729\nvalue = [65, 1664]", fillcolor="#399de5f5"] ;
100 -> 108 ;
109 [label="disability_N <= 0.5\ngini = 0.49\nsamples = 7\nvalue = [3, 4]", fillcolor="#399de540"] ;
108 -> 109 ;
110 [label="gini = 0.0\nsamples = 3\nvalue = [3, 0]", fillcolor="#e58139ff"] ;
109 -> 110 ;
111 [label="gini = 0.0\nsamples = 4\nvalue = [0, 4]", fillcolor="#399de5ff"] ;
109 -> 111 ;
112 [label="resource_clicks_by_days <= 51.5\ngini = 0.069\nsamples = 1722\nvalue = [62, 1660]", fillcolor="#399de5f5"] ;
108 -> 112 ;
113 [label="gini = 0.068\nsamples = 1721\nvalue = [61, 1660]", fillcolor="#399de5f6"] ;
112 -> 113 ;
114 [label="gini = 0.0\nsamples = 1\nvalue = [1, 0]", fillcolor="#e58139ff"] ;
112 -> 114 ;
}