digraph Tree {
node [shape=box, style="filled", color="black"] ;
0 [label="date <= 115.0\ngini = 0.166\nsamples = 26924\nvalue = [2456, 24468]", fillcolor="#399de5e5"] ;
1 [label="weight <= 2.5\ngini = 0.101\nsamples = 15974\nvalue = [854, 15120]", fillcolor="#399de5f1"] ;
0 -> 1 [labeldistance=2.5, labelangle=45, headlabel="True"] ;
2 [label="gini = 0.182\nsamples = 911\nvalue = [92, 819]", fillcolor="#399de5e2"] ;
1 -> 2 ;
3 [label="gini = 0.096\nsamples = 15063\nvalue = [762, 14301]", fillcolor="#399de5f1"] ;
1 -> 3 ;
4 [label="assessment_type_TMA <= 0.5\ngini = 0.25\nsamples = 10950\nvalue = [1602, 9348]", fillcolor="#399de5d3"] ;
0 -> 4 [labeldistance=2.5, labelangle=-45, headlabel="False"] ;
5 [label="gini = 0.194\nsamples = 3454\nvalue = [375, 3079]", fillcolor="#399de5e0"] ;
4 -> 5 ;
6 [label="gini = 0.274\nsamples = 7496\nvalue = [1227, 6269]", fillcolor="#399de5cd"] ;
4 -> 6 ;
}