digraph Tree {
node [shape=box, style="filled", color="black"] ;
0 [label="due_vs_submission_date <= -10.5\ngini = 0.037\nsamples = 7105\nvalue = [133, 6972]", fillcolor="#399de5fa"] ;
1 [label="due_vs_submission_date <= -54.5\ngini = 0.201\nsamples = 273\nvalue = [31, 242]", fillcolor="#399de5de"] ;
0 -> 1 [labeldistance=2.5, labelangle=45, headlabel="True"] ;
2 [label="imd_band_50-60% <= 0.5\ngini = 0.444\nsamples = 6\nvalue = [4, 2]", fillcolor="#e581397f"] ;
1 -> 2 ;
3 [label="gini = 0.0\nsamples = 4\nvalue = [4, 0]", fillcolor="#e58139ff"] ;
2 -> 3 ;
4 [label="gini = 0.0\nsamples = 2\nvalue = [0, 2]", fillcolor="#399de5ff"] ;
2 -> 4 ;
5 [label="homepage_clicks_by_days <= 0.5\ngini = 0.182\nsamples = 267\nvalue = [27, 240]", fillcolor="#399de5e2"] ;
1 -> 5 ;
6 [label="url_clicks_by_days_change <= -0.5\ngini = 0.401\nsamples = 36\nvalue = [10, 26]", fillcolor="#399de59d"] ;
5 -> 6 ;
7 [label="homepage_clicks_by_days_change <= -43.5\ngini = 0.198\nsamples = 18\nvalue = [2, 16]", fillcolor="#399de5df"] ;
6 -> 7 ;
8 [label="gini = 0.0\nsamples = 1\nvalue = [1, 0]", fillcolor="#e58139ff"] ;
7 -> 8 ;
9 [label="imd_band_40-50% <= 0.5\ngini = 0.111\nsamples = 17\nvalue = [1, 16]", fillcolor="#399de5ef"] ;
7 -> 9 ;
10 [label="gini = 0.0\nsamples = 16\nvalue = [0, 16]", fillcolor="#399de5ff"] ;
9 -> 10 ;
11 [label="gini = 0.0\nsamples = 1\nvalue = [1, 0]", fillcolor="#e58139ff"] ;
9 -> 11 ;
12 [label="region_Scotland <= 0.5\ngini = 0.494\nsamples = 18\nvalue = [8, 10]", fillcolor="#399de533"] ;
6 -> 12 ;
13 [label="due_vs_submission_date <= -13.5\ngini = 0.49\nsamples = 14\nvalue = [8, 6]", fillcolor="#e5813940"] ;
12 -> 13 ;
14 [label="homepage_clicks_by_days_change <= -3.5\ngini = 0.496\nsamples = 11\nvalue = [5, 6]", fillcolor="#399de52a"] ;
13 -> 14 ;
15 [label="gini = 0.0\nsamples = 2\nvalue = [2, 0]", fillcolor="#e58139ff"] ;
14 -> 15 ;
16 [label="due_vs_submission_date <= -18.0\ngini = 0.444\nsamples = 9\nvalue = [3, 6]", fillcolor="#399de57f"] ;
14 -> 16 ;
17 [label="due_vs_submission_date <= -23.0\ngini = 0.48\nsamples = 5\nvalue = [3, 2]", fillcolor="#e5813955"] ;
16 -> 17 ;
18 [label="gini = 0.444\nsamples = 3\nvalue = [1, 2]", fillcolor="#399de57f"] ;
17 -> 18 ;
19 [label="gini = 0.0\nsamples = 2\nvalue = [2, 0]", fillcolor="#e58139ff"] ;
17 -> 19 ;
20 [label="gini = 0.0\nsamples = 4\nvalue = [0, 4]", fillcolor="#399de5ff"] ;
16 -> 20 ;
21 [label="gini = 0.0\nsamples = 3\nvalue = [3, 0]", fillcolor="#e58139ff"] ;
13 -> 21 ;
22 [label="gini = 0.0\nsamples = 4\nvalue = [0, 4]", fillcolor="#399de5ff"] ;
12 -> 22 ;
23 [label="ouwiki_clicks_by_days_change <= -10.5\ngini = 0.136\nsamples = 231\nvalue = [17, 214]", fillcolor="#399de5eb"] ;
5 -> 23 ;
24 [label="gini = 0.0\nsamples = 1\nvalue = [1, 0]", fillcolor="#e58139ff"] ;
23 -> 24 ;
25 [label="date <= 92.5\ngini = 0.129\nsamples = 230\nvalue = [16, 214]", fillcolor="#399de5ec"] ;
23 -> 25 ;
26 [label="gini = 0.0\nsamples = 93\nvalue = [0, 93]", fillcolor="#399de5ff"] ;
25 -> 26 ;
27 [label="homepage_clicks_by_days_change <= -48.5\ngini = 0.206\nsamples = 137\nvalue = [16, 121]", fillcolor="#399de5dd"] ;
25 -> 27 ;
28 [label="gini = 0.0\nsamples = 1\nvalue = [1, 0]", fillcolor="#e58139ff"] ;
27 -> 28 ;
29 [label="forumng_clicks_by_days_change <= 42.0\ngini = 0.196\nsamples = 136\nvalue = [15, 121]", fillcolor="#399de5df"] ;
27 -> 29 ;
30 [label="region_London Region <= 0.5\ngini = 0.186\nsamples = 135\nvalue = [14, 121]", fillcolor="#399de5e1"] ;
29 -> 30 ;
31 [label="imd_band_30-40% <= 0.5\ngini = 0.148\nsamples = 124\nvalue = [10, 114]", fillcolor="#399de5e9"] ;
30 -> 31 ;
32 [label="gini = 0.104\nsamples = 109\nvalue = [6, 103]", fillcolor="#399de5f0"] ;
31 -> 32 ;
33 [label="gini = 0.391\nsamples = 15\nvalue = [4, 11]", fillcolor="#399de5a2"] ;
31 -> 33 ;
34 [label="studied_credits <= 105.0\ngini = 0.463\nsamples = 11\nvalue = [4, 7]", fillcolor="#399de56d"] ;
30 -> 34 ;
35 [label="gini = 0.346\nsamples = 9\nvalue = [2, 7]", fillcolor="#399de5b6"] ;
34 -> 35 ;
36 [label="gini = 0.0\nsamples = 2\nvalue = [2, 0]", fillcolor="#e58139ff"] ;
34 -> 36 ;
37 [label="gini = 0.0\nsamples = 1\nvalue = [1, 0]", fillcolor="#e58139ff"] ;
29 -> 37 ;
38 [label="homepage_clicks_by_days <= 14.5\ngini = 0.029\nsamples = 6832\nvalue = [102, 6730]", fillcolor="#399de5fb"] ;
0 -> 38 [labeldistance=2.5, labelangle=-45, headlabel="False"] ;
39 [label="date <= 120.5\ngini = 0.067\nsamples = 1973\nvalue = [69, 1904]", fillcolor="#399de5f6"] ;
38 -> 39 ;
40 [label="oucollaborate_clicks_by_days_change <= 3.5\ngini = 0.034\nsamples = 1221\nvalue = [21, 1200]", fillcolor="#399de5fb"] ;
39 -> 40 ;
41 [label="due_vs_submission_date <= 0.5\ngini = 0.032\nsamples = 1216\nvalue = [20, 1196]", fillcolor="#399de5fb"] ;
40 -> 41 ;
42 [label="highest_education_A Level or Equivalent <= 0.5\ngini = 0.051\nsamples = 646\nvalue = [17, 629]", fillcolor="#399de5f8"] ;
41 -> 42 ;
43 [label="region_South West Region <= 0.5\ngini = 0.086\nsamples = 335\nvalue = [15, 320]", fillcolor="#399de5f3"] ;
42 -> 43 ;
44 [label="oucontent_clicks_by_days_change <= 5.5\ngini = 0.072\nsamples = 321\nvalue = [12, 309]", fillcolor="#399de5f5"] ;
43 -> 44 ;
45 [label="studied_credits <= 165.0\ngini = 0.026\nsamples = 149\nvalue = [2, 147]", fillcolor="#399de5fc"] ;
44 -> 45 ;
46 [label="gini = 0.014\nsamples = 146\nvalue = [1, 145]", fillcolor="#399de5fd"] ;
45 -> 46 ;
47 [label="gini = 0.444\nsamples = 3\nvalue = [1, 2]", fillcolor="#399de57f"] ;
45 -> 47 ;
48 [label="url_clicks_by_days_change <= -7.0\ngini = 0.11\nsamples = 172\nvalue = [10, 162]", fillcolor="#399de5ef"] ;
44 -> 48 ;
49 [label="gini = 0.5\nsamples = 2\nvalue = [1, 1]", fillcolor="#e5813900"] ;
48 -> 49 ;
50 [label="gini = 0.1\nsamples = 170\nvalue = [9, 161]", fillcolor="#399de5f1"] ;
48 -> 50 ;
51 [label="highest_education_Lower Than A Level <= 0.5\ngini = 0.337\nsamples = 14\nvalue = [3, 11]", fillcolor="#399de5b9"] ;
43 -> 51 ;
52 [label="gini = 0.0\nsamples = 2\nvalue = [2, 0]", fillcolor="#e58139ff"] ;
51 -> 52 ;
53 [label="age_band_0-35 <= 0.5\ngini = 0.153\nsamples = 12\nvalue = [1, 11]", fillcolor="#399de5e8"] ;
51 -> 53 ;
54 [label="gini = 0.5\nsamples = 2\nvalue = [1, 1]", fillcolor="#e5813900"] ;
53 -> 54 ;
55 [label="gini = 0.0\nsamples = 10\nvalue = [0, 10]", fillcolor="#399de5ff"] ;
53 -> 55 ;
56 [label="homepage_clicks_by_days_change <= 13.5\ngini = 0.013\nsamples = 311\nvalue = [2, 309]", fillcolor="#399de5fd"] ;
42 -> 56 ;
57 [label="subpage_clicks_by_days_change <= 4.5\ngini = 0.007\nsamples = 301\nvalue = [1, 300]", fillcolor="#399de5fe"] ;
56 -> 57 ;
58 [label="gini = 0.0\nsamples = 275\nvalue = [0, 275]", fillcolor="#399de5ff"] ;
57 -> 58 ;
59 [label="age_band_35-55 <= 0.5\ngini = 0.074\nsamples = 26\nvalue = [1, 25]", fillcolor="#399de5f5"] ;
57 -> 59 ;
60 [label="gini = 0.0\nsamples = 24\nvalue = [0, 24]", fillcolor="#399de5ff"] ;
59 -> 60 ;
61 [label="gini = 0.5\nsamples = 2\nvalue = [1, 1]", fillcolor="#e5813900"] ;
59 -> 61 ;
62 [label="due_vs_submission_date <= -3.5\ngini = 0.18\nsamples = 10\nvalue = [1, 9]", fillcolor="#399de5e3"] ;
56 -> 62 ;
63 [label="gini = 0.0\nsamples = 1\nvalue = [1, 0]", fillcolor="#e58139ff"] ;
62 -> 63 ;
64 [label="gini = 0.0\nsamples = 9\nvalue = [0, 9]", fillcolor="#399de5ff"] ;
62 -> 64 ;
65 [label="region_East Anglian Region <= 0.5\ngini = 0.01\nsamples = 570\nvalue = [3, 567]", fillcolor="#399de5fe"] ;
41 -> 65 ;
66 [label="region_South East Region <= 0.5\ngini = 0.004\nsamples = 520\nvalue = [1, 519]", fillcolor="#399de5ff"] ;
65 -> 66 ;
67 [label="gini = 0.0\nsamples = 489\nvalue = [0, 489]", fillcolor="#399de5ff"] ;
66 -> 67 ;
68 [label="imd_band_30-40% <= 0.5\ngini = 0.062\nsamples = 31\nvalue = [1, 30]", fillcolor="#399de5f6"] ;
66 -> 68 ;
69 [label="gini = 0.0\nsamples = 30\nvalue = [0, 30]", fillcolor="#399de5ff"] ;
68 -> 69 ;
70 [label="gini = 0.0\nsamples = 1\nvalue = [1, 0]", fillcolor="#e58139ff"] ;
68 -> 70 ;
71 [label="imd_band_70-80% <= 0.5\ngini = 0.077\nsamples = 50\nvalue = [2, 48]", fillcolor="#399de5f4"] ;
65 -> 71 ;
72 [label="num_of_prev_attempts <= 0.5\ngini = 0.041\nsamples = 48\nvalue = [1, 47]", fillcolor="#399de5fa"] ;
71 -> 72 ;
73 [label="gini = 0.0\nsamples = 41\nvalue = [0, 41]", fillcolor="#399de5ff"] ;
72 -> 73 ;
74 [label="quiz_clicks_by_days_change <= 1.5\ngini = 0.245\nsamples = 7\nvalue = [1, 6]", fillcolor="#399de5d4"] ;
72 -> 74 ;
75 [label="gini = 0.0\nsamples = 6\nvalue = [0, 6]", fillcolor="#399de5ff"] ;
74 -> 75 ;
76 [label="gini = 0.0\nsamples = 1\nvalue = [1, 0]", fillcolor="#e58139ff"] ;
74 -> 76 ;
77 [label="studied_credits <= 120.0\ngini = 0.5\nsamples = 2\nvalue = [1, 1]", fillcolor="#e5813900"] ;
71 -> 77 ;
78 [label="gini = 0.0\nsamples = 1\nvalue = [1, 0]", fillcolor="#e58139ff"] ;
77 -> 78 ;
79 [label="gini = 0.0\nsamples = 1\nvalue = [0, 1]", fillcolor="#399de5ff"] ;
77 -> 79 ;
80 [label="forumng_clicks_by_days_change <= -6.0\ngini = 0.32\nsamples = 5\nvalue = [1, 4]", fillcolor="#399de5bf"] ;
40 -> 80 ;
81 [label="gini = 0.0\nsamples = 1\nvalue = [1, 0]", fillcolor="#e58139ff"] ;
80 -> 81 ;
82 [label="gini = 0.0\nsamples = 4\nvalue = [0, 4]", fillcolor="#399de5ff"] ;
80 -> 82 ;
83 [label="forumng_clicks_by_days <= 11.5\ngini = 0.12\nsamples = 752\nvalue = [48, 704]", fillcolor="#399de5ee"] ;
39 -> 83 ;
84 [label="resource_clicks_by_days_change <= -39.0\ngini = 0.155\nsamples = 557\nvalue = [47, 510]", fillcolor="#399de5e7"] ;
83 -> 84 ;
85 [label="gini = 0.0\nsamples = 1\nvalue = [1, 0]", fillcolor="#e58139ff"] ;
84 -> 85 ;
86 [label="resource_clicks_by_days_change <= 828.0\ngini = 0.152\nsamples = 556\nvalue = [46, 510]", fillcolor="#399de5e8"] ;
84 -> 86 ;
87 [label="ouwiki_clicks_by_days_change <= -4.5\ngini = 0.149\nsamples = 555\nvalue = [45, 510]", fillcolor="#399de5e9"] ;
86 -> 87 ;
88 [label="oucontent_clicks_by_days_change <= -70.5\ngini = 0.5\nsamples = 4\nvalue = [2, 2]", fillcolor="#e5813900"] ;
87 -> 88 ;
89 [label="gini = 0.0\nsamples = 2\nvalue = [0, 2]", fillcolor="#399de5ff"] ;
88 -> 89 ;
90 [label="gini = 0.0\nsamples = 2\nvalue = [2, 0]", fillcolor="#e58139ff"] ;
88 -> 90 ;
91 [label="ouwiki_clicks_by_days <= 21.5\ngini = 0.144\nsamples = 551\nvalue = [43, 508]", fillcolor="#399de5e9"] ;
87 -> 91 ;
92 [label="date <= 141.5\ngini = 0.182\nsamples = 376\nvalue = [38, 338]", fillcolor="#399de5e2"] ;
91 -> 92 ;
93 [label="gini = 0.123\nsamples = 273\nvalue = [18, 255]", fillcolor="#399de5ed"] ;
92 -> 93 ;
94 [label="gini = 0.313\nsamples = 103\nvalue = [20, 83]", fillcolor="#399de5c2"] ;
92 -> 94 ;
95 [label="homepage_clicks_by_days <= 0.5\ngini = 0.056\nsamples = 175\nvalue = [5, 170]", fillcolor="#399de5f8"] ;
91 -> 95 ;
96 [label="gini = 0.5\nsamples = 2\nvalue = [1, 1]", fillcolor="#e5813900"] ;
95 -> 96 ;
97 [label="gini = 0.045\nsamples = 173\nvalue = [4, 169]", fillcolor="#399de5f9"] ;
95 -> 97 ;
98 [label="gini = 0.0\nsamples = 1\nvalue = [1, 0]", fillcolor="#e58139ff"] ;
86 -> 98 ;
99 [label="subpage_clicks_by_days_change <= -7.5\ngini = 0.01\nsamples = 195\nvalue = [1, 194]", fillcolor="#399de5fe"] ;
83 -> 99 ;
100 [label="oucontent_clicks_by_days <= 4.5\ngini = 0.219\nsamples = 8\nvalue = [1, 7]", fillcolor="#399de5db"] ;
99 -> 100 ;
101 [label="gini = 0.0\nsamples = 1\nvalue = [1, 0]", fillcolor="#e58139ff"] ;
100 -> 101 ;
102 [label="gini = 0.0\nsamples = 7\nvalue = [0, 7]", fillcolor="#399de5ff"] ;
100 -> 102 ;
103 [label="gini = 0.0\nsamples = 187\nvalue = [0, 187]", fillcolor="#399de5ff"] ;
99 -> 103 ;
104 [label="ouwiki_clicks_by_days_change <= -13.5\ngini = 0.013\nsamples = 4859\nvalue = [33, 4826]", fillcolor="#399de5fd"] ;
38 -> 104 ;
105 [label="age_band_0-35 <= 0.5\ngini = 0.5\nsamples = 2\nvalue = [1, 1]", fillcolor="#e5813900"] ;
104 -> 105 ;
106 [label="gini = 0.0\nsamples = 1\nvalue = [1, 0]", fillcolor="#e58139ff"] ;
105 -> 106 ;
107 [label="gini = 0.0\nsamples = 1\nvalue = [0, 1]", fillcolor="#399de5ff"] ;
105 -> 107 ;
108 [label="dualpane_clicks_by_days <= 17.5\ngini = 0.013\nsamples = 4857\nvalue = [32, 4825]", fillcolor="#399de5fd"] ;
104 -> 108 ;
109 [label="due_vs_submission_date <= 0.5\ngini = 0.012\nsamples = 4849\nvalue = [30, 4819]", fillcolor="#399de5fd"] ;
108 -> 109 ;
110 [label="homepage_clicks_by_days <= 21.5\ngini = 0.025\nsamples = 1874\nvalue = [24, 1850]", fillcolor="#399de5fc"] ;
109 -> 110 ;
111 [label="subpage_clicks_by_days <= 21.5\ngini = 0.059\nsamples = 530\nvalue = [16, 514]", fillcolor="#399de5f7"] ;
110 -> 111 ;
112 [label="disability_Y <= 0.5\ngini = 0.055\nsamples = 528\nvalue = [15, 513]", fillcolor="#399de5f8"] ;
111 -> 112 ;
113 [label="forumng_clicks_by_days <= 7.5\ngini = 0.044\nsamples = 493\nvalue = [11, 482]", fillcolor="#399de5f9"] ;
112 -> 113 ;
114 [label="gini = 0.076\nsamples = 278\nvalue = [11, 267]", fillcolor="#399de5f4"] ;
113 -> 114 ;
115 [label="gini = 0.0\nsamples = 215\nvalue = [0, 215]", fillcolor="#399de5ff"] ;
113 -> 115 ;
116 [label="region_North Western Region <= 0.5\ngini = 0.202\nsamples = 35\nvalue = [4, 31]", fillcolor="#399de5de"] ;
112 -> 116 ;
117 [label="gini = 0.117\nsamples = 32\nvalue = [2, 30]", fillcolor="#399de5ee"] ;
116 -> 117 ;
118 [label="gini = 0.444\nsamples = 3\nvalue = [2, 1]", fillcolor="#e581397f"] ;
116 -> 118 ;
119 [label="highest_education_HE Qualification <= 0.5\ngini = 0.5\nsamples = 2\nvalue = [1, 1]", fillcolor="#e5813900"] ;
111 -> 119 ;
120 [label="gini = 0.0\nsamples = 1\nvalue = [0, 1]", fillcolor="#399de5ff"] ;
119 -> 120 ;
121 [label="gini = 0.0\nsamples = 1\nvalue = [1, 0]", fillcolor="#e58139ff"] ;
119 -> 121 ;
122 [label="oucontent_clicks_by_days_change <= -194.0\ngini = 0.012\nsamples = 1344\nvalue = [8, 1336]", fillcolor="#399de5fd"] ;
110 -> 122 ;
123 [label="highest_education_HE Qualification <= 0.5\ngini = 0.375\nsamples = 4\nvalue = [1, 3]", fillcolor="#399de5aa"] ;
122 -> 123 ;
124 [label="gini = 0.0\nsamples = 3\nvalue = [0, 3]", fillcolor="#399de5ff"] ;
123 -> 124 ;
125 [label="gini = 0.0\nsamples = 1\nvalue = [1, 0]", fillcolor="#e58139ff"] ;
123 -> 125 ;
126 [label="oucontent_clicks_by_days_change <= -83.5\ngini = 0.01\nsamples = 1340\nvalue = [7, 1333]", fillcolor="#399de5fe"] ;
122 -> 126 ;
127 [label="oucontent_clicks_by_days_change <= -85.0\ngini = 0.074\nsamples = 52\nvalue = [2, 50]", fillcolor="#399de5f5"] ;
126 -> 127 ;
128 [label="gini = 0.0\nsamples = 50\nvalue = [0, 50]", fillcolor="#399de5ff"] ;
127 -> 128 ;
129 [label="gini = 0.0\nsamples = 2\nvalue = [2, 0]", fillcolor="#e58139ff"] ;
127 -> 129 ;
130 [label="oucontent_clicks_by_days <= 10.5\ngini = 0.008\nsamples = 1288\nvalue = [5, 1283]", fillcolor="#399de5fe"] ;
126 -> 130 ;
131 [label="gini = 0.117\nsamples = 16\nvalue = [1, 15]", fillcolor="#399de5ee"] ;
130 -> 131 ;
132 [label="gini = 0.006\nsamples = 1272\nvalue = [4, 1268]", fillcolor="#399de5fe"] ;
130 -> 132 ;
133 [label="page_clicks_by_days_change <= -0.5\ngini = 0.004\nsamples = 2975\nvalue = [6, 2969]", fillcolor="#399de5fe"] ;
109 -> 133 ;
134 [label="region_South East Region <= 0.5\ngini = 0.071\nsamples = 27\nvalue = [1, 26]", fillcolor="#399de5f5"] ;
133 -> 134 ;
135 [label="gini = 0.0\nsamples = 26\nvalue = [0, 26]", fillcolor="#399de5ff"] ;
134 -> 135 ;
136 [label="gini = 0.0\nsamples = 1\nvalue = [1, 0]", fillcolor="#e58139ff"] ;
134 -> 136 ;
137 [label="oucontent_clicks_by_days_change <= -127.5\ngini = 0.003\nsamples = 2948\nvalue = [5, 2943]", fillcolor="#399de5ff"] ;
133 -> 137 ;
138 [label="oucontent_clicks_by_days_change <= -128.5\ngini = 0.05\nsamples = 39\nvalue = [1, 38]", fillcolor="#399de5f8"] ;
137 -> 138 ;
139 [label="gini = 0.0\nsamples = 37\nvalue = [0, 37]", fillcolor="#399de5ff"] ;
138 -> 139 ;
140 [label="date <= 148.5\ngini = 0.5\nsamples = 2\nvalue = [1, 1]", fillcolor="#e5813900"] ;
138 -> 140 ;
141 [label="gini = 0.0\nsamples = 1\nvalue = [1, 0]", fillcolor="#e58139ff"] ;
140 -> 141 ;
142 [label="gini = 0.0\nsamples = 1\nvalue = [0, 1]", fillcolor="#399de5ff"] ;
140 -> 142 ;
143 [label="region_North Region <= 0.5\ngini = 0.003\nsamples = 2909\nvalue = [4, 2905]", fillcolor="#399de5ff"] ;
137 -> 143 ;
144 [label="oucollaborate_clicks_by_days_change <= 1.5\ngini = 0.001\nsamples = 2709\nvalue = [2, 2707]", fillcolor="#399de5ff"] ;
143 -> 144 ;
145 [label="gini = 0.001\nsamples = 2577\nvalue = [1, 2576]", fillcolor="#399de5ff"] ;
144 -> 145 ;
146 [label="gini = 0.015\nsamples = 132\nvalue = [1, 131]", fillcolor="#399de5fd"] ;
144 -> 146 ;
147 [label="resource_clicks_by_days_change <= 4.5\ngini = 0.02\nsamples = 200\nvalue = [2, 198]", fillcolor="#399de5fc"] ;
143 -> 147 ;
148 [label="gini = 0.01\nsamples = 190\nvalue = [1, 189]", fillcolor="#399de5fe"] ;
147 -> 148 ;
149 [label="gini = 0.18\nsamples = 10\nvalue = [1, 9]", fillcolor="#399de5e3"] ;
147 -> 149 ;
150 [label="quiz_clicks_by_days_change <= 5.5\ngini = 0.375\nsamples = 8\nvalue = [2, 6]", fillcolor="#399de5aa"] ;
108 -> 150 ;
151 [label="gini = 0.0\nsamples = 2\nvalue = [2, 0]", fillcolor="#e58139ff"] ;
150 -> 151 ;
152 [label="gini = 0.0\nsamples = 6\nvalue = [0, 6]", fillcolor="#399de5ff"] ;
150 -> 152 ;
}