digraph Tree {
node [shape=box, style="filled", color="black"] ;
0 [label="due_vs_submission_date <= 0.5\ngini = 0.083\nsamples = 153943\nvalue = [6670, 147273]", fillcolor="#399de5f3"] ;
1 [label="weight <= 1.5\ngini = 0.126\nsamples = 70923\nvalue = [4778, 66145]", fillcolor="#399de5ed"] ;
0 -> 1 [labeldistance=2.5, labelangle=45, headlabel="True"] ;
2 [label="date <= 33.0\ngini = 0.037\nsamples = 19112\nvalue = [363, 18749]", fillcolor="#399de5fa"] ;
1 -> 2 ;
3 [label="region_South Region <= 0.5\ngini = 0.474\nsamples = 262\nvalue = [101, 161]", fillcolor="#399de55f"] ;
2 -> 3 ;
4 [label="imd_band_0-10% <= 0.5\ngini = 0.458\nsamples = 245\nvalue = [87, 158]", fillcolor="#399de573"] ;
3 -> 4 ;
5 [label="region_Yorkshire Region <= 0.5\ngini = 0.478\nsamples = 203\nvalue = [80, 123]", fillcolor="#399de559"] ;
4 -> 5 ;
6 [label="url_clicks_by_days <= 0.5\ngini = 0.467\nsamples = 194\nvalue = [72, 122]", fillcolor="#399de569"] ;
5 -> 6 ;
7 [label="homepage_clicks_by_days_change <= 25.5\ngini = 0.493\nsamples = 123\nvalue = [54, 69]", fillcolor="#399de537"] ;
6 -> 7 ;
8 [label="forumng_clicks_by_days <= 0.5\ngini = 0.48\nsamples = 110\nvalue = [44, 66]", fillcolor="#399de555"] ;
7 -> 8 ;
9 [label="gini = 0.495\nsamples = 84\nvalue = [38, 46]", fillcolor="#399de52c"] ;
8 -> 9 ;
10 [label="gini = 0.355\nsamples = 26\nvalue = [6, 20]", fillcolor="#399de5b3"] ;
8 -> 10 ;
11 [label="imd_band_40-50% <= 0.5\ngini = 0.355\nsamples = 13\nvalue = [10, 3]", fillcolor="#e58139b3"] ;
7 -> 11 ;
12 [label="gini = 0.165\nsamples = 11\nvalue = [10, 1]", fillcolor="#e58139e6"] ;
11 -> 12 ;
13 [label="gini = 0.0\nsamples = 2\nvalue = [0, 2]", fillcolor="#399de5ff"] ;
11 -> 13 ;
14 [label="homepage_clicks_by_days <= 6.5\ngini = 0.378\nsamples = 71\nvalue = [18, 53]", fillcolor="#399de5a8"] ;
6 -> 14 ;
15 [label="subpage_clicks_by_days <= 6.5\ngini = 0.408\nsamples = 7\nvalue = [5, 2]", fillcolor="#e5813999"] ;
14 -> 15 ;
16 [label="gini = 0.0\nsamples = 5\nvalue = [5, 0]", fillcolor="#e58139ff"] ;
15 -> 16 ;
17 [label="gini = 0.0\nsamples = 2\nvalue = [0, 2]", fillcolor="#399de5ff"] ;
15 -> 17 ;
18 [label="region_Ireland <= 0.5\ngini = 0.324\nsamples = 64\nvalue = [13, 51]", fillcolor="#399de5be"] ;
14 -> 18 ;
19 [label="gini = 0.39\nsamples = 49\nvalue = [13, 36]", fillcolor="#399de5a3"] ;
18 -> 19 ;
20 [label="gini = 0.0\nsamples = 15\nvalue = [0, 15]", fillcolor="#399de5ff"] ;
18 -> 20 ;
21 [label="num_of_prev_attempts <= 0.5\ngini = 0.198\nsamples = 9\nvalue = [8, 1]", fillcolor="#e58139df"] ;
5 -> 21 ;
22 [label="gini = 0.0\nsamples = 8\nvalue = [8, 0]", fillcolor="#e58139ff"] ;
21 -> 22 ;
23 [label="gini = 0.0\nsamples = 1\nvalue = [0, 1]", fillcolor="#399de5ff"] ;
21 -> 23 ;
24 [label="oucontent_clicks_by_days_change <= 92.0\ngini = 0.278\nsamples = 42\nvalue = [7, 35]", fillcolor="#399de5cc"] ;
4 -> 24 ;
25 [label="region_South West Region <= 0.5\ngini = 0.25\nsamples = 41\nvalue = [6, 35]", fillcolor="#399de5d3"] ;
24 -> 25 ;
26 [label="resource_clicks_by_days <= 1.5\ngini = 0.219\nsamples = 40\nvalue = [5, 35]", fillcolor="#399de5db"] ;
25 -> 26 ;
27 [label="due_vs_submission_date <= -0.5\ngini = 0.375\nsamples = 12\nvalue = [3, 9]", fillcolor="#399de5aa"] ;
26 -> 27 ;
28 [label="gini = 0.0\nsamples = 6\nvalue = [0, 6]", fillcolor="#399de5ff"] ;
27 -> 28 ;
29 [label="gini = 0.5\nsamples = 6\nvalue = [3, 3]", fillcolor="#e5813900"] ;
27 -> 29 ;
30 [label="homepage_clicks_by_days_change <= 17.5\ngini = 0.133\nsamples = 28\nvalue = [2, 26]", fillcolor="#399de5eb"] ;
26 -> 30 ;
31 [label="gini = 0.0\nsamples = 18\nvalue = [0, 18]", fillcolor="#399de5ff"] ;
30 -> 31 ;
32 [label="gini = 0.32\nsamples = 10\nvalue = [2, 8]", fillcolor="#399de5bf"] ;
30 -> 32 ;
33 [label="gini = 0.0\nsamples = 1\nvalue = [1, 0]", fillcolor="#e58139ff"] ;
25 -> 33 ;
34 [label="gini = 0.0\nsamples = 1\nvalue = [1, 0]", fillcolor="#e58139ff"] ;
24 -> 34 ;
35 [label="resource_clicks_by_days <= 13.0\ngini = 0.291\nsamples = 17\nvalue = [14, 3]", fillcolor="#e58139c8"] ;
3 -> 35 ;
36 [label="imd_band_70-80% <= 0.5\ngini = 0.133\nsamples = 14\nvalue = [13, 1]", fillcolor="#e58139eb"] ;
35 -> 36 ;
37 [label="gini = 0.0\nsamples = 12\nvalue = [12, 0]", fillcolor="#e58139ff"] ;
36 -> 37 ;
38 [label="homepage_clicks_by_days <= 7.5\ngini = 0.5\nsamples = 2\nvalue = [1, 1]", fillcolor="#e5813900"] ;
36 -> 38 ;
39 [label="gini = 0.0\nsamples = 1\nvalue = [1, 0]", fillcolor="#e58139ff"] ;
38 -> 39 ;
40 [label="gini = 0.0\nsamples = 1\nvalue = [0, 1]", fillcolor="#399de5ff"] ;
38 -> 40 ;
41 [label="homepage_clicks_by_days_change <= 43.5\ngini = 0.444\nsamples = 3\nvalue = [1, 2]", fillcolor="#399de57f"] ;
35 -> 41 ;
42 [label="gini = 0.0\nsamples = 2\nvalue = [0, 2]", fillcolor="#399de5ff"] ;
41 -> 42 ;
43 [label="gini = 0.0\nsamples = 1\nvalue = [1, 0]", fillcolor="#e58139ff"] ;
41 -> 43 ;
44 [label="due_vs_submission_date <= -6.5\ngini = 0.027\nsamples = 18850\nvalue = [262, 18588]", fillcolor="#399de5fb"] ;
2 -> 44 ;
45 [label="quiz_clicks_by_days <= 41.0\ngini = 0.19\nsamples = 638\nvalue = [68, 570]", fillcolor="#399de5e1"] ;
44 -> 45 ;
46 [label="due_vs_submission_date <= -24.5\ngini = 0.178\nsamples = 626\nvalue = [62, 564]", fillcolor="#399de5e3"] ;
45 -> 46 ;
47 [label="due_vs_submission_date <= -58.5\ngini = 0.288\nsamples = 155\nvalue = [27, 128]", fillcolor="#399de5c9"] ;
46 -> 47 ;
48 [label="date <= 238.5\ngini = 0.027\nsamples = 72\nvalue = [1, 71]", fillcolor="#399de5fb"] ;
47 -> 48 ;
49 [label="gini = 0.0\nsamples = 71\nvalue = [0, 71]", fillcolor="#399de5ff"] ;
48 -> 49 ;
50 [label="gini = 0.0\nsamples = 1\nvalue = [1, 0]", fillcolor="#e58139ff"] ;
48 -> 50 ;
51 [label="due_vs_submission_date <= -53.5\ngini = 0.43\nsamples = 83\nvalue = [26, 57]", fillcolor="#399de58b"] ;
47 -> 51 ;
52 [label="homepage_clicks_by_days_change <= 1.0\ngini = 0.245\nsamples = 7\nvalue = [6, 1]", fillcolor="#e58139d4"] ;
51 -> 52 ;
53 [label="gini = 0.0\nsamples = 6\nvalue = [6, 0]", fillcolor="#e58139ff"] ;
52 -> 53 ;
54 [label="gini = 0.0\nsamples = 1\nvalue = [0, 1]", fillcolor="#399de5ff"] ;
52 -> 54 ;
55 [label="resource_clicks_by_days_change <= 5.0\ngini = 0.388\nsamples = 76\nvalue = [20, 56]", fillcolor="#399de5a4"] ;
51 -> 55 ;
56 [label="gini = 0.368\nsamples = 74\nvalue = [18, 56]", fillcolor="#399de5ad"] ;
55 -> 56 ;
57 [label="gini = 0.0\nsamples = 2\nvalue = [2, 0]", fillcolor="#e58139ff"] ;
55 -> 57 ;
58 [label="assessment_type_CMA <= 0.5\ngini = 0.138\nsamples = 471\nvalue = [35, 436]", fillcolor="#399de5eb"] ;
46 -> 58 ;
59 [label="forumng_clicks_by_days <= 81.0\ngini = 0.125\nsamples = 461\nvalue = [31, 430]", fillcolor="#399de5ed"] ;
58 -> 59 ;
60 [label="imd_band_70-80% <= 0.5\ngini = 0.122\nsamples = 460\nvalue = [30, 430]", fillcolor="#399de5ed"] ;
59 -> 60 ;
61 [label="gini = 0.109\nsamples = 432\nvalue = [25, 407]", fillcolor="#399de5ef"] ;
60 -> 61 ;
62 [label="gini = 0.293\nsamples = 28\nvalue = [5, 23]", fillcolor="#399de5c8"] ;
60 -> 62 ;
63 [label="gini = 0.0\nsamples = 1\nvalue = [1, 0]", fillcolor="#e58139ff"] ;
59 -> 63 ;
64 [label="highest_education_A Level or Equivalent <= 0.5\ngini = 0.48\nsamples = 10\nvalue = [4, 6]", fillcolor="#399de555"] ;
58 -> 64 ;
65 [label="quiz_clicks_by_days <= 3.0\ngini = 0.444\nsamples = 6\nvalue = [4, 2]", fillcolor="#e581397f"] ;
64 -> 65 ;
66 [label="gini = 0.0\nsamples = 2\nvalue = [0, 2]", fillcolor="#399de5ff"] ;
65 -> 66 ;
67 [label="gini = 0.0\nsamples = 4\nvalue = [4, 0]", fillcolor="#e58139ff"] ;
65 -> 67 ;
68 [label="gini = 0.0\nsamples = 4\nvalue = [0, 4]", fillcolor="#399de5ff"] ;
64 -> 68 ;
69 [label="due_vs_submission_date <= -12.0\ngini = 0.5\nsamples = 12\nvalue = [6, 6]", fillcolor="#e5813900"] ;
45 -> 69 ;
70 [label="resource_clicks_by_days_change <= -5.5\ngini = 0.375\nsamples = 8\nvalue = [2, 6]", fillcolor="#399de5aa"] ;
69 -> 70 ;
71 [label="gini = 0.0\nsamples = 2\nvalue = [2, 0]", fillcolor="#e58139ff"] ;
70 -> 71 ;
72 [label="gini = 0.0\nsamples = 6\nvalue = [0, 6]", fillcolor="#399de5ff"] ;
70 -> 72 ;
73 [label="gini = 0.0\nsamples = 4\nvalue = [4, 0]", fillcolor="#e58139ff"] ;
69 -> 73 ;
74 [label="studied_credits <= 52.5\ngini = 0.021\nsamples = 18212\nvalue = [194, 18018]", fillcolor="#399de5fc"] ;
44 -> 74 ;
75 [label="resource_clicks_by_days_change <= -20.0\ngini = 0.068\nsamples = 1635\nvalue = [58, 1577]", fillcolor="#399de5f6"] ;
74 -> 75 ;
76 [label="forumng_clicks_by_days <= 3.5\ngini = 0.375\nsamples = 4\nvalue = [3, 1]", fillcolor="#e58139aa"] ;
75 -> 76 ;
77 [label="gini = 0.0\nsamples = 3\nvalue = [3, 0]", fillcolor="#e58139ff"] ;
76 -> 77 ;
78 [label="gini = 0.0\nsamples = 1\nvalue = [0, 1]", fillcolor="#399de5ff"] ;
76 -> 78 ;
79 [label="imd_band_0-10% <= 0.5\ngini = 0.065\nsamples = 1631\nvalue = [55, 1576]", fillcolor="#399de5f6"] ;
75 -> 79 ;
80 [label="date <= 225.5\ngini = 0.054\nsamples = 1440\nvalue = [40, 1400]", fillcolor="#399de5f8"] ;
79 -> 80 ;
81 [label="highest_education_No Formal quals <= 0.5\ngini = 0.036\nsamples = 1077\nvalue = [20, 1057]", fillcolor="#399de5fa"] ;
80 -> 81 ;
82 [label="gini = 0.033\nsamples = 1064\nvalue = [18, 1046]", fillcolor="#399de5fb"] ;
81 -> 82 ;
83 [label="gini = 0.26\nsamples = 13\nvalue = [2, 11]", fillcolor="#399de5d1"] ;
81 -> 83 ;
84 [label="due_vs_submission_date <= -3.0\ngini = 0.104\nsamples = 363\nvalue = [20, 343]", fillcolor="#399de5f0"] ;
80 -> 84 ;
85 [label="gini = 0.0\nsamples = 2\nvalue = [2, 0]", fillcolor="#e58139ff"] ;
84 -> 85 ;
86 [label="gini = 0.095\nsamples = 361\nvalue = [18, 343]", fillcolor="#399de5f2"] ;
84 -> 86 ;
87 [label="glossary_clicks_by_days_change <= 4.5\ngini = 0.145\nsamples = 191\nvalue = [15, 176]", fillcolor="#399de5e9"] ;
79 -> 87 ;
88 [label="region_Wales <= 0.5\ngini = 0.137\nsamples = 190\nvalue = [14, 176]", fillcolor="#399de5eb"] ;
87 -> 88 ;
89 [label="gini = 0.121\nsamples = 186\nvalue = [12, 174]", fillcolor="#399de5ed"] ;
88 -> 89 ;
90 [label="gini = 0.5\nsamples = 4\nvalue = [2, 2]", fillcolor="#e5813900"] ;
88 -> 90 ;
91 [label="gini = 0.0\nsamples = 1\nvalue = [1, 0]", fillcolor="#e58139ff"] ;
87 -> 91 ;
92 [label="glossary_clicks_by_days_change <= -11.5\ngini = 0.016\nsamples = 16577\nvalue = [136, 16441]", fillcolor="#399de5fd"] ;
74 -> 92 ;
93 [label="region_West Midlands Region <= 0.5\ngini = 0.5\nsamples = 2\nvalue = [1, 1]", fillcolor="#e5813900"] ;
92 -> 93 ;
94 [label="gini = 0.0\nsamples = 1\nvalue = [0, 1]", fillcolor="#399de5ff"] ;
93 -> 94 ;
95 [label="gini = 0.0\nsamples = 1\nvalue = [1, 0]", fillcolor="#e58139ff"] ;
93 -> 95 ;
96 [label="forumng_clicks_by_days <= 6.5\ngini = 0.016\nsamples = 16575\nvalue = [135, 16440]", fillcolor="#399de5fd"] ;
92 -> 96 ;
97 [label="page_clicks_by_days <= 8.0\ngini = 0.025\nsamples = 8233\nvalue = [103, 8130]", fillcolor="#399de5fc"] ;
96 -> 97 ;
98 [label="assessment_type_CMA <= 0.5\ngini = 0.024\nsamples = 8220\nvalue = [101, 8119]", fillcolor="#399de5fc"] ;
97 -> 98 ;
99 [label="gini = 0.134\nsamples = 69\nvalue = [5, 64]", fillcolor="#399de5eb"] ;
98 -> 99 ;
100 [label="gini = 0.023\nsamples = 8151\nvalue = [96, 8055]", fillcolor="#399de5fc"] ;
98 -> 100 ;
101 [label="region_London Region <= 0.5\ngini = 0.26\nsamples = 13\nvalue = [2, 11]", fillcolor="#399de5d1"] ;
97 -> 101 ;
102 [label="gini = 0.346\nsamples = 9\nvalue = [2, 7]", fillcolor="#399de5b6"] ;
101 -> 102 ;
103 [label="gini = 0.0\nsamples = 4\nvalue = [0, 4]", fillcolor="#399de5ff"] ;
101 -> 103 ;
104 [label="quiz_clicks_by_days_change <= -37.5\ngini = 0.008\nsamples = 8342\nvalue = [32, 8310]", fillcolor="#399de5fe"] ;
96 -> 104 ;
105 [label="url_clicks_by_days_change <= -5.0\ngini = 0.219\nsamples = 16\nvalue = [2, 14]", fillcolor="#399de5db"] ;
104 -> 105 ;
106 [label="gini = 0.0\nsamples = 1\nvalue = [1, 0]", fillcolor="#e58139ff"] ;
105 -> 106 ;
107 [label="gini = 0.124\nsamples = 15\nvalue = [1, 14]", fillcolor="#399de5ed"] ;
105 -> 107 ;
108 [label="date <= 155.5\ngini = 0.007\nsamples = 8326\nvalue = [30, 8296]", fillcolor="#399de5fe"] ;
104 -> 108 ;
109 [label="gini = 0.003\nsamples = 5377\nvalue = [8, 5369]", fillcolor="#399de5ff"] ;
108 -> 109 ;
110 [label="gini = 0.015\nsamples = 2949\nvalue = [22, 2927]", fillcolor="#399de5fd"] ;
108 -> 110 ;
111 [label="homepage_clicks_by_days <= 9.5\ngini = 0.156\nsamples = 51811\nvalue = [4415, 47396]", fillcolor="#399de5e7"] ;
1 -> 111 ;
112 [label="weight <= 19.0\ngini = 0.227\nsamples = 17645\nvalue = [2306, 15339]", fillcolor="#399de5d9"] ;
111 -> 112 ;
113 [label="weight <= 17.75\ngini = 0.188\nsamples = 11165\nvalue = [1172, 9993]", fillcolor="#399de5e1"] ;
112 -> 113 ;
114 [label="date <= 150.0\ngini = 0.224\nsamples = 7266\nvalue = [936, 6330]", fillcolor="#399de5d9"] ;
113 -> 114 ;
115 [label="highest_education_Lower Than A Level <= 0.5\ngini = 0.21\nsamples = 6438\nvalue = [769, 5669]", fillcolor="#399de5dc"] ;
114 -> 115 ;
116 [label="due_vs_submission_date <= -7.5\ngini = 0.187\nsamples = 4455\nvalue = [464, 3991]", fillcolor="#399de5e1"] ;
115 -> 116 ;
117 [label="date <= 64.5\ngini = 0.291\nsamples = 430\nvalue = [76, 354]", fillcolor="#399de5c8"] ;
116 -> 117 ;
118 [label="gini = 0.242\nsamples = 369\nvalue = [52, 317]", fillcolor="#399de5d5"] ;
117 -> 118 ;
119 [label="gini = 0.477\nsamples = 61\nvalue = [24, 37]", fillcolor="#399de55a"] ;
117 -> 119 ;
120 [label="weight <= 4.5\ngini = 0.174\nsamples = 4025\nvalue = [388, 3637]", fillcolor="#399de5e4"] ;
116 -> 120 ;
121 [label="gini = 0.225\nsamples = 928\nvalue = [120, 808]", fillcolor="#399de5d9"] ;
120 -> 121 ;
122 [label="gini = 0.158\nsamples = 3097\nvalue = [268, 2829]", fillcolor="#399de5e7"] ;
120 -> 122 ;
123 [label="date <= 24.5\ngini = 0.26\nsamples = 1983\nvalue = [305, 1678]", fillcolor="#399de5d1"] ;
115 -> 123 ;
124 [label="assessment_type_TMA <= 0.5\ngini = 0.175\nsamples = 588\nvalue = [57, 531]", fillcolor="#399de5e4"] ;
123 -> 124 ;
125 [label="gini = 0.315\nsamples = 153\nvalue = [30, 123]", fillcolor="#399de5c1"] ;
124 -> 125 ;
126 [label="gini = 0.116\nsamples = 435\nvalue = [27, 408]", fillcolor="#399de5ee"] ;
124 -> 126 ;
127 [label="url_clicks_by_days <= 0.5\ngini = 0.292\nsamples = 1395\nvalue = [248, 1147]", fillcolor="#399de5c8"] ;
123 -> 127 ;
128 [label="gini = 0.313\nsamples = 1135\nvalue = [220, 915]", fillcolor="#399de5c2"] ;
127 -> 128 ;
129 [label="gini = 0.192\nsamples = 260\nvalue = [28, 232]", fillcolor="#399de5e0"] ;
127 -> 129 ;
130 [label="assessment_type_TMA <= 0.5\ngini = 0.322\nsamples = 828\nvalue = [167, 661]", fillcolor="#399de5bf"] ;
114 -> 130 ;
131 [label="due_vs_submission_date <= -7.0\ngini = 0.275\nsamples = 679\nvalue = [112, 567]", fillcolor="#399de5cd"] ;
130 -> 131 ;
132 [label="region_North Western Region <= 0.5\ngini = 0.245\nsamples = 7\nvalue = [6, 1]", fillcolor="#e58139d4"] ;
131 -> 132 ;
133 [label="gini = 0.0\nsamples = 6\nvalue = [6, 0]", fillcolor="#e58139ff"] ;
132 -> 133 ;
134 [label="gini = 0.0\nsamples = 1\nvalue = [0, 1]", fillcolor="#399de5ff"] ;
132 -> 134 ;
135 [label="homepage_clicks_by_days_change <= -55.5\ngini = 0.266\nsamples = 672\nvalue = [106, 566]", fillcolor="#399de5cf"] ;
131 -> 135 ;
136 [label="gini = 0.0\nsamples = 2\nvalue = [2, 0]", fillcolor="#e58139ff"] ;
135 -> 136 ;
137 [label="gini = 0.262\nsamples = 670\nvalue = [104, 566]", fillcolor="#399de5d0"] ;
135 -> 137 ;
138 [label="forumng_clicks_by_days <= 0.5\ngini = 0.466\nsamples = 149\nvalue = [55, 94]", fillcolor="#399de56a"] ;
130 -> 138 ;
139 [label="studied_credits <= 72.5\ngini = 0.499\nsamples = 79\nvalue = [41, 38]", fillcolor="#e5813913"] ;
138 -> 139 ;
140 [label="gini = 0.473\nsamples = 47\nvalue = [18, 29]", fillcolor="#399de561"] ;
139 -> 140 ;
141 [label="gini = 0.404\nsamples = 32\nvalue = [23, 9]", fillcolor="#e581399b"] ;
139 -> 141 ;
142 [label="ouelluminate_clicks_by_days <= 0.5\ngini = 0.32\nsamples = 70\nvalue = [14, 56]", fillcolor="#399de5bf"] ;
138 -> 142 ;
143 [label="gini = 0.264\nsamples = 64\nvalue = [10, 54]", fillcolor="#399de5d0"] ;
142 -> 143 ;
144 [label="gini = 0.444\nsamples = 6\nvalue = [4, 2]", fillcolor="#e581397f"] ;
142 -> 144 ;
145 [label="due_vs_submission_date <= -29.5\ngini = 0.114\nsamples = 3899\nvalue = [236, 3663]", fillcolor="#399de5ef"] ;
113 -> 145 ;
146 [label="forumng_clicks_by_days_change <= -7.0\ngini = 0.424\nsamples = 82\nvalue = [25, 57]", fillcolor="#399de58f"] ;
145 -> 146 ;
147 [label="gini = 0.0\nsamples = 15\nvalue = [0, 15]", fillcolor="#399de5ff"] ;
146 -> 147 ;
148 [label="region_West Midlands Region <= 0.5\ngini = 0.468\nsamples = 67\nvalue = [25, 42]", fillcolor="#399de567"] ;
146 -> 148 ;
149 [label="homepage_clicks_by_days <= 1.5\ngini = 0.49\nsamples = 58\nvalue = [25, 33]", fillcolor="#399de53e"] ;
148 -> 149 ;
150 [label="gini = 0.48\nsamples = 25\nvalue = [15, 10]", fillcolor="#e5813955"] ;
149 -> 150 ;
151 [label="gini = 0.422\nsamples = 33\nvalue = [10, 23]", fillcolor="#399de590"] ;
149 -> 151 ;
152 [label="gini = 0.0\nsamples = 9\nvalue = [0, 9]", fillcolor="#399de5ff"] ;
148 -> 152 ;
153 [label="homepage_clicks_by_days <= 1.5\ngini = 0.104\nsamples = 3817\nvalue = [211, 3606]", fillcolor="#399de5f0"] ;
145 -> 153 ;
154 [label="date <= 85.5\ngini = 0.158\nsamples = 877\nvalue = [76, 801]", fillcolor="#399de5e7"] ;
153 -> 154 ;
155 [label="forumng_clicks_by_days_change <= 24.5\ngini = 0.065\nsamples = 299\nvalue = [10, 289]", fillcolor="#399de5f6"] ;
154 -> 155 ;
156 [label="gini = 0.059\nsamples = 298\nvalue = [9, 289]", fillcolor="#399de5f7"] ;
155 -> 156 ;
157 [label="gini = 0.0\nsamples = 1\nvalue = [1, 0]", fillcolor="#e58139ff"] ;
155 -> 157 ;
158 [label="imd_band_0-10% <= 0.5\ngini = 0.202\nsamples = 578\nvalue = [66, 512]", fillcolor="#399de5de"] ;
154 -> 158 ;
159 [label="gini = 0.174\nsamples = 487\nvalue = [47, 440]", fillcolor="#399de5e4"] ;
158 -> 159 ;
160 [label="gini = 0.33\nsamples = 91\nvalue = [19, 72]", fillcolor="#399de5bc"] ;
158 -> 160 ;
161 [label="url_clicks_by_days <= 8.0\ngini = 0.088\nsamples = 2940\nvalue = [135, 2805]", fillcolor="#399de5f3"] ;
153 -> 161 ;
162 [label="quiz_clicks_by_days <= 43.0\ngini = 0.087\nsamples = 2939\nvalue = [134, 2805]", fillcolor="#399de5f3"] ;
161 -> 162 ;
163 [label="gini = 0.086\nsamples = 2934\nvalue = [132, 2802]", fillcolor="#399de5f3"] ;
162 -> 163 ;
164 [label="gini = 0.48\nsamples = 5\nvalue = [2, 3]", fillcolor="#399de555"] ;
162 -> 164 ;
165 [label="gini = 0.0\nsamples = 1\nvalue = [1, 0]", fillcolor="#e58139ff"] ;
161 -> 165 ;
166 [label="weight <= 26.5\ngini = 0.289\nsamples = 6480\nvalue = [1134, 5346]", fillcolor="#399de5c9"] ;
112 -> 166 ;
167 [label="date <= 141.0\ngini = 0.326\nsamples = 5121\nvalue = [1048, 4073]", fillcolor="#399de5bd"] ;
166 -> 167 ;
168 [label="due_vs_submission_date <= -7.5\ngini = 0.283\nsamples = 2788\nvalue = [475, 2313]", fillcolor="#399de5cb"] ;
167 -> 168 ;
169 [label="oucontent_clicks_by_days_change <= -27.5\ngini = 0.365\nsamples = 717\nvalue = [172, 545]", fillcolor="#399de5af"] ;
168 -> 169 ;
170 [label="studied_credits <= 217.5\ngini = 0.231\nsamples = 180\nvalue = [24, 156]", fillcolor="#399de5d8"] ;
169 -> 170 ;
171 [label="gini = 0.21\nsamples = 176\nvalue = [21, 155]", fillcolor="#399de5dc"] ;
170 -> 171 ;
172 [label="gini = 0.375\nsamples = 4\nvalue = [3, 1]", fillcolor="#e58139aa"] ;
170 -> 172 ;
173 [label="oucontent_clicks_by_days_change <= -7.5\ngini = 0.399\nsamples = 537\nvalue = [148, 389]", fillcolor="#399de59e"] ;
169 -> 173 ;
174 [label="gini = 0.467\nsamples = 180\nvalue = [67, 113]", fillcolor="#399de568"] ;
173 -> 174 ;
175 [label="gini = 0.351\nsamples = 357\nvalue = [81, 276]", fillcolor="#399de5b4"] ;
173 -> 175 ;
176 [label="highest_education_Lower Than A Level <= 0.5\ngini = 0.25\nsamples = 2071\nvalue = [303, 1768]", fillcolor="#399de5d3"] ;
168 -> 176 ;
177 [label="homepage_clicks_by_days_change <= 0.5\ngini = 0.215\nsamples = 1433\nvalue = [176, 1257]", fillcolor="#399de5db"] ;
176 -> 177 ;
178 [label="gini = 0.185\nsamples = 1093\nvalue = [113, 980]", fillcolor="#399de5e2"] ;
177 -> 178 ;
179 [label="gini = 0.302\nsamples = 340\nvalue = [63, 277]", fillcolor="#399de5c5"] ;
177 -> 179 ;
180 [label="oucontent_clicks_by_days <= 45.5\ngini = 0.319\nsamples = 638\nvalue = [127, 511]", fillcolor="#399de5c0"] ;
176 -> 180 ;
181 [label="gini = 0.339\nsamples = 579\nvalue = [125, 454]", fillcolor="#399de5b9"] ;
180 -> 181 ;
182 [label="gini = 0.065\nsamples = 59\nvalue = [2, 57]", fillcolor="#399de5f6"] ;
180 -> 182 ;
183 [label="due_vs_submission_date <= -29.0\ngini = 0.371\nsamples = 2333\nvalue = [573, 1760]", fillcolor="#399de5ac"] ;
167 -> 183 ;
184 [label="studied_credits <= 135.0\ngini = 0.32\nsamples = 20\nvalue = [16, 4]", fillcolor="#e58139bf"] ;
183 -> 184 ;
185 [label="imd_band_80-90% <= 0.5\ngini = 0.198\nsamples = 18\nvalue = [16, 2]", fillcolor="#e58139df"] ;
184 -> 185 ;
186 [label="gini = 0.111\nsamples = 17\nvalue = [16, 1]", fillcolor="#e58139ef"] ;
185 -> 186 ;
187 [label="gini = 0.0\nsamples = 1\nvalue = [0, 1]", fillcolor="#399de5ff"] ;
185 -> 187 ;
188 [label="gini = 0.0\nsamples = 2\nvalue = [0, 2]", fillcolor="#399de5ff"] ;
184 -> 188 ;
189 [label="url_clicks_by_days <= 0.5\ngini = 0.366\nsamples = 2313\nvalue = [557, 1756]", fillcolor="#399de5ae"] ;
183 -> 189 ;
190 [label="highest_education_Lower Than A Level <= 0.5\ngini = 0.39\nsamples = 1752\nvalue = [466, 1286]", fillcolor="#399de5a3"] ;
189 -> 190 ;
191 [label="gini = 0.363\nsamples = 1292\nvalue = [308, 984]", fillcolor="#399de5af"] ;
190 -> 191 ;
192 [label="gini = 0.451\nsamples = 460\nvalue = [158, 302]", fillcolor="#399de57a"] ;
190 -> 192 ;
193 [label="studied_credits <= 132.5\ngini = 0.272\nsamples = 561\nvalue = [91, 470]", fillcolor="#399de5ce"] ;
189 -> 193 ;
194 [label="gini = 0.252\nsamples = 534\nvalue = [79, 455]", fillcolor="#399de5d3"] ;
193 -> 194 ;
195 [label="gini = 0.494\nsamples = 27\nvalue = [12, 15]", fillcolor="#399de533"] ;
193 -> 195 ;
196 [label="ouwiki_clicks_by_days_change <= -5.5\ngini = 0.119\nsamples = 1359\nvalue = [86, 1273]", fillcolor="#399de5ee"] ;
166 -> 196 ;
197 [label="url_clicks_by_days_change <= -16.5\ngini = 0.444\nsamples = 3\nvalue = [2, 1]", fillcolor="#e581397f"] ;
196 -> 197 ;
198 [label="gini = 0.0\nsamples = 1\nvalue = [0, 1]", fillcolor="#399de5ff"] ;
197 -> 198 ;
199 [label="gini = 0.0\nsamples = 2\nvalue = [2, 0]", fillcolor="#e58139ff"] ;
197 -> 199 ;
200 [label="oucontent_clicks_by_days <= 15.5\ngini = 0.116\nsamples = 1356\nvalue = [84, 1272]", fillcolor="#399de5ee"] ;
196 -> 200 ;
201 [label="due_vs_submission_date <= -94.5\ngini = 0.158\nsamples = 730\nvalue = [63, 667]", fillcolor="#399de5e7"] ;
200 -> 201 ;
202 [label="gini = 0.0\nsamples = 1\nvalue = [1, 0]", fillcolor="#e58139ff"] ;
201 -> 202 ;
203 [label="forumng_clicks_by_days_change <= 46.5\ngini = 0.156\nsamples = 729\nvalue = [62, 667]", fillcolor="#399de5e7"] ;
201 -> 203 ;
204 [label="gini = 0.154\nsamples = 728\nvalue = [61, 667]", fillcolor="#399de5e8"] ;
203 -> 204 ;
205 [label="gini = 0.0\nsamples = 1\nvalue = [1, 0]", fillcolor="#e58139ff"] ;
203 -> 205 ;
206 [label="resource_clicks_by_days_change <= 5.5\ngini = 0.065\nsamples = 626\nvalue = [21, 605]", fillcolor="#399de5f6"] ;
200 -> 206 ;
207 [label="quiz_clicks_by_days <= 60.5\ngini = 0.057\nsamples = 615\nvalue = [18, 597]", fillcolor="#399de5f7"] ;
206 -> 207 ;
208 [label="gini = 0.054\nsamples = 613\nvalue = [17, 596]", fillcolor="#399de5f8"] ;
207 -> 208 ;
209 [label="gini = 0.5\nsamples = 2\nvalue = [1, 1]", fillcolor="#e5813900"] ;
207 -> 209 ;
210 [label="region_London Region <= 0.5\ngini = 0.397\nsamples = 11\nvalue = [3, 8]", fillcolor="#399de59f"] ;
206 -> 210 ;
211 [label="gini = 0.198\nsamples = 9\nvalue = [1, 8]", fillcolor="#399de5df"] ;
210 -> 211 ;
212 [label="gini = 0.0\nsamples = 2\nvalue = [2, 0]", fillcolor="#e58139ff"] ;
210 -> 212 ;
213 [label="forumng_clicks_by_days <= 16.5\ngini = 0.116\nsamples = 34166\nvalue = [2109, 32057]", fillcolor="#399de5ee"] ;
111 -> 213 ;
214 [label="weight <= 2.5\ngini = 0.146\nsamples = 18874\nvalue = [1500, 17374]", fillcolor="#399de5e9"] ;
213 -> 214 ;
215 [label="due_vs_submission_date <= -2.5\ngini = 0.257\nsamples = 1831\nvalue = [277, 1554]", fillcolor="#399de5d2"] ;
214 -> 215 ;
216 [label="studied_credits <= 140.0\ngini = 0.194\nsamples = 907\nvalue = [99, 808]", fillcolor="#399de5e0"] ;
215 -> 216 ;
217 [label="resource_clicks_by_days <= 8.5\ngini = 0.176\nsamples = 842\nvalue = [82, 760]", fillcolor="#399de5e3"] ;
216 -> 217 ;
218 [label="subpage_clicks_by_days <= 49.0\ngini = 0.2\nsamples = 683\nvalue = [77, 606]", fillcolor="#399de5df"] ;
217 -> 218 ;
219 [label="gini = 0.198\nsamples = 682\nvalue = [76, 606]", fillcolor="#399de5df"] ;
218 -> 219 ;
220 [label="gini = 0.0\nsamples = 1\nvalue = [1, 0]", fillcolor="#e58139ff"] ;
218 -> 220 ;
221 [label="homepage_clicks_by_days <= 53.0\ngini = 0.061\nsamples = 159\nvalue = [5, 154]", fillcolor="#399de5f7"] ;
217 -> 221 ;
222 [label="gini = 0.039\nsamples = 150\nvalue = [3, 147]", fillcolor="#399de5fa"] ;
221 -> 222 ;
223 [label="gini = 0.346\nsamples = 9\nvalue = [2, 7]", fillcolor="#399de5b6"] ;
221 -> 223 ;
224 [label="homepage_clicks_by_days <= 13.5\ngini = 0.386\nsamples = 65\nvalue = [17, 48]", fillcolor="#399de5a5"] ;
216 -> 224 ;
225 [label="imd_band_20-30% <= 0.5\ngini = 0.5\nsamples = 18\nvalue = [9, 9]", fillcolor="#e5813900"] ;
224 -> 225 ;
226 [label="gini = 0.459\nsamples = 14\nvalue = [5, 9]", fillcolor="#399de571"] ;
225 -> 226 ;
227 [label="gini = 0.0\nsamples = 4\nvalue = [4, 0]", fillcolor="#e58139ff"] ;
225 -> 227 ;
228 [label="region_South East Region <= 0.5\ngini = 0.282\nsamples = 47\nvalue = [8, 39]", fillcolor="#399de5cb"] ;
224 -> 228 ;
229 [label="gini = 0.231\nsamples = 45\nvalue = [6, 39]", fillcolor="#399de5d8"] ;
228 -> 229 ;
230 [label="gini = 0.0\nsamples = 2\nvalue = [2, 0]", fillcolor="#e58139ff"] ;
228 -> 230 ;
231 [label="highest_education_Lower Than A Level <= 0.5\ngini = 0.311\nsamples = 924\nvalue = [178, 746]", fillcolor="#399de5c2"] ;
215 -> 231 ;
232 [label="oucontent_clicks_by_days_change <= 6.5\ngini = 0.272\nsamples = 648\nvalue = [105, 543]", fillcolor="#399de5ce"] ;
231 -> 232 ;
233 [label="page_clicks_by_days <= 0.5\ngini = 0.208\nsamples = 381\nvalue = [45, 336]", fillcolor="#399de5dd"] ;
232 -> 233 ;
234 [label="gini = 0.201\nsamples = 379\nvalue = [43, 336]", fillcolor="#399de5de"] ;
233 -> 234 ;
235 [label="gini = 0.0\nsamples = 2\nvalue = [2, 0]", fillcolor="#e58139ff"] ;
233 -> 235 ;
236 [label="quiz_clicks_by_days <= 40.5\ngini = 0.348\nsamples = 267\nvalue = [60, 207]", fillcolor="#399de5b5"] ;
232 -> 236 ;
237 [label="gini = 0.231\nsamples = 135\nvalue = [18, 117]", fillcolor="#399de5d8"] ;
236 -> 237 ;
238 [label="gini = 0.434\nsamples = 132\nvalue = [42, 90]", fillcolor="#399de588"] ;
236 -> 238 ;
239 [label="resource_clicks_by_days_change <= 0.5\ngini = 0.389\nsamples = 276\nvalue = [73, 203]", fillcolor="#399de5a3"] ;
231 -> 239 ;
240 [label="oucontent_clicks_by_days <= 0.5\ngini = 0.488\nsamples = 19\nvalue = [11, 8]", fillcolor="#e5813946"] ;
239 -> 240 ;
241 [label="gini = 0.219\nsamples = 8\nvalue = [7, 1]", fillcolor="#e58139db"] ;
240 -> 241 ;
242 [label="gini = 0.463\nsamples = 11\nvalue = [4, 7]", fillcolor="#399de56d"] ;
240 -> 242 ;
243 [label="ouwiki_clicks_by_days_change <= 2.5\ngini = 0.366\nsamples = 257\nvalue = [62, 195]", fillcolor="#399de5ae"] ;
239 -> 243 ;
244 [label="gini = 0.39\nsamples = 234\nvalue = [62, 172]", fillcolor="#399de5a3"] ;
243 -> 244 ;
245 [label="gini = 0.0\nsamples = 23\nvalue = [0, 23]", fillcolor="#399de5ff"] ;
243 -> 245 ;
246 [label="date <= 194.5\ngini = 0.133\nsamples = 17043\nvalue = [1223, 15820]", fillcolor="#399de5eb"] ;
214 -> 246 ;
247 [label="due_vs_submission_date <= -20.5\ngini = 0.12\nsamples = 14670\nvalue = [939, 13731]", fillcolor="#399de5ee"] ;
246 -> 247 ;
248 [label="oucontent_clicks_by_days_change <= 0.5\ngini = 0.359\nsamples = 128\nvalue = [30, 98]", fillcolor="#399de5b1"] ;
247 -> 248 ;
249 [label="studied_credits <= 80.0\ngini = 0.248\nsamples = 76\nvalue = [11, 65]", fillcolor="#399de5d4"] ;
248 -> 249 ;
250 [label="gini = 0.081\nsamples = 47\nvalue = [2, 45]", fillcolor="#399de5f4"] ;
249 -> 250 ;
251 [label="gini = 0.428\nsamples = 29\nvalue = [9, 20]", fillcolor="#399de58c"] ;
249 -> 251 ;
252 [label="forumng_clicks_by_days_change <= -9.5\ngini = 0.464\nsamples = 52\nvalue = [19, 33]", fillcolor="#399de56c"] ;
248 -> 252 ;
253 [label="gini = 0.0\nsamples = 4\nvalue = [4, 0]", fillcolor="#e58139ff"] ;
252 -> 253 ;
254 [label="gini = 0.43\nsamples = 48\nvalue = [15, 33]", fillcolor="#399de58b"] ;
252 -> 254 ;
255 [label="url_clicks_by_days <= 1.5\ngini = 0.117\nsamples = 14542\nvalue = [909, 13633]", fillcolor="#399de5ee"] ;
247 -> 255 ;
256 [label="highest_education_Lower Than A Level <= 0.5\ngini = 0.136\nsamples = 9240\nvalue = [679, 8561]", fillcolor="#399de5eb"] ;
255 -> 256 ;
257 [label="gini = 0.114\nsamples = 6270\nvalue = [382, 5888]", fillcolor="#399de5ee"] ;
256 -> 257 ;
258 [label="gini = 0.18\nsamples = 2970\nvalue = [297, 2673]", fillcolor="#399de5e3"] ;
256 -> 258 ;
259 [label="subpage_clicks_by_days_change <= -135.0\ngini = 0.083\nsamples = 5302\nvalue = [230, 5072]", fillcolor="#399de5f3"] ;
255 -> 259 ;
260 [label="gini = 0.0\nsamples = 2\nvalue = [2, 0]", fillcolor="#e58139ff"] ;
259 -> 260 ;
261 [label="gini = 0.082\nsamples = 5300\nvalue = [228, 5072]", fillcolor="#399de5f4"] ;
259 -> 261 ;
262 [label="ouwiki_clicks_by_days_change <= -0.5\ngini = 0.211\nsamples = 2373\nvalue = [284, 2089]", fillcolor="#399de5dc"] ;
246 -> 262 ;
263 [label="oucontent_clicks_by_days <= 39.5\ngini = 0.383\nsamples = 221\nvalue = [57, 164]", fillcolor="#399de5a6"] ;
262 -> 263 ;
264 [label="forumng_clicks_by_days_change <= -42.5\ngini = 0.428\nsamples = 171\nvalue = [53, 118]", fillcolor="#399de58c"] ;
263 -> 264 ;
265 [label="gini = 0.077\nsamples = 25\nvalue = [1, 24]", fillcolor="#399de5f4"] ;
264 -> 265 ;
266 [label="gini = 0.459\nsamples = 146\nvalue = [52, 94]", fillcolor="#399de572"] ;
264 -> 266 ;
267 [label="glossary_clicks_by_days_change <= -5.0\ngini = 0.147\nsamples = 50\nvalue = [4, 46]", fillcolor="#399de5e9"] ;
263 -> 267 ;
268 [label="gini = 0.0\nsamples = 2\nvalue = [2, 0]", fillcolor="#e58139ff"] ;
267 -> 268 ;
269 [label="gini = 0.08\nsamples = 48\nvalue = [2, 46]", fillcolor="#399de5f4"] ;
267 -> 269 ;
270 [label="externalquiz_clicks_by_days <= 0.5\ngini = 0.189\nsamples = 2152\nvalue = [227, 1925]", fillcolor="#399de5e1"] ;
262 -> 270 ;
271 [label="homepage_clicks_by_days <= 28.5\ngini = 0.167\nsamples = 1822\nvalue = [168, 1654]", fillcolor="#399de5e5"] ;
270 -> 271 ;
272 [label="gini = 0.185\nsamples = 1564\nvalue = [161, 1403]", fillcolor="#399de5e2"] ;
271 -> 272 ;
273 [label="gini = 0.053\nsamples = 258\nvalue = [7, 251]", fillcolor="#399de5f8"] ;
271 -> 273 ;
274 [label="resource_clicks_by_days_change <= -10.5\ngini = 0.294\nsamples = 330\nvalue = [59, 271]", fillcolor="#399de5c7"] ;
270 -> 274 ;
275 [label="gini = 0.0\nsamples = 3\nvalue = [3, 0]", fillcolor="#e58139ff"] ;
274 -> 275 ;
276 [label="gini = 0.284\nsamples = 327\nvalue = [56, 271]", fillcolor="#399de5ca"] ;
274 -> 276 ;
277 [label="due_vs_submission_date <= -0.5\ngini = 0.076\nsamples = 15292\nvalue = [609, 14683]", fillcolor="#399de5f4"] ;
213 -> 277 ;
278 [label="due_vs_submission_date <= -21.5\ngini = 0.103\nsamples = 6670\nvalue = [365, 6305]", fillcolor="#399de5f0"] ;
277 -> 278 ;
279 [label="subpage_clicks_by_days <= 17.5\ngini = 0.393\nsamples = 41\nvalue = [11, 30]", fillcolor="#399de5a1"] ;
278 -> 279 ;
280 [label="resource_clicks_by_days <= 8.5\ngini = 0.252\nsamples = 27\nvalue = [4, 23]", fillcolor="#399de5d3"] ;
279 -> 280 ;
281 [label="num_of_prev_attempts <= 0.5\ngini = 0.091\nsamples = 21\nvalue = [1, 20]", fillcolor="#399de5f2"] ;
280 -> 281 ;
282 [label="gini = 0.0\nsamples = 19\nvalue = [0, 19]", fillcolor="#399de5ff"] ;
281 -> 282 ;
283 [label="gini = 0.5\nsamples = 2\nvalue = [1, 1]", fillcolor="#e5813900"] ;
281 -> 283 ;
284 [label="date <= 88.5\ngini = 0.5\nsamples = 6\nvalue = [3, 3]", fillcolor="#e5813900"] ;
280 -> 284 ;
285 [label="gini = 0.0\nsamples = 3\nvalue = [0, 3]", fillcolor="#399de5ff"] ;
284 -> 285 ;
286 [label="gini = 0.0\nsamples = 3\nvalue = [3, 0]", fillcolor="#e58139ff"] ;
284 -> 286 ;
287 [label="highest_education_A Level or Equivalent <= 0.5\ngini = 0.5\nsamples = 14\nvalue = [7, 7]", fillcolor="#e5813900"] ;
279 -> 287 ;
288 [label="subpage_clicks_by_days_change <= 24.5\ngini = 0.375\nsamples = 8\nvalue = [2, 6]", fillcolor="#399de5aa"] ;
287 -> 288 ;
289 [label="gini = 0.444\nsamples = 3\nvalue = [2, 1]", fillcolor="#e581397f"] ;
288 -> 289 ;
290 [label="gini = 0.0\nsamples = 5\nvalue = [0, 5]", fillcolor="#399de5ff"] ;
288 -> 290 ;
291 [label="dualpane_clicks_by_days <= 3.5\ngini = 0.278\nsamples = 6\nvalue = [5, 1]", fillcolor="#e58139cc"] ;
287 -> 291 ;
292 [label="gini = 0.0\nsamples = 5\nvalue = [5, 0]", fillcolor="#e58139ff"] ;
291 -> 292 ;
293 [label="gini = 0.0\nsamples = 1\nvalue = [0, 1]", fillcolor="#399de5ff"] ;
291 -> 293 ;
294 [label="forumng_clicks_by_days <= 31.5\ngini = 0.101\nsamples = 6629\nvalue = [354, 6275]", fillcolor="#399de5f1"] ;
278 -> 294 ;
295 [label="num_of_prev_attempts <= 3.5\ngini = 0.135\nsamples = 2646\nvalue = [192, 2454]", fillcolor="#399de5eb"] ;
294 -> 295 ;
296 [label="homepage_clicks_by_days_change <= 75.0\ngini = 0.133\nsamples = 2644\nvalue = [190, 2454]", fillcolor="#399de5eb"] ;
295 -> 296 ;
297 [label="gini = 0.13\nsamples = 2627\nvalue = [184, 2443]", fillcolor="#399de5ec"] ;
296 -> 297 ;
298 [label="gini = 0.457\nsamples = 17\nvalue = [6, 11]", fillcolor="#399de574"] ;
296 -> 298 ;
299 [label="gini = 0.0\nsamples = 2\nvalue = [2, 0]", fillcolor="#e58139ff"] ;
295 -> 299 ;
300 [label="highest_education_Lower Than A Level <= 0.5\ngini = 0.078\nsamples = 3983\nvalue = [162, 3821]", fillcolor="#399de5f4"] ;
294 -> 300 ;
301 [label="highest_education_No Formal quals <= 0.5\ngini = 0.059\nsamples = 2681\nvalue = [82, 2599]", fillcolor="#399de5f7"] ;
300 -> 301 ;
302 [label="gini = 0.056\nsamples = 2656\nvalue = [77, 2579]", fillcolor="#399de5f7"] ;
301 -> 302 ;
303 [label="gini = 0.32\nsamples = 25\nvalue = [5, 20]", fillcolor="#399de5bf"] ;
301 -> 303 ;
304 [label="oucontent_clicks_by_days_change <= 305.5\ngini = 0.115\nsamples = 1302\nvalue = [80, 1222]", fillcolor="#399de5ee"] ;
300 -> 304 ;
305 [label="gini = 0.113\nsamples = 1299\nvalue = [78, 1221]", fillcolor="#399de5ef"] ;
304 -> 305 ;
306 [label="gini = 0.444\nsamples = 3\nvalue = [2, 1]", fillcolor="#e581397f"] ;
304 -> 306 ;
307 [label="dualpane_clicks_by_days_change <= -23.0\ngini = 0.055\nsamples = 8622\nvalue = [244, 8378]", fillcolor="#399de5f8"] ;
277 -> 307 ;
308 [label="gini = 0.0\nsamples = 2\nvalue = [2, 0]", fillcolor="#e58139ff"] ;
307 -> 308 ;
309 [label="date <= 84.5\ngini = 0.055\nsamples = 8620\nvalue = [242, 8378]", fillcolor="#399de5f8"] ;
307 -> 309 ;
310 [label="url_clicks_by_days_change <= -43.5\ngini = 0.034\nsamples = 4632\nvalue = [81, 4551]", fillcolor="#399de5fa"] ;
309 -> 310 ;
311 [label="gini = 0.0\nsamples = 1\nvalue = [1, 0]", fillcolor="#e58139ff"] ;
310 -> 311 ;
312 [label="subpage_clicks_by_days <= 156.5\ngini = 0.034\nsamples = 4631\nvalue = [80, 4551]", fillcolor="#399de5fb"] ;
310 -> 312 ;
313 [label="gini = 0.033\nsamples = 4626\nvalue = [78, 4548]", fillcolor="#399de5fb"] ;
312 -> 313 ;
314 [label="gini = 0.48\nsamples = 5\nvalue = [2, 3]", fillcolor="#399de555"] ;
312 -> 314 ;
315 [label="weight <= 16.25\ngini = 0.077\nsamples = 3988\nvalue = [161, 3827]", fillcolor="#399de5f4"] ;
309 -> 315 ;
316 [label="subpage_clicks_by_days_change <= -16.0\ngini = 0.2\nsamples = 222\nvalue = [25, 197]", fillcolor="#399de5df"] ;
315 -> 316 ;
317 [label="gini = 0.0\nsamples = 3\nvalue = [3, 0]", fillcolor="#e58139ff"] ;
316 -> 317 ;
318 [label="gini = 0.181\nsamples = 219\nvalue = [22, 197]", fillcolor="#399de5e3"] ;
316 -> 318 ;
319 [label="subpage_clicks_by_days_change <= -84.5\ngini = 0.07\nsamples = 3766\nvalue = [136, 3630]", fillcolor="#399de5f5"] ;
315 -> 319 ;
320 [label="gini = 0.0\nsamples = 1\nvalue = [1, 0]", fillcolor="#e58139ff"] ;
319 -> 320 ;
321 [label="gini = 0.069\nsamples = 3765\nvalue = [135, 3630]", fillcolor="#399de5f6"] ;
319 -> 321 ;
322 [label="date <= 19.5\ngini = 0.045\nsamples = 83020\nvalue = [1892, 81128]", fillcolor="#399de5f9"] ;
0 -> 322 [labeldistance=2.5, labelangle=-45, headlabel="False"] ;
323 [label="weight <= 1.0\ngini = 0.177\nsamples = 6173\nvalue = [606, 5567]", fillcolor="#399de5e3"] ;
322 -> 323 ;
324 [label="region_Ireland <= 0.5\ngini = 0.488\nsamples = 1349\nvalue = [571, 778]", fillcolor="#399de544"] ;
323 -> 324 ;
325 [label="region_South Region <= 0.5\ngini = 0.495\nsamples = 1244\nvalue = [559, 685]", fillcolor="#399de52f"] ;
324 -> 325 ;
326 [label="region_North Region <= 0.5\ngini = 0.491\nsamples = 1134\nvalue = [489, 645]", fillcolor="#399de53e"] ;
325 -> 326 ;
327 [label="resource_clicks_by_days <= 42.5\ngini = 0.487\nsamples = 1091\nvalue = [458, 633]", fillcolor="#399de546"] ;
326 -> 327 ;
328 [label="resource_clicks_by_days <= 22.5\ngini = 0.488\nsamples = 1083\nvalue = [458, 625]", fillcolor="#399de544"] ;
327 -> 328 ;
329 [label="url_clicks_by_days_change <= 1.5\ngini = 0.487\nsamples = 1073\nvalue = [449, 624]", fillcolor="#399de548"] ;
328 -> 329 ;
330 [label="gini = 0.491\nsamples = 971\nvalue = [419, 552]", fillcolor="#399de53d"] ;
329 -> 330 ;
331 [label="gini = 0.415\nsamples = 102\nvalue = [30, 72]", fillcolor="#399de595"] ;
329 -> 331 ;
332 [label="imd_band_0-10% <= 0.5\ngini = 0.18\nsamples = 10\nvalue = [9, 1]", fillcolor="#e58139e3"] ;
328 -> 332 ;
333 [label="gini = 0.0\nsamples = 9\nvalue = [9, 0]", fillcolor="#e58139ff"] ;
332 -> 333 ;
334 [label="gini = 0.0\nsamples = 1\nvalue = [0, 1]", fillcolor="#399de5ff"] ;
332 -> 334 ;
335 [label="gini = 0.0\nsamples = 8\nvalue = [0, 8]", fillcolor="#399de5ff"] ;
327 -> 335 ;
336 [label="forumng_clicks_by_days_change <= 34.0\ngini = 0.402\nsamples = 43\nvalue = [31, 12]", fillcolor="#e581399c"] ;
326 -> 336 ;
337 [label="subpage_clicks_by_days <= 6.5\ngini = 0.361\nsamples = 38\nvalue = [29, 9]", fillcolor="#e58139b0"] ;
336 -> 337 ;
338 [label="url_clicks_by_days_change <= 0.5\ngini = 0.444\nsamples = 27\nvalue = [18, 9]", fillcolor="#e581397f"] ;
337 -> 338 ;
339 [label="gini = 0.403\nsamples = 25\nvalue = [18, 7]", fillcolor="#e581399c"] ;
338 -> 339 ;
340 [label="gini = 0.0\nsamples = 2\nvalue = [0, 2]", fillcolor="#399de5ff"] ;
338 -> 340 ;
341 [label="gini = 0.0\nsamples = 11\nvalue = [11, 0]", fillcolor="#e58139ff"] ;
337 -> 341 ;
342 [label="due_vs_submission_date <= 9.5\ngini = 0.48\nsamples = 5\nvalue = [2, 3]", fillcolor="#399de555"] ;
336 -> 342 ;
343 [label="oucontent_clicks_by_days <= 111.0\ngini = 0.444\nsamples = 3\nvalue = [2, 1]", fillcolor="#e581397f"] ;
342 -> 343 ;
344 [label="gini = 0.0\nsamples = 2\nvalue = [2, 0]", fillcolor="#e58139ff"] ;
343 -> 344 ;
345 [label="gini = 0.0\nsamples = 1\nvalue = [0, 1]", fillcolor="#399de5ff"] ;
343 -> 345 ;
346 [label="gini = 0.0\nsamples = 2\nvalue = [0, 2]", fillcolor="#399de5ff"] ;
342 -> 346 ;
347 [label="imd_band_10-20% <= 0.5\ngini = 0.463\nsamples = 110\nvalue = [70, 40]", fillcolor="#e581396d"] ;
325 -> 347 ;
348 [label="due_vs_submission_date <= 21.5\ngini = 0.449\nsamples = 103\nvalue = [68, 35]", fillcolor="#e581397c"] ;
347 -> 348 ;
349 [label="homepage_clicks_by_days_change <= 19.5\ngini = 0.44\nsamples = 101\nvalue = [68, 33]", fillcolor="#e5813983"] ;
348 -> 349 ;
350 [label="forumng_clicks_by_days <= 13.5\ngini = 0.474\nsamples = 70\nvalue = [43, 27]", fillcolor="#e581395f"] ;
349 -> 350 ;
351 [label="gini = 0.444\nsamples = 63\nvalue = [42, 21]", fillcolor="#e581397f"] ;
350 -> 351 ;
352 [label="gini = 0.245\nsamples = 7\nvalue = [1, 6]", fillcolor="#399de5d4"] ;
350 -> 352 ;
353 [label="homepage_clicks_by_days_change <= 33.5\ngini = 0.312\nsamples = 31\nvalue = [25, 6]", fillcolor="#e58139c2"] ;
349 -> 353 ;
354 [label="gini = 0.1\nsamples = 19\nvalue = [18, 1]", fillcolor="#e58139f1"] ;
353 -> 354 ;
355 [label="gini = 0.486\nsamples = 12\nvalue = [7, 5]", fillcolor="#e5813949"] ;
353 -> 355 ;
356 [label="gini = 0.0\nsamples = 2\nvalue = [0, 2]", fillcolor="#399de5ff"] ;
348 -> 356 ;
357 [label="resource_clicks_by_days <= 4.5\ngini = 0.408\nsamples = 7\nvalue = [2, 5]", fillcolor="#399de599"] ;
347 -> 357 ;
358 [label="highest_education_A Level or Equivalent <= 0.5\ngini = 0.444\nsamples = 3\nvalue = [2, 1]", fillcolor="#e581397f"] ;
357 -> 358 ;
359 [label="gini = 0.0\nsamples = 1\nvalue = [0, 1]", fillcolor="#399de5ff"] ;
358 -> 359 ;
360 [label="gini = 0.0\nsamples = 2\nvalue = [2, 0]", fillcolor="#e58139ff"] ;
358 -> 360 ;
361 [label="gini = 0.0\nsamples = 4\nvalue = [0, 4]", fillcolor="#399de5ff"] ;
357 -> 361 ;
362 [label="imd_band_60-70% <= 0.5\ngini = 0.202\nsamples = 105\nvalue = [12, 93]", fillcolor="#399de5de"] ;
324 -> 362 ;
363 [label="due_vs_submission_date <= 14.5\ngini = 0.137\nsamples = 95\nvalue = [7, 88]", fillcolor="#399de5eb"] ;
362 -> 363 ;
364 [label="resource_clicks_by_days <= 10.5\ngini = 0.106\nsamples = 89\nvalue = [5, 84]", fillcolor="#399de5f0"] ;
363 -> 364 ;
365 [label="imd_band_50-60% <= 0.5\ngini = 0.074\nsamples = 78\nvalue = [3, 75]", fillcolor="#399de5f5"] ;
364 -> 365 ;
366 [label="imd_band_10-20% <= 0.5\ngini = 0.03\nsamples = 66\nvalue = [1, 65]", fillcolor="#399de5fb"] ;
365 -> 366 ;
367 [label="gini = 0.0\nsamples = 53\nvalue = [0, 53]", fillcolor="#399de5ff"] ;
366 -> 367 ;
368 [label="gini = 0.142\nsamples = 13\nvalue = [1, 12]", fillcolor="#399de5ea"] ;
366 -> 368 ;
369 [label="oucontent_clicks_by_days_change <= 69.0\ngini = 0.278\nsamples = 12\nvalue = [2, 10]", fillcolor="#399de5cc"] ;
365 -> 369 ;
370 [label="gini = 0.165\nsamples = 11\nvalue = [1, 10]", fillcolor="#399de5e6"] ;
369 -> 370 ;
371 [label="gini = 0.0\nsamples = 1\nvalue = [1, 0]", fillcolor="#e58139ff"] ;
369 -> 371 ;
372 [label="subpage_clicks_by_days_change <= 11.0\ngini = 0.298\nsamples = 11\nvalue = [2, 9]", fillcolor="#399de5c6"] ;
364 -> 372 ;
373 [label="gini = 0.0\nsamples = 2\nvalue = [2, 0]", fillcolor="#e58139ff"] ;
372 -> 373 ;
374 [label="gini = 0.0\nsamples = 9\nvalue = [0, 9]", fillcolor="#399de5ff"] ;
372 -> 374 ;
375 [label="homepage_clicks_by_days <= 3.5\ngini = 0.444\nsamples = 6\nvalue = [2, 4]", fillcolor="#399de57f"] ;
363 -> 375 ;
376 [label="studied_credits <= 90.0\ngini = 0.444\nsamples = 3\nvalue = [2, 1]", fillcolor="#e581397f"] ;
375 -> 376 ;
377 [label="gini = 0.0\nsamples = 2\nvalue = [2, 0]", fillcolor="#e58139ff"] ;
376 -> 377 ;
378 [label="gini = 0.0\nsamples = 1\nvalue = [0, 1]", fillcolor="#399de5ff"] ;
376 -> 378 ;
379 [label="gini = 0.0\nsamples = 3\nvalue = [0, 3]", fillcolor="#399de5ff"] ;
375 -> 379 ;
380 [label="due_vs_submission_date <= 1.5\ngini = 0.5\nsamples = 10\nvalue = [5, 5]", fillcolor="#e5813900"] ;
362 -> 380 ;
381 [label="gini = 0.0\nsamples = 2\nvalue = [0, 2]", fillcolor="#399de5ff"] ;
380 -> 381 ;
382 [label="homepage_clicks_by_days_change <= 7.5\ngini = 0.469\nsamples = 8\nvalue = [5, 3]", fillcolor="#e5813966"] ;
380 -> 382 ;
383 [label="gini = 0.0\nsamples = 3\nvalue = [3, 0]", fillcolor="#e58139ff"] ;
382 -> 383 ;
384 [label="oucontent_clicks_by_days <= 41.0\ngini = 0.48\nsamples = 5\nvalue = [2, 3]", fillcolor="#399de555"] ;
382 -> 384 ;
385 [label="gini = 0.0\nsamples = 3\nvalue = [0, 3]", fillcolor="#399de5ff"] ;
384 -> 385 ;
386 [label="gini = 0.0\nsamples = 2\nvalue = [2, 0]", fillcolor="#e58139ff"] ;
384 -> 386 ;
387 [label="studied_credits <= 45.0\ngini = 0.014\nsamples = 4824\nvalue = [35, 4789]", fillcolor="#399de5fd"] ;
323 -> 387 ;
388 [label="imd_band_10-20% <= 0.5\ngini = 0.291\nsamples = 17\nvalue = [3, 14]", fillcolor="#399de5c8"] ;
387 -> 388 ;
389 [label="imd_band_40-50% <= 0.5\ngini = 0.124\nsamples = 15\nvalue = [1, 14]", fillcolor="#399de5ed"] ;
388 -> 389 ;
390 [label="gini = 0.0\nsamples = 14\nvalue = [0, 14]", fillcolor="#399de5ff"] ;
389 -> 390 ;
391 [label="gini = 0.0\nsamples = 1\nvalue = [1, 0]", fillcolor="#e58139ff"] ;
389 -> 391 ;
392 [label="gini = 0.0\nsamples = 2\nvalue = [2, 0]", fillcolor="#e58139ff"] ;
388 -> 392 ;
393 [label="imd_band_0-10% <= 0.5\ngini = 0.013\nsamples = 4807\nvalue = [32, 4775]", fillcolor="#399de5fd"] ;
387 -> 393 ;
394 [label="sharedsubpage_clicks_by_days_change <= 0.5\ngini = 0.009\nsamples = 4354\nvalue = [20, 4334]", fillcolor="#399de5fe"] ;
393 -> 394 ;
395 [label="weight <= 3.5\ngini = 0.008\nsamples = 4323\nvalue = [18, 4305]", fillcolor="#399de5fe"] ;
394 -> 395 ;
396 [label="disability_N <= 0.5\ngini = 0.117\nsamples = 16\nvalue = [1, 15]", fillcolor="#399de5ee"] ;
395 -> 396 ;
397 [label="gini = 0.0\nsamples = 1\nvalue = [1, 0]", fillcolor="#e58139ff"] ;
396 -> 397 ;
398 [label="gini = 0.0\nsamples = 15\nvalue = [0, 15]", fillcolor="#399de5ff"] ;
396 -> 398 ;
399 [label="highest_education_Lower Than A Level <= 0.5\ngini = 0.008\nsamples = 4307\nvalue = [17, 4290]", fillcolor="#399de5fe"] ;
395 -> 399 ;
400 [label="studied_credits <= 232.5\ngini = 0.003\nsamples = 2620\nvalue = [4, 2616]", fillcolor="#399de5ff"] ;
399 -> 400 ;
401 [label="gini = 0.002\nsamples = 2595\nvalue = [3, 2592]", fillcolor="#399de5ff"] ;
400 -> 401 ;
402 [label="gini = 0.077\nsamples = 25\nvalue = [1, 24]", fillcolor="#399de5f4"] ;
400 -> 402 ;
403 [label="forumng_clicks_by_days_change <= 6.5\ngini = 0.015\nsamples = 1687\nvalue = [13, 1674]", fillcolor="#399de5fd"] ;
399 -> 403 ;
404 [label="gini = 0.041\nsamples = 333\nvalue = [7, 326]", fillcolor="#399de5fa"] ;
403 -> 404 ;
405 [label="gini = 0.009\nsamples = 1354\nvalue = [6, 1348]", fillcolor="#399de5fe"] ;
403 -> 405 ;
406 [label="oucollaborate_clicks_by_days <= 1.5\ngini = 0.121\nsamples = 31\nvalue = [2, 29]", fillcolor="#399de5ed"] ;
394 -> 406 ;
407 [label="region_Wales <= 0.5\ngini = 0.064\nsamples = 30\nvalue = [1, 29]", fillcolor="#399de5f6"] ;
406 -> 407 ;
408 [label="gini = 0.0\nsamples = 27\nvalue = [0, 27]", fillcolor="#399de5ff"] ;
407 -> 408 ;
409 [label="resource_clicks_by_days <= 9.0\ngini = 0.444\nsamples = 3\nvalue = [1, 2]", fillcolor="#399de57f"] ;
407 -> 409 ;
410 [label="gini = 0.0\nsamples = 2\nvalue = [0, 2]", fillcolor="#399de5ff"] ;
409 -> 410 ;
411 [label="gini = 0.0\nsamples = 1\nvalue = [1, 0]", fillcolor="#e58139ff"] ;
409 -> 411 ;
412 [label="gini = 0.0\nsamples = 1\nvalue = [1, 0]", fillcolor="#e58139ff"] ;
406 -> 412 ;
413 [label="ouelluminate_clicks_by_days_change <= 18.5\ngini = 0.052\nsamples = 453\nvalue = [12, 441]", fillcolor="#399de5f8"] ;
393 -> 413 ;
414 [label="subpage_clicks_by_days_change <= 68.5\ngini = 0.047\nsamples = 452\nvalue = [11, 441]", fillcolor="#399de5f9"] ;
413 -> 414 ;
415 [label="studied_credits <= 225.0\ngini = 0.04\nsamples = 436\nvalue = [9, 427]", fillcolor="#399de5fa"] ;
414 -> 415 ;
416 [label="homepage_clicks_by_days <= 6.5\ngini = 0.036\nsamples = 431\nvalue = [8, 423]", fillcolor="#399de5fa"] ;
415 -> 416 ;
417 [label="gini = 0.101\nsamples = 94\nvalue = [5, 89]", fillcolor="#399de5f1"] ;
416 -> 417 ;
418 [label="gini = 0.018\nsamples = 337\nvalue = [3, 334]", fillcolor="#399de5fd"] ;
416 -> 418 ;
419 [label="region_South West Region <= 0.5\ngini = 0.32\nsamples = 5\nvalue = [1, 4]", fillcolor="#399de5bf"] ;
415 -> 419 ;
420 [label="gini = 0.0\nsamples = 4\nvalue = [0, 4]", fillcolor="#399de5ff"] ;
419 -> 420 ;
421 [label="gini = 0.0\nsamples = 1\nvalue = [1, 0]", fillcolor="#e58139ff"] ;
419 -> 421 ;
422 [label="homepage_clicks_by_days <= 49.0\ngini = 0.219\nsamples = 16\nvalue = [2, 14]", fillcolor="#399de5db"] ;
414 -> 422 ;
423 [label="gini = 0.0\nsamples = 2\nvalue = [2, 0]", fillcolor="#e58139ff"] ;
422 -> 423 ;
424 [label="gini = 0.0\nsamples = 14\nvalue = [0, 14]", fillcolor="#399de5ff"] ;
422 -> 424 ;
425 [label="gini = 0.0\nsamples = 1\nvalue = [1, 0]", fillcolor="#e58139ff"] ;
413 -> 425 ;
426 [label="assessment_type_Exam <= 0.5\ngini = 0.033\nsamples = 76847\nvalue = [1286, 75561]", fillcolor="#399de5fb"] ;
322 -> 426 ;
427 [label="weight <= 13.75\ngini = 0.028\nsamples = 74971\nvalue = [1077, 73894]", fillcolor="#399de5fb"] ;
426 -> 427 ;
428 [label="date <= 183.5\ngini = 0.015\nsamples = 49052\nvalue = [382, 48670]", fillcolor="#399de5fd"] ;
427 -> 428 ;
429 [label="forumng_clicks_by_days <= 19.5\ngini = 0.029\nsamples = 16504\nvalue = [242, 16262]", fillcolor="#399de5fb"] ;
428 -> 429 ;
430 [label="date <= 53.5\ngini = 0.043\nsamples = 9134\nvalue = [199, 8935]", fillcolor="#399de5f9"] ;
429 -> 430 ;
431 [label="quiz_clicks_by_days <= 11.5\ngini = 0.054\nsamples = 4498\nvalue = [124, 4374]", fillcolor="#399de5f8"] ;
430 -> 431 ;
432 [label="forumng_clicks_by_days_change <= -23.5\ngini = 0.062\nsamples = 3742\nvalue = [120, 3622]", fillcolor="#399de5f7"] ;
431 -> 432 ;
433 [label="gini = 0.006\nsamples = 362\nvalue = [1, 361]", fillcolor="#399de5fe"] ;
432 -> 433 ;
434 [label="gini = 0.068\nsamples = 3380\nvalue = [119, 3261]", fillcolor="#399de5f6"] ;
432 -> 434 ;
435 [label="questionnaire_clicks_by_days <= 2.5\ngini = 0.011\nsamples = 756\nvalue = [4, 752]", fillcolor="#399de5fe"] ;
431 -> 435 ;
436 [label="gini = 0.003\nsamples = 676\nvalue = [1, 675]", fillcolor="#399de5ff"] ;
435 -> 436 ;
437 [label="gini = 0.072\nsamples = 80\nvalue = [3, 77]", fillcolor="#399de5f5"] ;
435 -> 437 ;
438 [label="due_vs_submission_date <= 62.5\ngini = 0.032\nsamples = 4636\nvalue = [75, 4561]", fillcolor="#399de5fb"] ;
430 -> 438 ;
439 [label="num_of_prev_attempts <= 3.5\ngini = 0.028\nsamples = 4425\nvalue = [63, 4362]", fillcolor="#399de5fb"] ;
438 -> 439 ;
440 [label="gini = 0.028\nsamples = 4422\nvalue = [62, 4360]", fillcolor="#399de5fb"] ;
439 -> 440 ;
441 [label="gini = 0.444\nsamples = 3\nvalue = [1, 2]", fillcolor="#399de57f"] ;
439 -> 441 ;
442 [label="weight <= 2.0\ngini = 0.107\nsamples = 211\nvalue = [12, 199]", fillcolor="#399de5f0"] ;
438 -> 442 ;
443 [label="gini = 0.017\nsamples = 117\nvalue = [1, 116]", fillcolor="#399de5fd"] ;
442 -> 443 ;
444 [label="gini = 0.207\nsamples = 94\nvalue = [11, 83]", fillcolor="#399de5dd"] ;
442 -> 444 ;
445 [label="homepage_clicks_by_days_change <= 417.5\ngini = 0.012\nsamples = 7370\nvalue = [43, 7327]", fillcolor="#399de5fe"] ;
429 -> 445 ;
446 [label="page_clicks_by_days_change <= 3.5\ngini = 0.011\nsamples = 7366\nvalue = [42, 7324]", fillcolor="#399de5fe"] ;
445 -> 446 ;
447 [label="htmlactivity_clicks_by_days_change <= -1.5\ngini = 0.011\nsamples = 7335\nvalue = [40, 7295]", fillcolor="#399de5fe"] ;
446 -> 447 ;
448 [label="gini = 0.111\nsamples = 34\nvalue = [2, 32]", fillcolor="#399de5ef"] ;
447 -> 448 ;
449 [label="gini = 0.01\nsamples = 7301\nvalue = [38, 7263]", fillcolor="#399de5fe"] ;
447 -> 449 ;
450 [label="subpage_clicks_by_days <= 29.0\ngini = 0.121\nsamples = 31\nvalue = [2, 29]", fillcolor="#399de5ed"] ;
446 -> 450 ;
451 [label="gini = 0.0\nsamples = 1\nvalue = [1, 0]", fillcolor="#e58139ff"] ;
450 -> 451 ;
452 [label="gini = 0.064\nsamples = 30\nvalue = [1, 29]", fillcolor="#399de5f6"] ;
450 -> 452 ;
453 [label="region_North Western Region <= 0.5\ngini = 0.375\nsamples = 4\nvalue = [1, 3]", fillcolor="#399de5aa"] ;
445 -> 453 ;
454 [label="gini = 0.0\nsamples = 3\nvalue = [0, 3]", fillcolor="#399de5ff"] ;
453 -> 454 ;
455 [label="gini = 0.0\nsamples = 1\nvalue = [1, 0]", fillcolor="#e58139ff"] ;
453 -> 455 ;
456 [label="studied_credits <= 52.5\ngini = 0.009\nsamples = 32548\nvalue = [140, 32408]", fillcolor="#399de5fe"] ;
428 -> 456 ;
457 [label="due_vs_submission_date <= 28.5\ngini = 0.022\nsamples = 7282\nvalue = [82, 7200]", fillcolor="#399de5fc"] ;
456 -> 457 ;
458 [label="homepage_clicks_by_days <= 0.5\ngini = 0.042\nsamples = 2768\nvalue = [60, 2708]", fillcolor="#399de5f9"] ;
457 -> 458 ;
459 [label="imd_band_0-10% <= 0.5\ngini = 0.117\nsamples = 161\nvalue = [10, 151]", fillcolor="#399de5ee"] ;
458 -> 459 ;
460 [label="gini = 0.085\nsamples = 135\nvalue = [6, 129]", fillcolor="#399de5f3"] ;
459 -> 460 ;
461 [label="gini = 0.26\nsamples = 26\nvalue = [4, 22]", fillcolor="#399de5d1"] ;
459 -> 461 ;
462 [label="num_of_prev_attempts <= 0.5\ngini = 0.038\nsamples = 2607\nvalue = [50, 2557]", fillcolor="#399de5fa"] ;
458 -> 462 ;
463 [label="gini = 0.036\nsamples = 2576\nvalue = [47, 2529]", fillcolor="#399de5fa"] ;
462 -> 463 ;
464 [label="gini = 0.175\nsamples = 31\nvalue = [3, 28]", fillcolor="#399de5e4"] ;
462 -> 464 ;
465 [label="quiz_clicks_by_days_change <= 74.5\ngini = 0.01\nsamples = 4514\nvalue = [22, 4492]", fillcolor="#399de5fe"] ;
457 -> 465 ;
466 [label="quiz_clicks_by_days <= 94.5\ngini = 0.009\nsamples = 4491\nvalue = [20, 4471]", fillcolor="#399de5fe"] ;
465 -> 466 ;
467 [label="gini = 0.008\nsamples = 4471\nvalue = [19, 4452]", fillcolor="#399de5fe"] ;
466 -> 467 ;
468 [label="gini = 0.095\nsamples = 20\nvalue = [1, 19]", fillcolor="#399de5f2"] ;
466 -> 468 ;
469 [label="quiz_clicks_by_days <= 75.5\ngini = 0.159\nsamples = 23\nvalue = [2, 21]", fillcolor="#399de5e7"] ;
465 -> 469 ;
470 [label="gini = 0.0\nsamples = 1\nvalue = [1, 0]", fillcolor="#e58139ff"] ;
469 -> 470 ;
471 [label="gini = 0.087\nsamples = 22\nvalue = [1, 21]", fillcolor="#399de5f3"] ;
469 -> 471 ;
472 [label="quiz_clicks_by_days <= 1784.5\ngini = 0.005\nsamples = 25266\nvalue = [58, 25208]", fillcolor="#399de5fe"] ;
456 -> 472 ;
473 [label="oucontent_clicks_by_days <= 56.5\ngini = 0.004\nsamples = 25241\nvalue = [56, 25185]", fillcolor="#399de5fe"] ;
472 -> 473 ;
474 [label="oucontent_clicks_by_days <= 54.5\ngini = 0.008\nsamples = 8936\nvalue = [37, 8899]", fillcolor="#399de5fe"] ;
473 -> 474 ;
475 [label="gini = 0.007\nsamples = 8745\nvalue = [31, 8714]", fillcolor="#399de5fe"] ;
474 -> 475 ;
476 [label="gini = 0.061\nsamples = 191\nvalue = [6, 185]", fillcolor="#399de5f7"] ;
474 -> 476 ;
477 [label="homepage_clicks_by_days <= 3.5\ngini = 0.002\nsamples = 16305\nvalue = [19, 16286]", fillcolor="#399de5ff"] ;
473 -> 477 ;
478 [label="gini = 0.056\nsamples = 69\nvalue = [2, 67]", fillcolor="#399de5f7"] ;
477 -> 478 ;
479 [label="gini = 0.002\nsamples = 16236\nvalue = [17, 16219]", fillcolor="#399de5ff"] ;
477 -> 479 ;
480 [label="due_vs_submission_date <= 12.5\ngini = 0.147\nsamples = 25\nvalue = [2, 23]", fillcolor="#399de5e9"] ;
472 -> 480 ;
481 [label="due_vs_submission_date <= 1.5\ngini = 0.48\nsamples = 5\nvalue = [2, 3]", fillcolor="#399de555"] ;
480 -> 481 ;
482 [label="gini = 0.0\nsamples = 1\nvalue = [0, 1]", fillcolor="#399de5ff"] ;
481 -> 482 ;
483 [label="gini = 0.5\nsamples = 4\nvalue = [2, 2]", fillcolor="#e5813900"] ;
481 -> 483 ;
484 [label="gini = 0.0\nsamples = 20\nvalue = [0, 20]", fillcolor="#399de5ff"] ;
480 -> 484 ;
485 [label="homepage_clicks_by_days <= 11.5\ngini = 0.052\nsamples = 25919\nvalue = [695, 25224]", fillcolor="#399de5f8"] ;
427 -> 485 ;
486 [label="weight <= 19.0\ngini = 0.091\nsamples = 9069\nvalue = [432, 8637]", fillcolor="#399de5f2"] ;
485 -> 486 ;
487 [label="weight <= 15.5\ngini = 0.054\nsamples = 4318\nvalue = [120, 4198]", fillcolor="#399de5f8"] ;
486 -> 487 ;
488 [label="forumng_clicks_by_days <= 1.0\ngini = 0.291\nsamples = 153\nvalue = [27, 126]", fillcolor="#399de5c8"] ;
487 -> 488 ;
489 [label="subpage_clicks_by_days_change <= -27.0\ngini = 0.372\nsamples = 81\nvalue = [20, 61]", fillcolor="#399de5ab"] ;
488 -> 489 ;
490 [label="gini = 0.0\nsamples = 3\nvalue = [3, 0]", fillcolor="#e58139ff"] ;
489 -> 490 ;
491 [label="gini = 0.341\nsamples = 78\nvalue = [17, 61]", fillcolor="#399de5b8"] ;
489 -> 491 ;
492 [label="region_Wales <= 0.5\ngini = 0.176\nsamples = 72\nvalue = [7, 65]", fillcolor="#399de5e4"] ;
488 -> 492 ;
493 [label="gini = 0.134\nsamples = 69\nvalue = [5, 64]", fillcolor="#399de5eb"] ;
492 -> 493 ;
494 [label="gini = 0.444\nsamples = 3\nvalue = [2, 1]", fillcolor="#e581397f"] ;
492 -> 494 ;
495 [label="quiz_clicks_by_days <= 40.5\ngini = 0.044\nsamples = 4165\nvalue = [93, 4072]", fillcolor="#399de5f9"] ;
487 -> 495 ;
496 [label="forumng_clicks_by_days <= 3.5\ngini = 0.043\nsamples = 4161\nvalue = [91, 4070]", fillcolor="#399de5f9"] ;
495 -> 496 ;
497 [label="gini = 0.063\nsamples = 2422\nvalue = [79, 2343]", fillcolor="#399de5f6"] ;
496 -> 497 ;
498 [label="gini = 0.014\nsamples = 1739\nvalue = [12, 1727]", fillcolor="#399de5fd"] ;
496 -> 498 ;
499 [label="oucontent_clicks_by_days_change <= 3.5\ngini = 0.5\nsamples = 4\nvalue = [2, 2]", fillcolor="#e5813900"] ;
495 -> 499 ;
500 [label="gini = 0.0\nsamples = 2\nvalue = [2, 0]", fillcolor="#e58139ff"] ;
499 -> 500 ;
501 [label="gini = 0.0\nsamples = 2\nvalue = [0, 2]", fillcolor="#399de5ff"] ;
499 -> 501 ;
502 [label="weight <= 26.5\ngini = 0.123\nsamples = 4751\nvalue = [312, 4439]", fillcolor="#399de5ed"] ;
486 -> 502 ;
503 [label="date <= 113.5\ngini = 0.144\nsamples = 3563\nvalue = [278, 3285]", fillcolor="#399de5e9"] ;
502 -> 503 ;
504 [label="externalquiz_clicks_by_days <= 2.5\ngini = 0.082\nsamples = 1372\nvalue = [59, 1313]", fillcolor="#399de5f4"] ;
503 -> 504 ;
505 [label="gini = 0.081\nsamples = 1371\nvalue = [58, 1313]", fillcolor="#399de5f4"] ;
504 -> 505 ;
506 [label="gini = 0.0\nsamples = 1\nvalue = [1, 0]", fillcolor="#e58139ff"] ;
504 -> 506 ;
507 [label="weight <= 21.0\ngini = 0.18\nsamples = 2191\nvalue = [219, 1972]", fillcolor="#399de5e3"] ;
503 -> 507 ;
508 [label="gini = 0.248\nsamples = 779\nvalue = [113, 666]", fillcolor="#399de5d4"] ;
507 -> 508 ;
509 [label="gini = 0.139\nsamples = 1412\nvalue = [106, 1306]", fillcolor="#399de5ea"] ;
507 -> 509 ;
510 [label="num_of_prev_attempts <= 3.0\ngini = 0.056\nsamples = 1188\nvalue = [34, 1154]", fillcolor="#399de5f7"] ;
502 -> 510 ;
511 [label="url_clicks_by_days_change <= -9.5\ngini = 0.054\nsamples = 1187\nvalue = [33, 1154]", fillcolor="#399de5f8"] ;
510 -> 511 ;
512 [label="gini = 0.408\nsamples = 7\nvalue = [2, 5]", fillcolor="#399de599"] ;
511 -> 512 ;
513 [label="gini = 0.051\nsamples = 1180\nvalue = [31, 1149]", fillcolor="#399de5f8"] ;
511 -> 513 ;
514 [label="gini = 0.0\nsamples = 1\nvalue = [1, 0]", fillcolor="#e58139ff"] ;
510 -> 514 ;
515 [label="weight <= 15.5\ngini = 0.031\nsamples = 16850\nvalue = [263, 16587]", fillcolor="#399de5fb"] ;
485 -> 515 ;
516 [label="forumng_clicks_by_days <= 14.5\ngini = 0.148\nsamples = 586\nvalue = [47, 539]", fillcolor="#399de5e9"] ;
515 -> 516 ;
517 [label="ouelluminate_clicks_by_days_change <= -9.0\ngini = 0.243\nsamples = 219\nvalue = [31, 188]", fillcolor="#399de5d5"] ;
516 -> 517 ;
518 [label="gini = 0.0\nsamples = 2\nvalue = [2, 0]", fillcolor="#e58139ff"] ;
517 -> 518 ;
519 [label="url_clicks_by_days_change <= -0.5\ngini = 0.232\nsamples = 217\nvalue = [29, 188]", fillcolor="#399de5d8"] ;
517 -> 519 ;
520 [label="gini = 0.03\nsamples = 65\nvalue = [1, 64]", fillcolor="#399de5fb"] ;
519 -> 520 ;
521 [label="gini = 0.301\nsamples = 152\nvalue = [28, 124]", fillcolor="#399de5c5"] ;
519 -> 521 ;
522 [label="homepage_clicks_by_days <= 239.0\ngini = 0.083\nsamples = 367\nvalue = [16, 351]", fillcolor="#399de5f3"] ;
516 -> 522 ;
523 [label="oucontent_clicks_by_days_change <= 57.5\ngini = 0.079\nsamples = 366\nvalue = [15, 351]", fillcolor="#399de5f4"] ;
522 -> 523 ;
524 [label="gini = 0.074\nsamples = 364\nvalue = [14, 350]", fillcolor="#399de5f5"] ;
523 -> 524 ;
525 [label="gini = 0.5\nsamples = 2\nvalue = [1, 1]", fillcolor="#e5813900"] ;
523 -> 525 ;
526 [label="gini = 0.0\nsamples = 1\nvalue = [1, 0]", fillcolor="#e58139ff"] ;
522 -> 526 ;
527 [label="quiz_clicks_by_days_change <= -1914.0\ngini = 0.026\nsamples = 16264\nvalue = [216, 16048]", fillcolor="#399de5fc"] ;
515 -> 527 ;
528 [label="gini = 0.0\nsamples = 1\nvalue = [1, 0]", fillcolor="#e58139ff"] ;
527 -> 528 ;
529 [label="homepage_clicks_by_days <= 19.5\ngini = 0.026\nsamples = 16263\nvalue = [215, 16048]", fillcolor="#399de5fc"] ;
527 -> 529 ;
530 [label="date <= 141.0\ngini = 0.042\nsamples = 5419\nvalue = [115, 5304]", fillcolor="#399de5f9"] ;
529 -> 530 ;
531 [label="gini = 0.026\nsamples = 3277\nvalue = [44, 3233]", fillcolor="#399de5fc"] ;
530 -> 531 ;
532 [label="gini = 0.064\nsamples = 2142\nvalue = [71, 2071]", fillcolor="#399de5f6"] ;
530 -> 532 ;
533 [label="dualpane_clicks_by_days <= 13.0\ngini = 0.018\nsamples = 10844\nvalue = [100, 10744]", fillcolor="#399de5fd"] ;
529 -> 533 ;
534 [label="gini = 0.018\nsamples = 10839\nvalue = [99, 10740]", fillcolor="#399de5fd"] ;
533 -> 534 ;
535 [label="gini = 0.32\nsamples = 5\nvalue = [1, 4]", fillcolor="#399de5bf"] ;
533 -> 535 ;
536 [label="date <= 240.5\ngini = 0.198\nsamples = 1876\nvalue = [209, 1667]", fillcolor="#399de5df"] ;
426 -> 536 ;
537 [label="ouelluminate_clicks_by_days_change <= 1.5\ngini = 0.278\nsamples = 533\nvalue = [89, 444]", fillcolor="#399de5cc"] ;
536 -> 537 ;
538 [label="highest_education_HE Qualification <= 0.5\ngini = 0.274\nsamples = 531\nvalue = [87, 444]", fillcolor="#399de5cd"] ;
537 -> 538 ;
539 [label="url_clicks_by_days_change <= -3.5\ngini = 0.305\nsamples = 410\nvalue = [77, 333]", fillcolor="#399de5c4"] ;
538 -> 539 ;
540 [label="subpage_clicks_by_days_change <= -60.5\ngini = 0.169\nsamples = 75\nvalue = [7, 68]", fillcolor="#399de5e5"] ;
539 -> 540 ;
541 [label="resource_clicks_by_days_change <= -13.0\ngini = 0.48\nsamples = 10\nvalue = [4, 6]", fillcolor="#399de555"] ;
540 -> 541 ;
542 [label="gini = 0.0\nsamples = 4\nvalue = [0, 4]", fillcolor="#399de5ff"] ;
541 -> 542 ;
543 [label="gini = 0.444\nsamples = 6\nvalue = [4, 2]", fillcolor="#e581397f"] ;
541 -> 543 ;
544 [label="region_Wales <= 0.5\ngini = 0.088\nsamples = 65\nvalue = [3, 62]", fillcolor="#399de5f3"] ;
540 -> 544 ;
545 [label="gini = 0.033\nsamples = 60\nvalue = [1, 59]", fillcolor="#399de5fb"] ;
544 -> 545 ;
546 [label="gini = 0.48\nsamples = 5\nvalue = [2, 3]", fillcolor="#399de555"] ;
544 -> 546 ;
547 [label="forumng_clicks_by_days_change <= 55.5\ngini = 0.331\nsamples = 335\nvalue = [70, 265]", fillcolor="#399de5bc"] ;
539 -> 547 ;
548 [label="highest_education_Lower Than A Level <= 0.5\ngini = 0.325\nsamples = 333\nvalue = [68, 265]", fillcolor="#399de5be"] ;
547 -> 548 ;
549 [label="gini = 0.276\nsamples = 218\nvalue = [36, 182]", fillcolor="#399de5cd"] ;
548 -> 549 ;
550 [label="gini = 0.402\nsamples = 115\nvalue = [32, 83]", fillcolor="#399de59d"] ;
548 -> 550 ;
551 [label="gini = 0.0\nsamples = 2\nvalue = [2, 0]", fillcolor="#e58139ff"] ;
547 -> 551 ;
552 [label="externalquiz_clicks_by_days_change <= -8.5\ngini = 0.152\nsamples = 121\nvalue = [10, 111]", fillcolor="#399de5e8"] ;
538 -> 552 ;
553 [label="homepage_clicks_by_days_change <= -7.0\ngini = 0.444\nsamples = 3\nvalue = [2, 1]", fillcolor="#e581397f"] ;
552 -> 553 ;
554 [label="gini = 0.0\nsamples = 2\nvalue = [2, 0]", fillcolor="#e58139ff"] ;
553 -> 554 ;
555 [label="gini = 0.0\nsamples = 1\nvalue = [0, 1]", fillcolor="#399de5ff"] ;
553 -> 555 ;
556 [label="page_clicks_by_days_change <= -0.5\ngini = 0.126\nsamples = 118\nvalue = [8, 110]", fillcolor="#399de5ec"] ;
552 -> 556 ;
557 [label="gini = 0.0\nsamples = 1\nvalue = [1, 0]", fillcolor="#e58139ff"] ;
556 -> 557 ;
558 [label="region_South East Region <= 0.5\ngini = 0.112\nsamples = 117\nvalue = [7, 110]", fillcolor="#399de5ef"] ;
556 -> 558 ;
559 [label="gini = 0.086\nsamples = 111\nvalue = [5, 106]", fillcolor="#399de5f3"] ;
558 -> 559 ;
560 [label="gini = 0.444\nsamples = 6\nvalue = [2, 4]", fillcolor="#399de57f"] ;
558 -> 560 ;
561 [label="gini = 0.0\nsamples = 2\nvalue = [2, 0]", fillcolor="#e58139ff"] ;
537 -> 561 ;
562 [label="resource_clicks_by_days_change <= -5.5\ngini = 0.163\nsamples = 1343\nvalue = [120, 1223]", fillcolor="#399de5e6"] ;
536 -> 562 ;
563 [label="resource_clicks_by_days_change <= -49.0\ngini = 0.073\nsamples = 265\nvalue = [10, 255]", fillcolor="#399de5f5"] ;
562 -> 563 ;
564 [label="resource_clicks_by_days <= 2.5\ngini = 0.5\nsamples = 2\nvalue = [1, 1]", fillcolor="#e5813900"] ;
563 -> 564 ;
565 [label="gini = 0.0\nsamples = 1\nvalue = [1, 0]", fillcolor="#e58139ff"] ;
564 -> 565 ;
566 [label="gini = 0.0\nsamples = 1\nvalue = [0, 1]", fillcolor="#399de5ff"] ;
564 -> 566 ;
567 [label="forumng_clicks_by_days_change <= 19.5\ngini = 0.066\nsamples = 263\nvalue = [9, 254]", fillcolor="#399de5f6"] ;
563 -> 567 ;
568 [label="region_South East Region <= 0.5\ngini = 0.06\nsamples = 258\nvalue = [8, 250]", fillcolor="#399de5f7"] ;
567 -> 568 ;
569 [label="region_Scotland <= 0.5\ngini = 0.048\nsamples = 242\nvalue = [6, 236]", fillcolor="#399de5f9"] ;
568 -> 569 ;
570 [label="gini = 0.028\nsamples = 208\nvalue = [3, 205]", fillcolor="#399de5fb"] ;
569 -> 570 ;
571 [label="gini = 0.161\nsamples = 34\nvalue = [3, 31]", fillcolor="#399de5e6"] ;
569 -> 571 ;
572 [label="homepage_clicks_by_days_change <= -10.0\ngini = 0.219\nsamples = 16\nvalue = [2, 14]", fillcolor="#399de5db"] ;
568 -> 572 ;
573 [label="gini = 0.0\nsamples = 11\nvalue = [0, 11]", fillcolor="#399de5ff"] ;
572 -> 573 ;
574 [label="gini = 0.48\nsamples = 5\nvalue = [2, 3]", fillcolor="#399de555"] ;
572 -> 574 ;
575 [label="region_London Region <= 0.5\ngini = 0.32\nsamples = 5\nvalue = [1, 4]", fillcolor="#399de5bf"] ;
567 -> 575 ;
576 [label="gini = 0.0\nsamples = 4\nvalue = [0, 4]", fillcolor="#399de5ff"] ;
575 -> 576 ;
577 [label="gini = 0.0\nsamples = 1\nvalue = [1, 0]", fillcolor="#e58139ff"] ;
575 -> 577 ;
578 [label="externalquiz_clicks_by_days_change <= 12.5\ngini = 0.183\nsamples = 1078\nvalue = [110, 968]", fillcolor="#399de5e2"] ;
562 -> 578 ;
579 [label="due_vs_submission_date <= 24.5\ngini = 0.182\nsamples = 1077\nvalue = [109, 968]", fillcolor="#399de5e2"] ;
578 -> 579 ;
580 [label="homepage_clicks_by_days <= 4.5\ngini = 0.181\nsamples = 1076\nvalue = [108, 968]", fillcolor="#399de5e3"] ;
579 -> 580 ;
581 [label="due_vs_submission_date <= 4.5\ngini = 0.212\nsamples = 714\nvalue = [86, 628]", fillcolor="#399de5dc"] ;
580 -> 581 ;
582 [label="gini = 0.444\nsamples = 3\nvalue = [2, 1]", fillcolor="#e581397f"] ;
581 -> 582 ;
583 [label="gini = 0.208\nsamples = 711\nvalue = [84, 627]", fillcolor="#399de5dd"] ;
581 -> 583 ;
584 [label="region_North Western Region <= 0.5\ngini = 0.114\nsamples = 362\nvalue = [22, 340]", fillcolor="#399de5ef"] ;
580 -> 584 ;
585 [label="gini = 0.095\nsamples = 339\nvalue = [17, 322]", fillcolor="#399de5f2"] ;
584 -> 585 ;
586 [label="gini = 0.34\nsamples = 23\nvalue = [5, 18]", fillcolor="#399de5b8"] ;
584 -> 586 ;
587 [label="gini = 0.0\nsamples = 1\nvalue = [1, 0]", fillcolor="#e58139ff"] ;
579 -> 587 ;
588 [label="gini = 0.0\nsamples = 1\nvalue = [1, 0]", fillcolor="#e58139ff"] ;
578 -> 588 ;
}