digraph Tree {
node [shape=box, style="filled", color="black"] ;
0 [label="date <= 214.5\ngini = 0.083\nsamples = 153943\nvalue = [6670, 147273]", fillcolor="#399de5f3"] ;
1 [label="weight <= 0.5\ngini = 0.102\nsamples = 115848\nvalue = [6239, 109609]", fillcolor="#399de5f0"] ;
0 -> 1 [labeldistance=2.5, labelangle=45, headlabel="True"] ;
2 [label="date <= 40.0\ngini = 0.213\nsamples = 6684\nvalue = [811, 5873]", fillcolor="#399de5dc"] ;
1 -> 2 ;
3 [label="gini = 0.486\nsamples = 1611\nvalue = [672, 939]", fillcolor="#399de549"] ;
2 -> 3 ;
4 [label="date <= 120.5\ngini = 0.053\nsamples = 5073\nvalue = [139, 4934]", fillcolor="#399de5f8"] ;
2 -> 4 ;
5 [label="date <= 89.0\ngini = 0.031\nsamples = 2371\nvalue = [37, 2334]", fillcolor="#399de5fb"] ;
4 -> 5 ;
6 [label="gini = 0.026\nsamples = 1821\nvalue = [24, 1797]", fillcolor="#399de5fc"] ;
5 -> 6 ;
7 [label="gini = 0.046\nsamples = 550\nvalue = [13, 537]", fillcolor="#399de5f9"] ;
5 -> 7 ;
8 [label="date <= 169.5\ngini = 0.073\nsamples = 2702\nvalue = [102, 2600]", fillcolor="#399de5f5"] ;
4 -> 8 ;
9 [label="date <= 145.0\ngini = 0.062\nsamples = 1646\nvalue = [53, 1593]", fillcolor="#399de5f7"] ;
8 -> 9 ;
10 [label="gini = 0.058\nsamples = 1142\nvalue = [34, 1108]", fillcolor="#399de5f7"] ;
9 -> 10 ;
11 [label="gini = 0.073\nsamples = 504\nvalue = [19, 485]", fillcolor="#399de5f5"] ;
9 -> 11 ;
12 [label="gini = 0.088\nsamples = 1056\nvalue = [49, 1007]", fillcolor="#399de5f3"] ;
8 -> 12 ;
13 [label="weight <= 1.5\ngini = 0.095\nsamples = 109164\nvalue = [5428, 103736]", fillcolor="#399de5f2"] ;
1 -> 13 ;
14 [label="date <= 141.5\ngini = 0.014\nsamples = 14264\nvalue = [100, 14164]", fillcolor="#399de5fd"] ;
13 -> 14 ;
15 [label="date <= 68.0\ngini = 0.009\nsamples = 9150\nvalue = [40, 9110]", fillcolor="#399de5fe"] ;
14 -> 15 ;
16 [label="date <= 50.5\ngini = 0.004\nsamples = 3324\nvalue = [6, 3318]", fillcolor="#399de5ff"] ;
15 -> 16 ;
17 [label="gini = 0.004\nsamples = 934\nvalue = [2, 932]", fillcolor="#399de5fe"] ;
16 -> 17 ;
18 [label="gini = 0.003\nsamples = 2390\nvalue = [4, 2386]", fillcolor="#399de5ff"] ;
16 -> 18 ;
19 [label="date <= 92.5\ngini = 0.012\nsamples = 5826\nvalue = [34, 5792]", fillcolor="#399de5fe"] ;
15 -> 19 ;
20 [label="gini = 0.01\nsamples = 1825\nvalue = [9, 1816]", fillcolor="#399de5fe"] ;
19 -> 20 ;
21 [label="gini = 0.012\nsamples = 4001\nvalue = [25, 3976]", fillcolor="#399de5fd"] ;
19 -> 21 ;
22 [label="date <= 155.5\ngini = 0.023\nsamples = 5114\nvalue = [60, 5054]", fillcolor="#399de5fc"] ;
14 -> 22 ;
23 [label="gini = 0.032\nsamples = 735\nvalue = [12, 723]", fillcolor="#399de5fb"] ;
22 -> 23 ;
24 [label="date <= 201.0\ngini = 0.022\nsamples = 4379\nvalue = [48, 4331]", fillcolor="#399de5fc"] ;
22 -> 24 ;
25 [label="gini = 0.023\nsamples = 3358\nvalue = [39, 3319]", fillcolor="#399de5fc"] ;
24 -> 25 ;
26 [label="gini = 0.017\nsamples = 1021\nvalue = [9, 1012]", fillcolor="#399de5fd"] ;
24 -> 26 ;
27 [label="date <= 99.0\ngini = 0.106\nsamples = 94900\nvalue = [5328, 89572]", fillcolor="#399de5f0"] ;
13 -> 27 ;
28 [label="weight <= 2.5\ngini = 0.079\nsamples = 53254\nvalue = [2188, 51066]", fillcolor="#399de5f4"] ;
27 -> 28 ;
29 [label="date <= 20.5\ngini = 0.217\nsamples = 3836\nvalue = [475, 3361]", fillcolor="#399de5db"] ;
28 -> 29 ;
30 [label="gini = 0.226\nsamples = 2953\nvalue = [384, 2569]", fillcolor="#399de5d9"] ;
29 -> 30 ;
31 [label="gini = 0.185\nsamples = 883\nvalue = [91, 792]", fillcolor="#399de5e2"] ;
29 -> 31 ;
32 [label="date <= 24.5\ngini = 0.067\nsamples = 49418\nvalue = [1713, 47705]", fillcolor="#399de5f6"] ;
28 -> 32 ;
33 [label="gini = 0.027\nsamples = 11345\nvalue = [155, 11190]", fillcolor="#399de5fb"] ;
32 -> 33 ;
34 [label="gini = 0.078\nsamples = 38073\nvalue = [1558, 36515]", fillcolor="#399de5f4"] ;
32 -> 34 ;
35 [label="weight <= 26.5\ngini = 0.139\nsamples = 41646\nvalue = [3140, 38506]", fillcolor="#399de5ea"] ;
27 -> 35 ;
36 [label="date <= 194.5\ngini = 0.151\nsamples = 36110\nvalue = [2974, 33136]", fillcolor="#399de5e8"] ;
35 -> 36 ;
37 [label="gini = 0.135\nsamples = 28268\nvalue = [2060, 26208]", fillcolor="#399de5eb"] ;
36 -> 37 ;
38 [label="gini = 0.206\nsamples = 7842\nvalue = [914, 6928]", fillcolor="#399de5dd"] ;
36 -> 38 ;
39 [label="date <= 162.5\ngini = 0.058\nsamples = 5536\nvalue = [166, 5370]", fillcolor="#399de5f7"] ;
35 -> 39 ;
40 [label="gini = 0.063\nsamples = 3780\nvalue = [123, 3657]", fillcolor="#399de5f6"] ;
39 -> 40 ;
41 [label="gini = 0.048\nsamples = 1756\nvalue = [43, 1713]", fillcolor="#399de5f9"] ;
39 -> 41 ;
42 [label="weight <= 65.0\ngini = 0.022\nsamples = 38095\nvalue = [431, 37664]", fillcolor="#399de5fc"] ;
0 -> 42 [labeldistance=2.5, labelangle=-45, headlabel="False"] ;
43 [label="date <= 232.5\ngini = 0.012\nsamples = 36214\nvalue = [221, 35993]", fillcolor="#399de5fd"] ;
42 -> 43 ;
44 [label="date <= 228.0\ngini = 0.017\nsamples = 20207\nvalue = [169, 20038]", fillcolor="#399de5fd"] ;
43 -> 44 ;
45 [label="assessment_type_TMA <= 0.5\ngini = 0.012\nsamples = 14338\nvalue = [90, 14248]", fillcolor="#399de5fd"] ;
44 -> 45 ;
46 [label="date <= 224.5\ngini = 0.011\nsamples = 13813\nvalue = [77, 13736]", fillcolor="#399de5fe"] ;
45 -> 46 ;
47 [label="gini = 0.015\nsamples = 8793\nvalue = [65, 8728]", fillcolor="#399de5fd"] ;
46 -> 47 ;
48 [label="gini = 0.005\nsamples = 5020\nvalue = [12, 5008]", fillcolor="#399de5fe"] ;
46 -> 48 ;
49 [label="gini = 0.048\nsamples = 525\nvalue = [13, 512]", fillcolor="#399de5f9"] ;
45 -> 49 ;
50 [label="gini = 0.027\nsamples = 5869\nvalue = [79, 5790]", fillcolor="#399de5fc"] ;
44 -> 50 ;
51 [label="date <= 238.5\ngini = 0.006\nsamples = 16007\nvalue = [52, 15955]", fillcolor="#399de5fe"] ;
43 -> 51 ;
52 [label="gini = 0.007\nsamples = 7975\nvalue = [30, 7945]", fillcolor="#399de5fe"] ;
51 -> 52 ;
53 [label="gini = 0.005\nsamples = 8032\nvalue = [22, 8010]", fillcolor="#399de5fe"] ;
51 -> 53 ;
54 [label="date <= 240.5\ngini = 0.198\nsamples = 1881\nvalue = [210, 1671]", fillcolor="#399de5df"] ;
42 -> 54 ;
55 [label="gini = 0.28\nsamples = 535\nvalue = [90, 445]", fillcolor="#399de5cb"] ;
54 -> 55 ;
56 [label="date <= 251.0\ngini = 0.162\nsamples = 1346\nvalue = [120, 1226]", fillcolor="#399de5e6"] ;
54 -> 56 ;
57 [label="gini = 0.133\nsamples = 476\nvalue = [34, 442]", fillcolor="#399de5eb"] ;
56 -> 57 ;
58 [label="gini = 0.178\nsamples = 870\nvalue = [86, 784]", fillcolor="#399de5e3"] ;
56 -> 58 ;
}