digraph Tree {
node [shape=box, style="filled", color="black"] ;
0 [label="homepage_clicks_by_days <= 8.984\ngini = 0.5\nsamples = 5502\nvalue = [2751, 2751]", fillcolor="#e5813900"] ;
1 [label="url_clicks_by_days <= 0.999\ngini = 0.382\nsamples = 2579\nvalue = [1915, 664]", fillcolor="#e58139a7"] ;
0 -> 1 [labeldistance=2.5, labelangle=45, headlabel="True"] ;
2 [label="subpage_clicks_by_days <= 0.0\ngini = 0.337\nsamples = 2269\nvalue = [1783, 486]", fillcolor="#e58139b9"] ;
1 -> 2 ;
3 [label="homepage_clicks_by_days_change <= 0.541\ngini = 0.489\nsamples = 485\nvalue = [278, 207]", fillcolor="#e5813941"] ;
2 -> 3 ;
4 [label="oucontent_clicks_by_days <= 14.866\ngini = 0.474\nsamples = 452\nvalue = [278, 174]", fillcolor="#e581395f"] ;
3 -> 4 ;
5 [label="oucontent_clicks_by_days <= 0.088\ngini = 0.451\nsamples = 419\nvalue = [275, 144]", fillcolor="#e5813979"] ;
4 -> 5 ;
6 [label="homepage_clicks_by_days <= 2.7\ngini = 0.494\nsamples = 261\nvalue = [145, 116]", fillcolor="#e5813933"] ;
5 -> 6 ;
7 [label="gini = 0.482\nsamples = 242\nvalue = [144, 98]", fillcolor="#e5813951"] ;
6 -> 7 ;
8 [label="gini = 0.1\nsamples = 19\nvalue = [1, 18]", fillcolor="#399de5f1"] ;
6 -> 8 ;
9 [label="oucontent_clicks_by_days_change <= -0.035\ngini = 0.292\nsamples = 158\nvalue = [130, 28]", fillcolor="#e58139c8"] ;
5 -> 9 ;
10 [label="gini = 0.255\nsamples = 153\nvalue = [130, 23]", fillcolor="#e58139d2"] ;
9 -> 10 ;
11 [label="gini = 0.0\nsamples = 5\nvalue = [0, 5]", fillcolor="#399de5ff"] ;
9 -> 11 ;
12 [label="homepage_clicks_by_days_change <= -1.0\ngini = 0.165\nsamples = 33\nvalue = [3, 30]", fillcolor="#399de5e6"] ;
4 -> 12 ;
13 [label="gini = 0.0\nsamples = 27\nvalue = [0, 27]", fillcolor="#399de5ff"] ;
12 -> 13 ;
14 [label="forumng_clicks_by_days_change <= -1.727\ngini = 0.5\nsamples = 6\nvalue = [3, 3]", fillcolor="#e5813900"] ;
12 -> 14 ;
15 [label="gini = 0.0\nsamples = 3\nvalue = [3, 0]", fillcolor="#e58139ff"] ;
14 -> 15 ;
16 [label="gini = 0.0\nsamples = 3\nvalue = [0, 3]", fillcolor="#399de5ff"] ;
14 -> 16 ;
17 [label="gini = 0.0\nsamples = 33\nvalue = [0, 33]", fillcolor="#399de5ff"] ;
3 -> 17 ;
18 [label="subpage_clicks_by_days <= 0.999\ngini = 0.264\nsamples = 1784\nvalue = [1505, 279]", fillcolor="#e58139d0"] ;
2 -> 18 ;
19 [label="gini = 0.0\nsamples = 576\nvalue = [576, 0]", fillcolor="#e58139ff"] ;
18 -> 19 ;
20 [label="subpage_clicks_by_days_change <= 4.924\ngini = 0.355\nsamples = 1208\nvalue = [929, 279]", fillcolor="#e58139b2"] ;
18 -> 20 ;
21 [label="oucontent_clicks_by_days <= 49.5\ngini = 0.341\nsamples = 1183\nvalue = [925, 258]", fillcolor="#e58139b8"] ;
20 -> 21 ;
22 [label="subpage_clicks_by_days <= 1.004\ngini = 0.33\nsamples = 1167\nvalue = [924, 243]", fillcolor="#e58139bc"] ;
21 -> 22 ;
23 [label="gini = 0.457\nsamples = 295\nvalue = [191, 104]", fillcolor="#e5813974"] ;
22 -> 23 ;
24 [label="gini = 0.268\nsamples = 872\nvalue = [733, 139]", fillcolor="#e58139cf"] ;
22 -> 24 ;
25 [label="url_clicks_by_days <= 0.14\ngini = 0.117\nsamples = 16\nvalue = [1, 15]", fillcolor="#399de5ee"] ;
21 -> 25 ;
26 [label="gini = 0.0\nsamples = 15\nvalue = [0, 15]", fillcolor="#399de5ff"] ;
25 -> 26 ;
27 [label="gini = 0.0\nsamples = 1\nvalue = [1, 0]", fillcolor="#e58139ff"] ;
25 -> 27 ;
28 [label="homepage_clicks_by_days <= 8.193\ngini = 0.269\nsamples = 25\nvalue = [4, 21]", fillcolor="#399de5ce"] ;
20 -> 28 ;
29 [label="gini = 0.0\nsamples = 21\nvalue = [0, 21]", fillcolor="#399de5ff"] ;
28 -> 29 ;
30 [label="gini = 0.0\nsamples = 4\nvalue = [4, 0]", fillcolor="#e58139ff"] ;
28 -> 30 ;
31 [label="due_vs_submission_date <= -6.015\ngini = 0.489\nsamples = 310\nvalue = [132, 178]", fillcolor="#399de542"] ;
1 -> 31 ;
32 [label="url_clicks_by_days_change <= 1.004\ngini = 0.298\nsamples = 110\nvalue = [90, 20]", fillcolor="#e58139c6"] ;
31 -> 32 ;
33 [label="oucontent_clicks_by_days <= 6.629\ngini = 0.471\nsamples = 29\nvalue = [11, 18]", fillcolor="#399de563"] ;
32 -> 33 ;
34 [label="url_clicks_by_days_change <= -3.11\ngini = 0.391\nsamples = 15\nvalue = [11, 4]", fillcolor="#e58139a2"] ;
33 -> 34 ;
35 [label="gini = 0.0\nsamples = 3\nvalue = [0, 3]", fillcolor="#399de5ff"] ;
34 -> 35 ;
36 [label="url_clicks_by_days <= 1.011\ngini = 0.153\nsamples = 12\nvalue = [11, 1]", fillcolor="#e58139e8"] ;
34 -> 36 ;
37 [label="gini = 0.0\nsamples = 1\nvalue = [0, 1]", fillcolor="#399de5ff"] ;
36 -> 37 ;
38 [label="gini = 0.0\nsamples = 11\nvalue = [11, 0]", fillcolor="#e58139ff"] ;
36 -> 38 ;
39 [label="gini = 0.0\nsamples = 14\nvalue = [0, 14]", fillcolor="#399de5ff"] ;
33 -> 39 ;
40 [label="forumng_clicks_by_days <= 0.306\ngini = 0.048\nsamples = 81\nvalue = [79, 2]", fillcolor="#e58139f9"] ;
32 -> 40 ;
41 [label="homepage_clicks_by_days_change <= -1.098\ngini = 0.26\nsamples = 13\nvalue = [11, 2]", fillcolor="#e58139d1"] ;
40 -> 41 ;
42 [label="gini = 0.0\nsamples = 10\nvalue = [10, 0]", fillcolor="#e58139ff"] ;
41 -> 42 ;
43 [label="subpage_clicks_by_days_change <= 4.034\ngini = 0.444\nsamples = 3\nvalue = [1, 2]", fillcolor="#399de57f"] ;
41 -> 43 ;
44 [label="gini = 0.0\nsamples = 2\nvalue = [0, 2]", fillcolor="#399de5ff"] ;
43 -> 44 ;
45 [label="gini = 0.0\nsamples = 1\nvalue = [1, 0]", fillcolor="#e58139ff"] ;
43 -> 45 ;
46 [label="gini = 0.0\nsamples = 68\nvalue = [68, 0]", fillcolor="#e58139ff"] ;
40 -> 46 ;
47 [label="forumng_clicks_by_days_change <= 0.133\ngini = 0.332\nsamples = 200\nvalue = [42, 158]", fillcolor="#399de5bb"] ;
31 -> 47 ;
48 [label="homepage_clicks_by_days <= 8.116\ngini = 0.089\nsamples = 129\nvalue = [6, 123]", fillcolor="#399de5f3"] ;
47 -> 48 ;
49 [label="forumng_clicks_by_days_change <= -94.5\ngini = 0.061\nsamples = 127\nvalue = [4, 123]", fillcolor="#399de5f7"] ;
48 -> 49 ;
50 [label="gini = 0.0\nsamples = 1\nvalue = [1, 0]", fillcolor="#e58139ff"] ;
49 -> 50 ;
51 [label="due_vs_submission_date <= -3.453\ngini = 0.046\nsamples = 126\nvalue = [3, 123]", fillcolor="#399de5f9"] ;
49 -> 51 ;
52 [label="gini = 0.266\nsamples = 19\nvalue = [3, 16]", fillcolor="#399de5cf"] ;
51 -> 52 ;
53 [label="gini = 0.0\nsamples = 107\nvalue = [0, 107]", fillcolor="#399de5ff"] ;
51 -> 53 ;
54 [label="gini = 0.0\nsamples = 2\nvalue = [2, 0]", fillcolor="#e58139ff"] ;
48 -> 54 ;
55 [label="url_clicks_by_days <= 1.012\ngini = 0.5\nsamples = 71\nvalue = [36, 35]", fillcolor="#e5813907"] ;
47 -> 55 ;
56 [label="gini = 0.0\nsamples = 18\nvalue = [0, 18]", fillcolor="#399de5ff"] ;
55 -> 56 ;
57 [label="url_clicks_by_days <= 1.847\ngini = 0.436\nsamples = 53\nvalue = [36, 17]", fillcolor="#e5813987"] ;
55 -> 57 ;
58 [label="gini = 0.0\nsamples = 26\nvalue = [26, 0]", fillcolor="#e58139ff"] ;
57 -> 58 ;
59 [label="homepage_clicks_by_days <= 8.047\ngini = 0.466\nsamples = 27\nvalue = [10, 17]", fillcolor="#399de569"] ;
57 -> 59 ;
60 [label="gini = 0.308\nsamples = 21\nvalue = [4, 17]", fillcolor="#399de5c3"] ;
59 -> 60 ;
61 [label="gini = 0.0\nsamples = 6\nvalue = [6, 0]", fillcolor="#e58139ff"] ;
59 -> 61 ;
62 [label="due_vs_submission_date <= 0.979\ngini = 0.408\nsamples = 2923\nvalue = [836, 2087]", fillcolor="#399de599"] ;
0 -> 62 [labeldistance=2.5, labelangle=-45, headlabel="False"] ;
63 [label="due_vs_submission_date <= 0.0\ngini = 0.477\nsamples = 2025\nvalue = [794, 1231]", fillcolor="#399de55b"] ;
62 -> 63 ;
64 [label="due_vs_submission_date <= -0.009\ngini = 0.449\nsamples = 1866\nvalue = [635, 1231]", fillcolor="#399de57b"] ;
63 -> 64 ;
65 [label="url_clicks_by_days_change <= -0.98\ngini = 0.5\nsamples = 922\nvalue = [470, 452]", fillcolor="#e581390a"] ;
64 -> 65 ;
66 [label="glossary_clicks_by_days_change <= -0.139\ngini = 0.235\nsamples = 206\nvalue = [28, 178]", fillcolor="#399de5d7"] ;
65 -> 66 ;
67 [label="homepage_clicks_by_days_change <= -19.33\ngini = 0.34\nsamples = 23\nvalue = [18, 5]", fillcolor="#e58139b8"] ;
66 -> 67 ;
68 [label="gini = 0.0\nsamples = 5\nvalue = [0, 5]", fillcolor="#399de5ff"] ;
67 -> 68 ;
69 [label="gini = 0.0\nsamples = 18\nvalue = [18, 0]", fillcolor="#e58139ff"] ;
67 -> 69 ;
70 [label="oucontent_clicks_by_days_change <= 10.187\ngini = 0.103\nsamples = 183\nvalue = [10, 173]", fillcolor="#399de5f0"] ;
66 -> 70 ;
71 [label="gini = 0.014\nsamples = 144\nvalue = [1, 143]", fillcolor="#399de5fd"] ;
70 -> 71 ;
72 [label="gini = 0.355\nsamples = 39\nvalue = [9, 30]", fillcolor="#399de5b3"] ;
70 -> 72 ;
73 [label="homepage_clicks_by_days <= 50.975\ngini = 0.472\nsamples = 716\nvalue = [442, 274]", fillcolor="#e5813961"] ;
65 -> 73 ;
74 [label="subpage_clicks_by_days <= 6.99\ngini = 0.446\nsamples = 666\nvalue = [442, 224]", fillcolor="#e581397e"] ;
73 -> 74 ;
75 [label="gini = 0.352\nsamples = 395\nvalue = [305, 90]", fillcolor="#e58139b4"] ;
74 -> 75 ;
76 [label="gini = 0.5\nsamples = 271\nvalue = [137, 134]", fillcolor="#e5813906"] ;
74 -> 76 ;
77 [label="gini = 0.0\nsamples = 50\nvalue = [0, 50]", fillcolor="#399de5ff"] ;
73 -> 77 ;
78 [label="glossary_clicks_by_days <= 0.005\ngini = 0.288\nsamples = 944\nvalue = [165, 779]", fillcolor="#399de5c9"] ;
64 -> 78 ;
79 [label="oucontent_clicks_by_days <= 5.961\ngini = 0.245\nsamples = 889\nvalue = [127, 762]", fillcolor="#399de5d4"] ;
78 -> 79 ;
80 [label="resource_clicks_by_days <= 0.632\ngini = 0.464\nsamples = 60\nvalue = [38, 22]", fillcolor="#e581396b"] ;
79 -> 80 ;
81 [label="gini = 0.348\nsamples = 49\nvalue = [38, 11]", fillcolor="#e58139b5"] ;
80 -> 81 ;
82 [label="gini = 0.0\nsamples = 11\nvalue = [0, 11]", fillcolor="#399de5ff"] ;
80 -> 82 ;
83 [label="forumng_clicks_by_days <= 7.772\ngini = 0.192\nsamples = 829\nvalue = [89, 740]", fillcolor="#399de5e0"] ;
79 -> 83 ;
84 [label="gini = 0.334\nsamples = 302\nvalue = [64, 238]", fillcolor="#399de5ba"] ;
83 -> 84 ;
85 [label="gini = 0.09\nsamples = 527\nvalue = [25, 502]", fillcolor="#399de5f2"] ;
83 -> 85 ;
86 [label="glossary_clicks_by_days <= 0.981\ngini = 0.427\nsamples = 55\nvalue = [38, 17]", fillcolor="#e581398d"] ;
78 -> 86 ;
87 [label="gini = 0.0\nsamples = 37\nvalue = [37, 0]", fillcolor="#e58139ff"] ;
86 -> 87 ;
88 [label="homepage_clicks_by_days <= 17.5\ngini = 0.105\nsamples = 18\nvalue = [1, 17]", fillcolor="#399de5f0"] ;
86 -> 88 ;
89 [label="gini = 0.5\nsamples = 2\nvalue = [1, 1]", fillcolor="#e5813900"] ;
88 -> 89 ;
90 [label="gini = 0.0\nsamples = 16\nvalue = [0, 16]", fillcolor="#399de5ff"] ;
88 -> 90 ;
91 [label="gini = 0.0\nsamples = 159\nvalue = [159, 0]", fillcolor="#e58139ff"] ;
63 -> 91 ;
92 [label="subpage_clicks_by_days_change <= -43.052\ngini = 0.089\nsamples = 898\nvalue = [42, 856]", fillcolor="#399de5f2"] ;
62 -> 92 ;
93 [label="resource_clicks_by_days_change <= -1.16\ngini = 0.408\nsamples = 7\nvalue = [5, 2]", fillcolor="#e5813999"] ;
92 -> 93 ;
94 [label="gini = 0.0\nsamples = 5\nvalue = [5, 0]", fillcolor="#e58139ff"] ;
93 -> 94 ;
95 [label="gini = 0.0\nsamples = 2\nvalue = [0, 2]", fillcolor="#399de5ff"] ;
93 -> 95 ;
96 [label="oucontent_clicks_by_days <= 2.777\ngini = 0.08\nsamples = 891\nvalue = [37, 854]", fillcolor="#399de5f4"] ;
92 -> 96 ;
97 [label="forumng_clicks_by_days <= 6.127\ngini = 0.422\nsamples = 33\nvalue = [10, 23]", fillcolor="#399de590"] ;
96 -> 97 ;
98 [label="due_vs_submission_date <= 2.014\ngini = 0.355\nsamples = 13\nvalue = [10, 3]", fillcolor="#e58139b3"] ;
97 -> 98 ;
99 [label="gini = 0.0\nsamples = 3\nvalue = [0, 3]", fillcolor="#399de5ff"] ;
98 -> 99 ;
100 [label="gini = 0.0\nsamples = 10\nvalue = [10, 0]", fillcolor="#e58139ff"] ;
98 -> 100 ;
101 [label="gini = 0.0\nsamples = 20\nvalue = [0, 20]", fillcolor="#399de5ff"] ;
97 -> 101 ;
102 [label="date <= 36.5\ngini = 0.061\nsamples = 858\nvalue = [27, 831]", fillcolor="#399de5f7"] ;
96 -> 102 ;
103 [label="subpage_clicks_by_days_change <= 4.842\ngini = 0.158\nsamples = 243\nvalue = [21, 222]", fillcolor="#399de5e7"] ;
102 -> 103 ;
104 [label="url_clicks_by_days <= 0.232\ngini = 0.471\nsamples = 29\nvalue = [11, 18]", fillcolor="#399de563"] ;
103 -> 104 ;
105 [label="gini = 0.0\nsamples = 14\nvalue = [0, 14]", fillcolor="#399de5ff"] ;
104 -> 105 ;
106 [label="gini = 0.391\nsamples = 15\nvalue = [11, 4]", fillcolor="#e58139a2"] ;
104 -> 106 ;
107 [label="forumng_clicks_by_days_change <= 21.5\ngini = 0.089\nsamples = 214\nvalue = [10, 204]", fillcolor="#399de5f2"] ;
103 -> 107 ;
108 [label="gini = 0.224\nsamples = 78\nvalue = [10, 68]", fillcolor="#399de5da"] ;
107 -> 108 ;
109 [label="gini = 0.0\nsamples = 136\nvalue = [0, 136]", fillcolor="#399de5ff"] ;
107 -> 109 ;
110 [label="homepage_clicks_by_days <= 10.966\ngini = 0.019\nsamples = 615\nvalue = [6, 609]", fillcolor="#399de5fc"] ;
102 -> 110 ;
111 [label="homepage_clicks_by_days <= 10.334\ngini = 0.133\nsamples = 56\nvalue = [4, 52]", fillcolor="#399de5eb"] ;
110 -> 111 ;
112 [label="gini = 0.071\nsamples = 54\nvalue = [2, 52]", fillcolor="#399de5f5"] ;
111 -> 112 ;
113 [label="gini = 0.0\nsamples = 2\nvalue = [2, 0]", fillcolor="#e58139ff"] ;
111 -> 113 ;
114 [label="url_clicks_by_days <= 0.885\ngini = 0.007\nsamples = 559\nvalue = [2, 557]", fillcolor="#399de5fe"] ;
110 -> 114 ;
115 [label="gini = 0.027\nsamples = 145\nvalue = [2, 143]", fillcolor="#399de5fb"] ;
114 -> 115 ;
116 [label="gini = 0.0\nsamples = 414\nvalue = [0, 414]", fillcolor="#399de5ff"] ;
114 -> 116 ;
}