digraph Tree {
node [shape=box, style="filled", color="black"] ;
0 [label="homepage_clicks_by_days <= 8.984\ngini = 0.5\nsamples = 5502\nvalue = [2751, 2751]", fillcolor="#e5813900"] ;
1 [label="url_clicks_by_days <= 0.999\ngini = 0.382\nsamples = 2579\nvalue = [1915, 664]", fillcolor="#e58139a7"] ;
0 -> 1 [labeldistance=2.5, labelangle=45, headlabel="True"] ;
2 [label="subpage_clicks_by_days <= 0.0\ngini = 0.337\nsamples = 2269\nvalue = [1783, 486]", fillcolor="#e58139b9"] ;
1 -> 2 ;
3 [label="homepage_clicks_by_days_change <= 0.541\ngini = 0.489\nsamples = 485\nvalue = [278, 207]", fillcolor="#e5813941"] ;
2 -> 3 ;
4 [label="oucontent_clicks_by_days <= 14.866\ngini = 0.474\nsamples = 452\nvalue = [278, 174]", fillcolor="#e581395f"] ;
3 -> 4 ;
5 [label="oucontent_clicks_by_days <= 0.088\ngini = 0.451\nsamples = 419\nvalue = [275, 144]", fillcolor="#e5813979"] ;
4 -> 5 ;
6 [label="homepage_clicks_by_days <= 2.7\ngini = 0.494\nsamples = 261\nvalue = [145, 116]", fillcolor="#e5813933"] ;
5 -> 6 ;
7 [label="homepage_clicks_by_days_change <= -28.083\ngini = 0.482\nsamples = 242\nvalue = [144, 98]", fillcolor="#e5813951"] ;
6 -> 7 ;
8 [label="forumng_clicks_by_days_change <= -18.5\ngini = 0.067\nsamples = 29\nvalue = [28, 1]", fillcolor="#e58139f6"] ;
7 -> 8 ;
9 [label="gini = 0.0\nsamples = 28\nvalue = [28, 0]", fillcolor="#e58139ff"] ;
8 -> 9 ;
10 [label="gini = 0.0\nsamples = 1\nvalue = [0, 1]", fillcolor="#399de5ff"] ;
8 -> 10 ;
11 [label="homepage_clicks_by_days_change <= -11.5\ngini = 0.496\nsamples = 213\nvalue = [116, 97]", fillcolor="#e581392a"] ;
7 -> 11 ;
12 [label="oucontent_clicks_by_days_change <= -96.0\ngini = 0.1\nsamples = 19\nvalue = [1, 18]", fillcolor="#399de5f1"] ;
11 -> 12 ;
13 [label="gini = 0.0\nsamples = 1\nvalue = [1, 0]", fillcolor="#e58139ff"] ;
12 -> 13 ;
14 [label="gini = 0.0\nsamples = 18\nvalue = [0, 18]", fillcolor="#399de5ff"] ;
12 -> 14 ;
15 [label="resource_clicks_by_days_change <= -1.041\ngini = 0.483\nsamples = 194\nvalue = [115, 79]", fillcolor="#e5813950"] ;
11 -> 15 ;
16 [label="gini = 0.1\nsamples = 19\nvalue = [18, 1]", fillcolor="#e58139f1"] ;
15 -> 16 ;
17 [label="gini = 0.494\nsamples = 175\nvalue = [97, 78]", fillcolor="#e5813932"] ;
15 -> 17 ;
18 [label="homepage_clicks_by_days_change <= -0.5\ngini = 0.1\nsamples = 19\nvalue = [1, 18]", fillcolor="#399de5f1"] ;
6 -> 18 ;
19 [label="gini = 0.0\nsamples = 17\nvalue = [0, 17]", fillcolor="#399de5ff"] ;
18 -> 19 ;
20 [label="oucontent_clicks_by_days_change <= -19.5\ngini = 0.5\nsamples = 2\nvalue = [1, 1]", fillcolor="#e5813900"] ;
18 -> 20 ;
21 [label="gini = 0.0\nsamples = 1\nvalue = [0, 1]", fillcolor="#399de5ff"] ;
20 -> 21 ;
22 [label="gini = 0.0\nsamples = 1\nvalue = [1, 0]", fillcolor="#e58139ff"] ;
20 -> 22 ;
23 [label="oucontent_clicks_by_days_change <= -0.035\ngini = 0.292\nsamples = 158\nvalue = [130, 28]", fillcolor="#e58139c8"] ;
5 -> 23 ;
24 [label="subpage_clicks_by_days_change <= -0.018\ngini = 0.255\nsamples = 153\nvalue = [130, 23]", fillcolor="#e58139d2"] ;
23 -> 24 ;
25 [label="url_clicks_by_days_change <= -0.998\ngini = 0.231\nsamples = 150\nvalue = [130, 20]", fillcolor="#e58139d8"] ;
24 -> 25 ;
26 [label="due_vs_submission_date <= -16.007\ngini = 0.483\nsamples = 27\nvalue = [16, 11]", fillcolor="#e5813950"] ;
25 -> 26 ;
27 [label="gini = 0.124\nsamples = 15\nvalue = [14, 1]", fillcolor="#e58139ed"] ;
26 -> 27 ;
28 [label="gini = 0.278\nsamples = 12\nvalue = [2, 10]", fillcolor="#399de5cc"] ;
26 -> 28 ;
29 [label="oucontent_clicks_by_days_change <= -97.772\ngini = 0.136\nsamples = 123\nvalue = [114, 9]", fillcolor="#e58139eb"] ;
25 -> 29 ;
30 [label="gini = 0.444\nsamples = 3\nvalue = [1, 2]", fillcolor="#399de57f"] ;
29 -> 30 ;
31 [label="gini = 0.11\nsamples = 120\nvalue = [113, 7]", fillcolor="#e58139ef"] ;
29 -> 31 ;
32 [label="gini = 0.0\nsamples = 3\nvalue = [0, 3]", fillcolor="#399de5ff"] ;
24 -> 32 ;
33 [label="gini = 0.0\nsamples = 5\nvalue = [0, 5]", fillcolor="#399de5ff"] ;
23 -> 33 ;
34 [label="homepage_clicks_by_days_change <= -1.0\ngini = 0.165\nsamples = 33\nvalue = [3, 30]", fillcolor="#399de5e6"] ;
4 -> 34 ;
35 [label="gini = 0.0\nsamples = 27\nvalue = [0, 27]", fillcolor="#399de5ff"] ;
34 -> 35 ;
36 [label="oucontent_clicks_by_days <= 22.5\ngini = 0.5\nsamples = 6\nvalue = [3, 3]", fillcolor="#e5813900"] ;
34 -> 36 ;
37 [label="gini = 0.0\nsamples = 3\nvalue = [3, 0]", fillcolor="#e58139ff"] ;
36 -> 37 ;
38 [label="gini = 0.0\nsamples = 3\nvalue = [0, 3]", fillcolor="#399de5ff"] ;
36 -> 38 ;
39 [label="gini = 0.0\nsamples = 33\nvalue = [0, 33]", fillcolor="#399de5ff"] ;
3 -> 39 ;
40 [label="subpage_clicks_by_days <= 0.999\ngini = 0.264\nsamples = 1784\nvalue = [1505, 279]", fillcolor="#e58139d0"] ;
2 -> 40 ;
41 [label="gini = 0.0\nsamples = 576\nvalue = [576, 0]", fillcolor="#e58139ff"] ;
40 -> 41 ;
42 [label="subpage_clicks_by_days_change <= 4.924\ngini = 0.355\nsamples = 1208\nvalue = [929, 279]", fillcolor="#e58139b2"] ;
40 -> 42 ;
43 [label="oucontent_clicks_by_days <= 49.5\ngini = 0.341\nsamples = 1183\nvalue = [925, 258]", fillcolor="#e58139b8"] ;
42 -> 43 ;
44 [label="subpage_clicks_by_days <= 1.004\ngini = 0.33\nsamples = 1167\nvalue = [924, 243]", fillcolor="#e58139bc"] ;
43 -> 44 ;
45 [label="subpage_clicks_by_days_change <= -0.016\ngini = 0.457\nsamples = 295\nvalue = [191, 104]", fillcolor="#e5813974"] ;
44 -> 45 ;
46 [label="oucontent_clicks_by_days <= 7.817\ngini = 0.384\nsamples = 239\nvalue = [177, 62]", fillcolor="#e58139a6"] ;
45 -> 46 ;
47 [label="homepage_clicks_by_days_change <= -16.946\ngini = 0.323\nsamples = 217\nvalue = [173, 44]", fillcolor="#e58139be"] ;
46 -> 47 ;
48 [label="gini = 0.397\nsamples = 22\nvalue = [6, 16]", fillcolor="#399de59f"] ;
47 -> 48 ;
49 [label="gini = 0.246\nsamples = 195\nvalue = [167, 28]", fillcolor="#e58139d4"] ;
47 -> 49 ;
50 [label="forumng_clicks_by_days_change <= -76.034\ngini = 0.298\nsamples = 22\nvalue = [4, 18]", fillcolor="#399de5c6"] ;
46 -> 50 ;
51 [label="gini = 0.0\nsamples = 4\nvalue = [4, 0]", fillcolor="#e58139ff"] ;
50 -> 51 ;
52 [label="gini = 0.0\nsamples = 18\nvalue = [0, 18]", fillcolor="#399de5ff"] ;
50 -> 52 ;
53 [label="due_vs_submission_date <= -10.5\ngini = 0.375\nsamples = 56\nvalue = [14, 42]", fillcolor="#399de5aa"] ;
45 -> 53 ;
54 [label="oucontent_clicks_by_days_change <= -0.984\ngini = 0.346\nsamples = 18\nvalue = [14, 4]", fillcolor="#e58139b6"] ;
53 -> 54 ;
55 [label="gini = 0.0\nsamples = 2\nvalue = [0, 2]", fillcolor="#399de5ff"] ;
54 -> 55 ;
56 [label="gini = 0.219\nsamples = 16\nvalue = [14, 2]", fillcolor="#e58139db"] ;
54 -> 56 ;
57 [label="gini = 0.0\nsamples = 38\nvalue = [0, 38]", fillcolor="#399de5ff"] ;
53 -> 57 ;
58 [label="subpage_clicks_by_days <= 1.998\ngini = 0.268\nsamples = 872\nvalue = [733, 139]", fillcolor="#e58139cf"] ;
44 -> 58 ;
59 [label="gini = 0.0\nsamples = 255\nvalue = [255, 0]", fillcolor="#e58139ff"] ;
58 -> 59 ;
60 [label="subpage_clicks_by_days <= 2.0\ngini = 0.349\nsamples = 617\nvalue = [478, 139]", fillcolor="#e58139b5"] ;
58 -> 60 ;
61 [label="date <= 141.5\ngini = 0.497\nsamples = 119\nvalue = [55, 64]", fillcolor="#399de524"] ;
60 -> 61 ;
62 [label="gini = 0.459\nsamples = 84\nvalue = [54, 30]", fillcolor="#e5813971"] ;
61 -> 62 ;
63 [label="gini = 0.056\nsamples = 35\nvalue = [1, 34]", fillcolor="#399de5f8"] ;
61 -> 63 ;
64 [label="forumng_clicks_by_days_change <= -11.584\ngini = 0.256\nsamples = 498\nvalue = [423, 75]", fillcolor="#e58139d2"] ;
60 -> 64 ;
65 [label="gini = 0.0\nsamples = 9\nvalue = [0, 9]", fillcolor="#399de5ff"] ;
64 -> 65 ;
66 [label="gini = 0.234\nsamples = 489\nvalue = [423, 66]", fillcolor="#e58139d7"] ;
64 -> 66 ;
67 [label="homepage_clicks_by_days_change <= 6.57\ngini = 0.117\nsamples = 16\nvalue = [1, 15]", fillcolor="#399de5ee"] ;
43 -> 67 ;
68 [label="gini = 0.0\nsamples = 15\nvalue = [0, 15]", fillcolor="#399de5ff"] ;
67 -> 68 ;
69 [label="gini = 0.0\nsamples = 1\nvalue = [1, 0]", fillcolor="#e58139ff"] ;
67 -> 69 ;
70 [label="oucontent_clicks_by_days_change <= -2.532\ngini = 0.269\nsamples = 25\nvalue = [4, 21]", fillcolor="#399de5ce"] ;
42 -> 70 ;
71 [label="gini = 0.0\nsamples = 4\nvalue = [4, 0]", fillcolor="#e58139ff"] ;
70 -> 71 ;
72 [label="gini = 0.0\nsamples = 21\nvalue = [0, 21]", fillcolor="#399de5ff"] ;
70 -> 72 ;
73 [label="due_vs_submission_date <= -6.015\ngini = 0.489\nsamples = 310\nvalue = [132, 178]", fillcolor="#399de542"] ;
1 -> 73 ;
74 [label="url_clicks_by_days_change <= 1.004\ngini = 0.298\nsamples = 110\nvalue = [90, 20]", fillcolor="#e58139c6"] ;
73 -> 74 ;
75 [label="oucontent_clicks_by_days <= 6.629\ngini = 0.471\nsamples = 29\nvalue = [11, 18]", fillcolor="#399de563"] ;
74 -> 75 ;
76 [label="url_clicks_by_days_change <= -3.11\ngini = 0.391\nsamples = 15\nvalue = [11, 4]", fillcolor="#e58139a2"] ;
75 -> 76 ;
77 [label="gini = 0.0\nsamples = 3\nvalue = [0, 3]", fillcolor="#399de5ff"] ;
76 -> 77 ;
78 [label="resource_clicks_by_days_change <= 0.5\ngini = 0.153\nsamples = 12\nvalue = [11, 1]", fillcolor="#e58139e8"] ;
76 -> 78 ;
79 [label="gini = 0.0\nsamples = 11\nvalue = [11, 0]", fillcolor="#e58139ff"] ;
78 -> 79 ;
80 [label="gini = 0.0\nsamples = 1\nvalue = [0, 1]", fillcolor="#399de5ff"] ;
78 -> 80 ;
81 [label="gini = 0.0\nsamples = 14\nvalue = [0, 14]", fillcolor="#399de5ff"] ;
75 -> 81 ;
82 [label="forumng_clicks_by_days <= 0.306\ngini = 0.048\nsamples = 81\nvalue = [79, 2]", fillcolor="#e58139f9"] ;
74 -> 82 ;
83 [label="subpage_clicks_by_days_change <= 1.882\ngini = 0.26\nsamples = 13\nvalue = [11, 2]", fillcolor="#e58139d1"] ;
82 -> 83 ;
84 [label="gini = 0.0\nsamples = 10\nvalue = [10, 0]", fillcolor="#e58139ff"] ;
83 -> 84 ;
85 [label="due_vs_submission_date <= -10.909\ngini = 0.444\nsamples = 3\nvalue = [1, 2]", fillcolor="#399de57f"] ;
83 -> 85 ;
86 [label="gini = 0.0\nsamples = 1\nvalue = [1, 0]", fillcolor="#e58139ff"] ;
85 -> 86 ;
87 [label="gini = 0.0\nsamples = 2\nvalue = [0, 2]", fillcolor="#399de5ff"] ;
85 -> 87 ;
88 [label="gini = 0.0\nsamples = 68\nvalue = [68, 0]", fillcolor="#e58139ff"] ;
82 -> 88 ;
89 [label="forumng_clicks_by_days_change <= 0.133\ngini = 0.332\nsamples = 200\nvalue = [42, 158]", fillcolor="#399de5bb"] ;
73 -> 89 ;
90 [label="homepage_clicks_by_days <= 8.116\ngini = 0.089\nsamples = 129\nvalue = [6, 123]", fillcolor="#399de5f3"] ;
89 -> 90 ;
91 [label="forumng_clicks_by_days_change <= -94.5\ngini = 0.061\nsamples = 127\nvalue = [4, 123]", fillcolor="#399de5f7"] ;
90 -> 91 ;
92 [label="gini = 0.0\nsamples = 1\nvalue = [1, 0]", fillcolor="#e58139ff"] ;
91 -> 92 ;
93 [label="due_vs_submission_date <= -3.453\ngini = 0.046\nsamples = 126\nvalue = [3, 123]", fillcolor="#399de5f9"] ;
91 -> 93 ;
94 [label="homepage_clicks_by_days_change <= -1.899\ngini = 0.266\nsamples = 19\nvalue = [3, 16]", fillcolor="#399de5cf"] ;
93 -> 94 ;
95 [label="gini = 0.0\nsamples = 14\nvalue = [0, 14]", fillcolor="#399de5ff"] ;
94 -> 95 ;
96 [label="forumng_clicks_by_days_change <= -1.139\ngini = 0.48\nsamples = 5\nvalue = [3, 2]", fillcolor="#e5813955"] ;
94 -> 96 ;
97 [label="gini = 0.0\nsamples = 3\nvalue = [3, 0]", fillcolor="#e58139ff"] ;
96 -> 97 ;
98 [label="gini = 0.0\nsamples = 2\nvalue = [0, 2]", fillcolor="#399de5ff"] ;
96 -> 98 ;
99 [label="gini = 0.0\nsamples = 107\nvalue = [0, 107]", fillcolor="#399de5ff"] ;
93 -> 99 ;
100 [label="gini = 0.0\nsamples = 2\nvalue = [2, 0]", fillcolor="#e58139ff"] ;
90 -> 100 ;
101 [label="url_clicks_by_days <= 1.012\ngini = 0.5\nsamples = 71\nvalue = [36, 35]", fillcolor="#e5813907"] ;
89 -> 101 ;
102 [label="gini = 0.0\nsamples = 18\nvalue = [0, 18]", fillcolor="#399de5ff"] ;
101 -> 102 ;
103 [label="url_clicks_by_days <= 1.847\ngini = 0.436\nsamples = 53\nvalue = [36, 17]", fillcolor="#e5813987"] ;
101 -> 103 ;
104 [label="gini = 0.0\nsamples = 26\nvalue = [26, 0]", fillcolor="#e58139ff"] ;
103 -> 104 ;
105 [label="homepage_clicks_by_days <= 8.047\ngini = 0.466\nsamples = 27\nvalue = [10, 17]", fillcolor="#399de569"] ;
103 -> 105 ;
106 [label="forumng_clicks_by_days <= 26.315\ngini = 0.308\nsamples = 21\nvalue = [4, 17]", fillcolor="#399de5c3"] ;
105 -> 106 ;
107 [label="forumng_clicks_by_days <= 1.264\ngini = 0.105\nsamples = 18\nvalue = [1, 17]", fillcolor="#399de5f0"] ;
106 -> 107 ;
108 [label="gini = 0.0\nsamples = 1\nvalue = [1, 0]", fillcolor="#e58139ff"] ;
107 -> 108 ;
109 [label="gini = 0.0\nsamples = 17\nvalue = [0, 17]", fillcolor="#399de5ff"] ;
107 -> 109 ;
110 [label="gini = 0.0\nsamples = 3\nvalue = [3, 0]", fillcolor="#e58139ff"] ;
106 -> 110 ;
111 [label="gini = 0.0\nsamples = 6\nvalue = [6, 0]", fillcolor="#e58139ff"] ;
105 -> 111 ;
112 [label="due_vs_submission_date <= 0.979\ngini = 0.408\nsamples = 2923\nvalue = [836, 2087]", fillcolor="#399de599"] ;
0 -> 112 [labeldistance=2.5, labelangle=-45, headlabel="False"] ;
113 [label="due_vs_submission_date <= 0.0\ngini = 0.477\nsamples = 2025\nvalue = [794, 1231]", fillcolor="#399de55b"] ;
112 -> 113 ;
114 [label="due_vs_submission_date <= -0.009\ngini = 0.449\nsamples = 1866\nvalue = [635, 1231]", fillcolor="#399de57b"] ;
113 -> 114 ;
115 [label="url_clicks_by_days_change <= -0.98\ngini = 0.5\nsamples = 922\nvalue = [470, 452]", fillcolor="#e581390a"] ;
114 -> 115 ;
116 [label="glossary_clicks_by_days_change <= -0.139\ngini = 0.235\nsamples = 206\nvalue = [28, 178]", fillcolor="#399de5d7"] ;
115 -> 116 ;
117 [label="homepage_clicks_by_days_change <= -19.33\ngini = 0.34\nsamples = 23\nvalue = [18, 5]", fillcolor="#e58139b8"] ;
116 -> 117 ;
118 [label="gini = 0.0\nsamples = 5\nvalue = [0, 5]", fillcolor="#399de5ff"] ;
117 -> 118 ;
119 [label="gini = 0.0\nsamples = 18\nvalue = [18, 0]", fillcolor="#e58139ff"] ;
117 -> 119 ;
120 [label="oucontent_clicks_by_days_change <= 10.187\ngini = 0.103\nsamples = 183\nvalue = [10, 173]", fillcolor="#399de5f0"] ;
116 -> 120 ;
121 [label="resource_clicks_by_days_change <= -12.5\ngini = 0.014\nsamples = 144\nvalue = [1, 143]", fillcolor="#399de5fd"] ;
120 -> 121 ;
122 [label="subpage_clicks_by_days_change <= -4.0\ngini = 0.5\nsamples = 2\nvalue = [1, 1]", fillcolor="#e5813900"] ;
121 -> 122 ;
123 [label="gini = 0.0\nsamples = 1\nvalue = [0, 1]", fillcolor="#399de5ff"] ;
122 -> 123 ;
124 [label="gini = 0.0\nsamples = 1\nvalue = [1, 0]", fillcolor="#e58139ff"] ;
122 -> 124 ;
125 [label="gini = 0.0\nsamples = 142\nvalue = [0, 142]", fillcolor="#399de5ff"] ;
121 -> 125 ;
126 [label="oucontent_clicks_by_days <= 47.705\ngini = 0.355\nsamples = 39\nvalue = [9, 30]", fillcolor="#399de5b3"] ;
120 -> 126 ;
127 [label="url_clicks_by_days <= 0.901\ngini = 0.426\nsamples = 13\nvalue = [9, 4]", fillcolor="#e581398e"] ;
126 -> 127 ;
128 [label="url_clicks_by_days_change <= -5.441\ngini = 0.18\nsamples = 10\nvalue = [9, 1]", fillcolor="#e58139e3"] ;
127 -> 128 ;
129 [label="gini = 0.0\nsamples = 1\nvalue = [0, 1]", fillcolor="#399de5ff"] ;
128 -> 129 ;
130 [label="gini = 0.0\nsamples = 9\nvalue = [9, 0]", fillcolor="#e58139ff"] ;
128 -> 130 ;
131 [label="gini = 0.0\nsamples = 3\nvalue = [0, 3]", fillcolor="#399de5ff"] ;
127 -> 131 ;
132 [label="gini = 0.0\nsamples = 26\nvalue = [0, 26]", fillcolor="#399de5ff"] ;
126 -> 132 ;
133 [label="homepage_clicks_by_days <= 50.975\ngini = 0.472\nsamples = 716\nvalue = [442, 274]", fillcolor="#e5813961"] ;
115 -> 133 ;
134 [label="subpage_clicks_by_days <= 6.99\ngini = 0.446\nsamples = 666\nvalue = [442, 224]", fillcolor="#e581397e"] ;
133 -> 134 ;
135 [label="homepage_clicks_by_days_change <= 10.995\ngini = 0.352\nsamples = 395\nvalue = [305, 90]", fillcolor="#e58139b4"] ;
134 -> 135 ;
136 [label="forumng_clicks_by_days_change <= -44.888\ngini = 0.289\nsamples = 343\nvalue = [283, 60]", fillcolor="#e58139c9"] ;
135 -> 136 ;
137 [label="url_clicks_by_days_change <= -0.48\ngini = 0.165\nsamples = 11\nvalue = [1, 10]", fillcolor="#399de5e6"] ;
136 -> 137 ;
138 [label="gini = 0.0\nsamples = 1\nvalue = [1, 0]", fillcolor="#e58139ff"] ;
137 -> 138 ;
139 [label="gini = 0.0\nsamples = 10\nvalue = [0, 10]", fillcolor="#399de5ff"] ;
137 -> 139 ;
140 [label="homepage_clicks_by_days <= 9.01\ngini = 0.256\nsamples = 332\nvalue = [282, 50]", fillcolor="#e58139d2"] ;
136 -> 140 ;
141 [label="gini = 0.0\nsamples = 7\nvalue = [0, 7]", fillcolor="#399de5ff"] ;
140 -> 141 ;
142 [label="gini = 0.23\nsamples = 325\nvalue = [282, 43]", fillcolor="#e58139d8"] ;
140 -> 142 ;
143 [label="forumng_clicks_by_days_change <= 14.085\ngini = 0.488\nsamples = 52\nvalue = [22, 30]", fillcolor="#399de544"] ;
135 -> 143 ;
144 [label="dataplus_clicks_by_days_change <= 3.167\ngini = 0.153\nsamples = 24\nvalue = [2, 22]", fillcolor="#399de5e8"] ;
143 -> 144 ;
145 [label="gini = 0.0\nsamples = 21\nvalue = [0, 21]", fillcolor="#399de5ff"] ;
144 -> 145 ;
146 [label="gini = 0.444\nsamples = 3\nvalue = [2, 1]", fillcolor="#e581397f"] ;
144 -> 146 ;
147 [label="url_clicks_by_days_change <= 0.038\ngini = 0.408\nsamples = 28\nvalue = [20, 8]", fillcolor="#e5813999"] ;
143 -> 147 ;
148 [label="gini = 0.219\nsamples = 8\nvalue = [1, 7]", fillcolor="#399de5db"] ;
147 -> 148 ;
149 [label="gini = 0.095\nsamples = 20\nvalue = [19, 1]", fillcolor="#e58139f2"] ;
147 -> 149 ;
150 [label="resource_clicks_by_days <= 0.009\ngini = 0.5\nsamples = 271\nvalue = [137, 134]", fillcolor="#e5813906"] ;
134 -> 150 ;
151 [label="oucontent_clicks_by_days <= 5.935\ngini = 0.075\nsamples = 77\nvalue = [3, 74]", fillcolor="#399de5f5"] ;
150 -> 151 ;
152 [label="gini = 0.0\nsamples = 2\nvalue = [2, 0]", fillcolor="#e58139ff"] ;
151 -> 152 ;
153 [label="homepage_clicks_by_days <= 11.5\ngini = 0.026\nsamples = 75\nvalue = [1, 74]", fillcolor="#399de5fc"] ;
151 -> 153 ;
154 [label="gini = 0.219\nsamples = 8\nvalue = [1, 7]", fillcolor="#399de5db"] ;
153 -> 154 ;
155 [label="gini = 0.0\nsamples = 67\nvalue = [0, 67]", fillcolor="#399de5ff"] ;
153 -> 155 ;
156 [label="resource_clicks_by_days <= 0.999\ngini = 0.427\nsamples = 194\nvalue = [134, 60]", fillcolor="#e581398d"] ;
150 -> 156 ;
157 [label="gini = 0.0\nsamples = 69\nvalue = [69, 0]", fillcolor="#e58139ff"] ;
156 -> 157 ;
158 [label="forumng_clicks_by_days_change <= 37.118\ngini = 0.499\nsamples = 125\nvalue = [65, 60]", fillcolor="#e5813914"] ;
156 -> 158 ;
159 [label="gini = 0.45\nsamples = 85\nvalue = [29, 56]", fillcolor="#399de57b"] ;
158 -> 159 ;
160 [label="gini = 0.18\nsamples = 40\nvalue = [36, 4]", fillcolor="#e58139e3"] ;
158 -> 160 ;
161 [label="gini = 0.0\nsamples = 50\nvalue = [0, 50]", fillcolor="#399de5ff"] ;
133 -> 161 ;
162 [label="glossary_clicks_by_days_change <= 0.005\ngini = 0.288\nsamples = 944\nvalue = [165, 779]", fillcolor="#399de5c9"] ;
114 -> 162 ;
163 [label="oucontent_clicks_by_days <= 5.961\ngini = 0.245\nsamples = 889\nvalue = [127, 762]", fillcolor="#399de5d4"] ;
162 -> 163 ;
164 [label="resource_clicks_by_days <= 0.632\ngini = 0.464\nsamples = 60\nvalue = [38, 22]", fillcolor="#e581396b"] ;
163 -> 164 ;
165 [label="homepage_clicks_by_days_change <= -5.229\ngini = 0.348\nsamples = 49\nvalue = [38, 11]", fillcolor="#e58139b5"] ;
164 -> 165 ;
166 [label="gini = 0.0\nsamples = 6\nvalue = [0, 6]", fillcolor="#399de5ff"] ;
165 -> 166 ;
167 [label="oucontent_clicks_by_days <= 0.004\ngini = 0.206\nsamples = 43\nvalue = [38, 5]", fillcolor="#e58139dd"] ;
165 -> 167 ;
168 [label="homepage_clicks_by_days <= 11.5\ngini = 0.375\nsamples = 4\nvalue = [1, 3]", fillcolor="#399de5aa"] ;
167 -> 168 ;
169 [label="gini = 0.0\nsamples = 1\nvalue = [1, 0]", fillcolor="#e58139ff"] ;
168 -> 169 ;
170 [label="gini = 0.0\nsamples = 3\nvalue = [0, 3]", fillcolor="#399de5ff"] ;
168 -> 170 ;
171 [label="url_clicks_by_days <= 4.5\ngini = 0.097\nsamples = 39\nvalue = [37, 2]", fillcolor="#e58139f1"] ;
167 -> 171 ;
172 [label="gini = 0.051\nsamples = 38\nvalue = [37, 1]", fillcolor="#e58139f8"] ;
171 -> 172 ;
173 [label="gini = 0.0\nsamples = 1\nvalue = [0, 1]", fillcolor="#399de5ff"] ;
171 -> 173 ;
174 [label="gini = 0.0\nsamples = 11\nvalue = [0, 11]", fillcolor="#399de5ff"] ;
164 -> 174 ;
175 [label="forumng_clicks_by_days <= 7.772\ngini = 0.192\nsamples = 829\nvalue = [89, 740]", fillcolor="#399de5e0"] ;
163 -> 175 ;
176 [label="oucontent_clicks_by_days <= 18.945\ngini = 0.334\nsamples = 302\nvalue = [64, 238]", fillcolor="#399de5ba"] ;
175 -> 176 ;
177 [label="forumng_clicks_by_days_change <= 0.077\ngini = 0.49\nsamples = 72\nvalue = [31, 41]", fillcolor="#399de53e"] ;
176 -> 177 ;
178 [label="forumng_clicks_by_days_change <= -22.659\ngini = 0.369\nsamples = 45\nvalue = [11, 34]", fillcolor="#399de5ac"] ;
177 -> 178 ;
179 [label="gini = 0.0\nsamples = 8\nvalue = [8, 0]", fillcolor="#e58139ff"] ;
178 -> 179 ;
180 [label="gini = 0.149\nsamples = 37\nvalue = [3, 34]", fillcolor="#399de5e9"] ;
178 -> 180 ;
181 [label="url_clicks_by_days_change <= 1.105\ngini = 0.384\nsamples = 27\nvalue = [20, 7]", fillcolor="#e58139a6"] ;
177 -> 181 ;
182 [label="gini = 0.0\nsamples = 7\nvalue = [0, 7]", fillcolor="#399de5ff"] ;
181 -> 182 ;
183 [label="gini = 0.0\nsamples = 20\nvalue = [20, 0]", fillcolor="#e58139ff"] ;
181 -> 183 ;
184 [label="resource_clicks_by_days <= 0.039\ngini = 0.246\nsamples = 230\nvalue = [33, 197]", fillcolor="#399de5d4"] ;
176 -> 184 ;
185 [label="subpage_clicks_by_days <= 1.5\ngini = 0.016\nsamples = 126\nvalue = [1, 125]", fillcolor="#399de5fd"] ;
184 -> 185 ;
186 [label="gini = 0.142\nsamples = 13\nvalue = [1, 12]", fillcolor="#399de5ea"] ;
185 -> 186 ;
187 [label="gini = 0.0\nsamples = 113\nvalue = [0, 113]", fillcolor="#399de5ff"] ;
185 -> 187 ;
188 [label="resource_clicks_by_days <= 0.972\ngini = 0.426\nsamples = 104\nvalue = [32, 72]", fillcolor="#399de58e"] ;
184 -> 188 ;
189 [label="gini = 0.0\nsamples = 25\nvalue = [25, 0]", fillcolor="#e58139ff"] ;
188 -> 189 ;
190 [label="gini = 0.162\nsamples = 79\nvalue = [7, 72]", fillcolor="#399de5e6"] ;
188 -> 190 ;
191 [label="resource_clicks_by_days_change <= 0.106\ngini = 0.09\nsamples = 527\nvalue = [25, 502]", fillcolor="#399de5f2"] ;
175 -> 191 ;
192 [label="gini = 0.0\nsamples = 296\nvalue = [0, 296]", fillcolor="#399de5ff"] ;
191 -> 192 ;
193 [label="resource_clicks_by_days_change <= 0.934\ngini = 0.193\nsamples = 231\nvalue = [25, 206]", fillcolor="#399de5e0"] ;
191 -> 193 ;
194 [label="gini = 0.0\nsamples = 5\nvalue = [5, 0]", fillcolor="#e58139ff"] ;
193 -> 194 ;
195 [label="dataplus_clicks_by_days_change <= 2.144\ngini = 0.161\nsamples = 226\nvalue = [20, 206]", fillcolor="#399de5e6"] ;
193 -> 195 ;
196 [label="gini = 0.114\nsamples = 215\nvalue = [13, 202]", fillcolor="#399de5ef"] ;
195 -> 196 ;
197 [label="gini = 0.463\nsamples = 11\nvalue = [7, 4]", fillcolor="#e581396d"] ;
195 -> 197 ;
198 [label="glossary_clicks_by_days <= 0.981\ngini = 0.427\nsamples = 55\nvalue = [38, 17]", fillcolor="#e581398d"] ;
162 -> 198 ;
199 [label="gini = 0.0\nsamples = 37\nvalue = [37, 0]", fillcolor="#e58139ff"] ;
198 -> 199 ;
200 [label="homepage_clicks_by_days <= 17.5\ngini = 0.105\nsamples = 18\nvalue = [1, 17]", fillcolor="#399de5f0"] ;
198 -> 200 ;
201 [label="oucontent_clicks_by_days_change <= 54.5\ngini = 0.5\nsamples = 2\nvalue = [1, 1]", fillcolor="#e5813900"] ;
200 -> 201 ;
202 [label="gini = 0.0\nsamples = 1\nvalue = [0, 1]", fillcolor="#399de5ff"] ;
201 -> 202 ;
203 [label="gini = 0.0\nsamples = 1\nvalue = [1, 0]", fillcolor="#e58139ff"] ;
201 -> 203 ;
204 [label="gini = 0.0\nsamples = 16\nvalue = [0, 16]", fillcolor="#399de5ff"] ;
200 -> 204 ;
205 [label="gini = 0.0\nsamples = 159\nvalue = [159, 0]", fillcolor="#e58139ff"] ;
113 -> 205 ;
206 [label="subpage_clicks_by_days_change <= -43.052\ngini = 0.089\nsamples = 898\nvalue = [42, 856]", fillcolor="#399de5f2"] ;
112 -> 206 ;
207 [label="url_clicks_by_days <= 6.06\ngini = 0.408\nsamples = 7\nvalue = [5, 2]", fillcolor="#e5813999"] ;
206 -> 207 ;
208 [label="gini = 0.0\nsamples = 5\nvalue = [5, 0]", fillcolor="#e58139ff"] ;
207 -> 208 ;
209 [label="gini = 0.0\nsamples = 2\nvalue = [0, 2]", fillcolor="#399de5ff"] ;
207 -> 209 ;
210 [label="oucontent_clicks_by_days <= 2.777\ngini = 0.08\nsamples = 891\nvalue = [37, 854]", fillcolor="#399de5f4"] ;
206 -> 210 ;
211 [label="oucontent_clicks_by_days_change <= -2.0\ngini = 0.422\nsamples = 33\nvalue = [10, 23]", fillcolor="#399de590"] ;
210 -> 211 ;
212 [label="gini = 0.0\nsamples = 20\nvalue = [0, 20]", fillcolor="#399de5ff"] ;
211 -> 212 ;
213 [label="forumng_clicks_by_days_change <= 5.251\ngini = 0.355\nsamples = 13\nvalue = [10, 3]", fillcolor="#e58139b3"] ;
211 -> 213 ;
214 [label="gini = 0.0\nsamples = 10\nvalue = [10, 0]", fillcolor="#e58139ff"] ;
213 -> 214 ;
215 [label="gini = 0.0\nsamples = 3\nvalue = [0, 3]", fillcolor="#399de5ff"] ;
213 -> 215 ;
216 [label="weight <= 15.0\ngini = 0.061\nsamples = 858\nvalue = [27, 831]", fillcolor="#399de5f7"] ;
210 -> 216 ;
217 [label="subpage_clicks_by_days <= 4.842\ngini = 0.158\nsamples = 243\nvalue = [21, 222]", fillcolor="#399de5e7"] ;
216 -> 217 ;
218 [label="url_clicks_by_days <= 0.232\ngini = 0.471\nsamples = 29\nvalue = [11, 18]", fillcolor="#399de563"] ;
217 -> 218 ;
219 [label="gini = 0.0\nsamples = 14\nvalue = [0, 14]", fillcolor="#399de5ff"] ;
218 -> 219 ;
220 [label="url_clicks_by_days_change <= 1.536\ngini = 0.391\nsamples = 15\nvalue = [11, 4]", fillcolor="#e58139a2"] ;
218 -> 220 ;
221 [label="gini = 0.0\nsamples = 11\nvalue = [11, 0]", fillcolor="#e58139ff"] ;
220 -> 221 ;
222 [label="gini = 0.0\nsamples = 4\nvalue = [0, 4]", fillcolor="#399de5ff"] ;
220 -> 222 ;
223 [label="forumng_clicks_by_days <= 21.5\ngini = 0.089\nsamples = 214\nvalue = [10, 204]", fillcolor="#399de5f2"] ;
217 -> 223 ;
224 [label="forumng_clicks_by_days <= 20.001\ngini = 0.224\nsamples = 78\nvalue = [10, 68]", fillcolor="#399de5da"] ;
223 -> 224 ;
225 [label="forumng_clicks_by_days <= 15.666\ngini = 0.081\nsamples = 71\nvalue = [3, 68]", fillcolor="#399de5f4"] ;
224 -> 225 ;
226 [label="gini = 0.0\nsamples = 61\nvalue = [0, 61]", fillcolor="#399de5ff"] ;
225 -> 226 ;
227 [label="forumng_clicks_by_days_change <= 17.911\ngini = 0.42\nsamples = 10\nvalue = [3, 7]", fillcolor="#399de592"] ;
225 -> 227 ;
228 [label="gini = 0.0\nsamples = 3\nvalue = [3, 0]", fillcolor="#e58139ff"] ;
227 -> 228 ;
229 [label="gini = 0.0\nsamples = 7\nvalue = [0, 7]", fillcolor="#399de5ff"] ;
227 -> 229 ;
230 [label="gini = 0.0\nsamples = 7\nvalue = [7, 0]", fillcolor="#e58139ff"] ;
224 -> 230 ;
231 [label="gini = 0.0\nsamples = 136\nvalue = [0, 136]", fillcolor="#399de5ff"] ;
223 -> 231 ;
232 [label="homepage_clicks_by_days <= 10.966\ngini = 0.019\nsamples = 615\nvalue = [6, 609]", fillcolor="#399de5fc"] ;
216 -> 232 ;
233 [label="homepage_clicks_by_days <= 10.334\ngini = 0.133\nsamples = 56\nvalue = [4, 52]", fillcolor="#399de5eb"] ;
232 -> 233 ;
234 [label="homepage_clicks_by_days_change <= -42.54\ngini = 0.071\nsamples = 54\nvalue = [2, 52]", fillcolor="#399de5f5"] ;
233 -> 234 ;
235 [label="homepage_clicks_by_days <= 9.742\ngini = 0.5\nsamples = 2\nvalue = [1, 1]", fillcolor="#e5813900"] ;
234 -> 235 ;
236 [label="gini = 0.0\nsamples = 1\nvalue = [1, 0]", fillcolor="#e58139ff"] ;
235 -> 236 ;
237 [label="gini = 0.0\nsamples = 1\nvalue = [0, 1]", fillcolor="#399de5ff"] ;
235 -> 237 ;
238 [label="forumng_clicks_by_days_change <= 4.378\ngini = 0.038\nsamples = 52\nvalue = [1, 51]", fillcolor="#399de5fa"] ;
234 -> 238 ;
239 [label="gini = 0.0\nsamples = 45\nvalue = [0, 45]", fillcolor="#399de5ff"] ;
238 -> 239 ;
240 [label="forumng_clicks_by_days_change <= 4.878\ngini = 0.245\nsamples = 7\nvalue = [1, 6]", fillcolor="#399de5d4"] ;
238 -> 240 ;
241 [label="gini = 0.0\nsamples = 1\nvalue = [1, 0]", fillcolor="#e58139ff"] ;
240 -> 241 ;
242 [label="gini = 0.0\nsamples = 6\nvalue = [0, 6]", fillcolor="#399de5ff"] ;
240 -> 242 ;
243 [label="gini = 0.0\nsamples = 2\nvalue = [2, 0]", fillcolor="#e58139ff"] ;
233 -> 243 ;
244 [label="url_clicks_by_days <= 0.885\ngini = 0.007\nsamples = 559\nvalue = [2, 557]", fillcolor="#399de5fe"] ;
232 -> 244 ;
245 [label="url_clicks_by_days_change <= 0.385\ngini = 0.027\nsamples = 145\nvalue = [2, 143]", fillcolor="#399de5fb"] ;
244 -> 245 ;
246 [label="subpage_clicks_by_days <= 8.5\ngini = 0.014\nsamples = 144\nvalue = [1, 143]", fillcolor="#399de5fd"] ;
245 -> 246 ;
247 [label="gini = 0.0\nsamples = 130\nvalue = [0, 130]", fillcolor="#399de5ff"] ;
246 -> 247 ;
248 [label="oucontent_clicks_by_days_change <= -26.5\ngini = 0.133\nsamples = 14\nvalue = [1, 13]", fillcolor="#399de5eb"] ;
246 -> 248 ;
249 [label="gini = 0.5\nsamples = 2\nvalue = [1, 1]", fillcolor="#e5813900"] ;
248 -> 249 ;
250 [label="gini = 0.0\nsamples = 12\nvalue = [0, 12]", fillcolor="#399de5ff"] ;
248 -> 250 ;
251 [label="gini = 0.0\nsamples = 1\nvalue = [1, 0]", fillcolor="#e58139ff"] ;
245 -> 251 ;
252 [label="gini = 0.0\nsamples = 414\nvalue = [0, 414]", fillcolor="#399de5ff"] ;
244 -> 252 ;
}