digraph Tree {
node [shape=box, style="filled", color="black"] ;
0 [label="weight <= 0.998\ngini = 0.5\nsamples = 74806\nvalue = [37403, 37403]", fillcolor="#e5813900"] ;
1 [label="url_clicks_by_days_change <= 1.0\ngini = 0.091\nsamples = 19483\nvalue = [18551, 932]", fillcolor="#e58139f2"] ;
0 -> 1 [labeldistance=2.5, labelangle=45, headlabel="True"] ;
2 [label="url_clicks_by_days <= 0.0\ngini = 0.078\nsamples = 16213\nvalue = [15555, 658]", fillcolor="#e58139f4"] ;
1 -> 2 ;
3 [label="oucontent_clicks_by_days_change <= 98.5\ngini = 0.107\nsamples = 11615\nvalue = [10957, 658]", fillcolor="#e58139f0"] ;
2 -> 3 ;
4 [label="gini = 0.105\nsamples = 11597\nvalue = [10954, 643]", fillcolor="#e58139f0"] ;
3 -> 4 ;
5 [label="gini = 0.278\nsamples = 18\nvalue = [3, 15]", fillcolor="#399de5cc"] ;
3 -> 5 ;
6 [label="gini = 0.0\nsamples = 4598\nvalue = [4598, 0]", fillcolor="#e58139ff"] ;
2 -> 6 ;
7 [label="resource_clicks_by_days <= 1.001\ngini = 0.154\nsamples = 3270\nvalue = [2996, 274]", fillcolor="#e58139e8"] ;
1 -> 7 ;
8 [label="oucontent_clicks_by_days <= 4.5\ngini = 0.488\nsamples = 104\nvalue = [60, 44]", fillcolor="#e5813944"] ;
7 -> 8 ;
9 [label="gini = 0.208\nsamples = 17\nvalue = [2, 15]", fillcolor="#399de5dd"] ;
8 -> 9 ;
10 [label="gini = 0.444\nsamples = 87\nvalue = [58, 29]", fillcolor="#e581397f"] ;
8 -> 10 ;
11 [label="subpage_clicks_by_days <= 1.022\ngini = 0.135\nsamples = 3166\nvalue = [2936, 230]", fillcolor="#e58139eb"] ;
7 -> 11 ;
12 [label="gini = 0.36\nsamples = 17\nvalue = [4, 13]", fillcolor="#399de5b1"] ;
11 -> 12 ;
13 [label="gini = 0.128\nsamples = 3149\nvalue = [2932, 217]", fillcolor="#e58139ec"] ;
11 -> 13 ;
14 [label="homepage_clicks_by_days <= 5.999\ngini = 0.449\nsamples = 55323\nvalue = [18852, 36471]", fillcolor="#399de57b"] ;
0 -> 14 [labeldistance=2.5, labelangle=-45, headlabel="False"] ;
15 [label="assessment_type_CMA <= 0.996\ngini = 0.499\nsamples = 23484\nvalue = [12132, 11352]", fillcolor="#e5813910"] ;
14 -> 15 ;
16 [label="due_vs_submission_date <= 1.0\ngini = 0.474\nsamples = 17677\nvalue = [10839, 6838]", fillcolor="#e581395e"] ;
15 -> 16 ;
17 [label="gini = 0.411\nsamples = 12090\nvalue = [8593, 3497]", fillcolor="#e5813997"] ;
16 -> 17 ;
18 [label="gini = 0.481\nsamples = 5587\nvalue = [2246, 3341]", fillcolor="#399de554"] ;
16 -> 18 ;
19 [label="url_clicks_by_days <= 0.0\ngini = 0.346\nsamples = 5807\nvalue = [1293, 4514]", fillcolor="#399de5b6"] ;
15 -> 19 ;
20 [label="gini = 0.257\nsamples = 4637\nvalue = [701, 3936]", fillcolor="#399de5d2"] ;
19 -> 20 ;
21 [label="gini = 0.5\nsamples = 1170\nvalue = [592, 578]", fillcolor="#e5813906"] ;
19 -> 21 ;
22 [label="assessment_type_CMA <= 0.999\ngini = 0.333\nsamples = 31839\nvalue = [6720, 25119]", fillcolor="#399de5bb"] ;
14 -> 22 ;
23 [label="due_vs_submission_date <= 1.0\ngini = 0.399\nsamples = 21226\nvalue = [5839, 15387]", fillcolor="#399de59e"] ;
22 -> 23 ;
24 [label="gini = 0.486\nsamples = 10754\nvalue = [4465, 6289]", fillcolor="#399de54a"] ;
23 -> 24 ;
25 [label="gini = 0.228\nsamples = 10472\nvalue = [1374, 9098]", fillcolor="#399de5d8"] ;
23 -> 25 ;
26 [label="date <= 152.024\ngini = 0.152\nsamples = 10613\nvalue = [881, 9732]", fillcolor="#399de5e8"] ;
22 -> 26 ;
27 [label="gini = 0.073\nsamples = 7031\nvalue = [266, 6765]", fillcolor="#399de5f5"] ;
26 -> 27 ;
28 [label="gini = 0.284\nsamples = 3582\nvalue = [615, 2967]", fillcolor="#399de5ca"] ;
26 -> 28 ;
}