digraph Tree {
node [shape=box, style="filled", color="black"] ;
0 [label="due_vs_submission_date <= 1.0\ngini = 0.5\nsamples = 27876\nvalue = [13938, 13938]", fillcolor="#e5813900"] ;
1 [label="homepage_clicks_by_interval <= 20.996\ngini = 0.495\nsamples = 24887\nvalue = [13627, 11260]", fillcolor="#e581392c"] ;
0 -> 1 [labeldistance=2.5, labelangle=45, headlabel="True"] ;
2 [label="resource_clicks_by_interval <= 0.001\ngini = 0.461\nsamples = 15500\nvalue = [9922, 5578]", fillcolor="#e5813970"] ;
1 -> 2 ;
3 [label="subpage_clicks_by_interval <= 5.972\ngini = 0.494\nsamples = 2751\nvalue = [1228, 1523]", fillcolor="#399de531"] ;
2 -> 3 ;
4 [label="quiz_clicks_by_interval_change <= -135.5\ngini = 0.5\nsamples = 2241\nvalue = [1112, 1129]", fillcolor="#399de504"] ;
3 -> 4 ;
5 [label="forumng_clicks_by_interval_change <= 6.616\ngini = 0.177\nsamples = 153\nvalue = [15, 138]", fillcolor="#399de5e3"] ;
4 -> 5 ;
6 [label="resource_clicks_by_interval_change <= -13.5\ngini = 0.139\nsamples = 146\nvalue = [11, 135]", fillcolor="#399de5ea"] ;
5 -> 6 ;
7 [label="gini = 0.325\nsamples = 44\nvalue = [9, 35]", fillcolor="#399de5bd"] ;
6 -> 7 ;
8 [label="gini = 0.038\nsamples = 102\nvalue = [2, 100]", fillcolor="#399de5fa"] ;
6 -> 8 ;
9 [label="quiz_clicks_by_interval_change <= -227.0\ngini = 0.49\nsamples = 7\nvalue = [4, 3]", fillcolor="#e5813940"] ;
5 -> 9 ;
10 [label="gini = 0.0\nsamples = 4\nvalue = [4, 0]", fillcolor="#e58139ff"] ;
9 -> 10 ;
11 [label="gini = 0.0\nsamples = 3\nvalue = [0, 3]", fillcolor="#399de5ff"] ;
9 -> 11 ;
12 [label="resource_clicks_by_interval_change <= -1.003\ngini = 0.499\nsamples = 2088\nvalue = [1097, 991]", fillcolor="#e5813919"] ;
4 -> 12 ;
13 [label="url_clicks_by_interval_change <= -1.992\ngini = 0.488\nsamples = 1543\nvalue = [890, 653]", fillcolor="#e5813944"] ;
12 -> 13 ;
14 [label="gini = 0.382\nsamples = 167\nvalue = [43, 124]", fillcolor="#399de5a7"] ;
13 -> 14 ;
15 [label="gini = 0.473\nsamples = 1376\nvalue = [847, 529]", fillcolor="#e5813960"] ;
13 -> 15 ;
16 [label="subpage_clicks_by_interval <= 5.068\ngini = 0.471\nsamples = 545\nvalue = [207, 338]", fillcolor="#399de563"] ;
12 -> 16 ;
17 [label="gini = 0.463\nsamples = 531\nvalue = [193, 338]", fillcolor="#399de56d"] ;
16 -> 17 ;
18 [label="gini = 0.0\nsamples = 14\nvalue = [14, 0]", fillcolor="#e58139ff"] ;
16 -> 18 ;
19 [label="subpage_clicks_by_interval <= 9.955\ngini = 0.351\nsamples = 510\nvalue = [116, 394]", fillcolor="#399de5b4"] ;
3 -> 19 ;
20 [label="url_clicks_by_interval_change <= 1.04\ngini = 0.402\nsamples = 362\nvalue = [101, 261]", fillcolor="#399de59c"] ;
19 -> 20 ;
21 [label="subpage_clicks_by_interval_change <= 7.188\ngini = 0.375\nsamples = 340\nvalue = [85, 255]", fillcolor="#399de5aa"] ;
20 -> 21 ;
22 [label="gini = 0.343\nsamples = 309\nvalue = [68, 241]", fillcolor="#399de5b7"] ;
21 -> 22 ;
23 [label="gini = 0.495\nsamples = 31\nvalue = [17, 14]", fillcolor="#e581392d"] ;
21 -> 23 ;
24 [label="homepage_clicks_by_interval_change <= -4.646\ngini = 0.397\nsamples = 22\nvalue = [16, 6]", fillcolor="#e581399f"] ;
20 -> 24 ;
25 [label="gini = 0.278\nsamples = 6\nvalue = [1, 5]", fillcolor="#399de5cc"] ;
24 -> 25 ;
26 [label="gini = 0.117\nsamples = 16\nvalue = [15, 1]", fillcolor="#e58139ee"] ;
24 -> 26 ;
27 [label="quiz_clicks_by_interval <= 75.831\ngini = 0.182\nsamples = 148\nvalue = [15, 133]", fillcolor="#399de5e2"] ;
19 -> 27 ;
28 [label="forumng_clicks_by_interval_change <= -4.557\ngini = 0.381\nsamples = 39\nvalue = [10, 29]", fillcolor="#399de5a7"] ;
27 -> 28 ;
29 [label="gini = 0.498\nsamples = 15\nvalue = [8, 7]", fillcolor="#e5813920"] ;
28 -> 29 ;
30 [label="gini = 0.153\nsamples = 24\nvalue = [2, 22]", fillcolor="#399de5e8"] ;
28 -> 30 ;
31 [label="oucontent_clicks_by_interval_change <= -117.232\ngini = 0.088\nsamples = 109\nvalue = [5, 104]", fillcolor="#399de5f3"] ;
27 -> 31 ;
32 [label="gini = 0.5\nsamples = 6\nvalue = [3, 3]", fillcolor="#e5813900"] ;
31 -> 32 ;
33 [label="gini = 0.038\nsamples = 103\nvalue = [2, 101]", fillcolor="#399de5fa"] ;
31 -> 33 ;
34 [label="resource_clicks_by_interval <= 1.0\ngini = 0.434\nsamples = 12749\nvalue = [8694, 4055]", fillcolor="#e5813988"] ;
2 -> 34 ;
35 [label="gini = 0.0\nsamples = 1345\nvalue = [1345, 0]", fillcolor="#e58139ff"] ;
34 -> 35 ;
36 [label="resource_clicks_by_interval <= 1.0\ngini = 0.458\nsamples = 11404\nvalue = [7349, 4055]", fillcolor="#e5813972"] ;
34 -> 36 ;
37 [label="forumng_clicks_by_interval <= 11.932\ngini = 0.472\nsamples = 1404\nvalue = [536, 868]", fillcolor="#399de562"] ;
36 -> 37 ;
38 [label="quiz_clicks_by_interval <= 56.905\ngini = 0.485\nsamples = 1273\nvalue = [527, 746]", fillcolor="#399de54b"] ;
37 -> 38 ;
39 [label="gini = 0.5\nsamples = 818\nvalue = [404, 414]", fillcolor="#399de506"] ;
38 -> 39 ;
40 [label="gini = 0.395\nsamples = 455\nvalue = [123, 332]", fillcolor="#399de5a1"] ;
38 -> 40 ;
41 [label="homepage_clicks_by_interval <= 2.5\ngini = 0.128\nsamples = 131\nvalue = [9, 122]", fillcolor="#399de5ec"] ;
37 -> 41 ;
42 [label="gini = 0.0\nsamples = 2\nvalue = [2, 0]", fillcolor="#e58139ff"] ;
41 -> 42 ;
43 [label="gini = 0.103\nsamples = 129\nvalue = [7, 122]", fillcolor="#399de5f0"] ;
41 -> 43 ;
44 [label="resource_clicks_by_interval <= 2.0\ngini = 0.434\nsamples = 10000\nvalue = [6813, 3187]", fillcolor="#e5813988"] ;
36 -> 44 ;
45 [label="gini = 0.0\nsamples = 1334\nvalue = [1334, 0]", fillcolor="#e58139ff"] ;
44 -> 45 ;
46 [label="resource_clicks_by_interval <= 2.0\ngini = 0.465\nsamples = 8666\nvalue = [5479, 3187]", fillcolor="#e581396b"] ;
44 -> 46 ;
47 [label="gini = 0.415\nsamples = 992\nvalue = [292, 700]", fillcolor="#399de595"] ;
46 -> 47 ;
48 [label="gini = 0.438\nsamples = 7674\nvalue = [5187, 2487]", fillcolor="#e5813985"] ;
46 -> 48 ;
49 [label="weight <= 6.999\ngini = 0.478\nsamples = 9387\nvalue = [3705, 5682]", fillcolor="#399de559"] ;
1 -> 49 ;
50 [label="due_vs_submission_date <= -3.0\ngini = 0.495\nsamples = 3575\nvalue = [1968, 1607]", fillcolor="#e581392f"] ;
49 -> 50 ;
51 [label="due_vs_submission_date <= -3.141\ngini = 0.352\nsamples = 1226\nvalue = [279, 947]", fillcolor="#399de5b4"] ;
50 -> 51 ;
52 [label="oucontent_clicks_by_interval_change <= 1.025\ngini = 0.059\nsamples = 33\nvalue = [32, 1]", fillcolor="#e58139f7"] ;
51 -> 52 ;
53 [label="gini = 0.0\nsamples = 1\nvalue = [0, 1]", fillcolor="#399de5ff"] ;
52 -> 53 ;
54 [label="gini = 0.0\nsamples = 32\nvalue = [32, 0]", fillcolor="#e58139ff"] ;
52 -> 54 ;
55 [label="url_clicks_by_interval_change <= 0.994\ngini = 0.328\nsamples = 1193\nvalue = [247, 946]", fillcolor="#399de5bc"] ;
51 -> 55 ;
56 [label="url_clicks_by_interval_change <= 0.01\ngini = 0.461\nsamples = 381\nvalue = [137, 244]", fillcolor="#399de570"] ;
55 -> 56 ;
57 [label="gini = 0.326\nsamples = 307\nvalue = [63, 244]", fillcolor="#399de5bd"] ;
56 -> 57 ;
58 [label="gini = 0.0\nsamples = 74\nvalue = [74, 0]", fillcolor="#e58139ff"] ;
56 -> 58 ;
59 [label="quiz_clicks_by_interval_change <= 179.972\ngini = 0.234\nsamples = 812\nvalue = [110, 702]", fillcolor="#399de5d7"] ;
55 -> 59 ;
60 [label="gini = 0.293\nsamples = 590\nvalue = [105, 485]", fillcolor="#399de5c8"] ;
59 -> 60 ;
61 [label="gini = 0.044\nsamples = 222\nvalue = [5, 217]", fillcolor="#399de5f9"] ;
59 -> 61 ;
62 [label="due_vs_submission_date <= -2.0\ngini = 0.404\nsamples = 2349\nvalue = [1689, 660]", fillcolor="#e581399b"] ;
50 -> 62 ;
63 [label="gini = 0.0\nsamples = 781\nvalue = [781, 0]", fillcolor="#e58139ff"] ;
62 -> 63 ;
64 [label="url_clicks_by_interval <= 0.0\ngini = 0.487\nsamples = 1568\nvalue = [908, 660]", fillcolor="#e5813946"] ;
62 -> 64 ;
65 [label="quiz_clicks_by_interval_change <= 93.468\ngini = 0.44\nsamples = 278\nvalue = [91, 187]", fillcolor="#399de583"] ;
64 -> 65 ;
66 [label="gini = 0.49\nsamples = 126\nvalue = [72, 54]", fillcolor="#e5813940"] ;
65 -> 66 ;
67 [label="gini = 0.219\nsamples = 152\nvalue = [19, 133]", fillcolor="#399de5db"] ;
65 -> 67 ;
68 [label="url_clicks_by_interval_change <= 0.999\ngini = 0.464\nsamples = 1290\nvalue = [817, 473]", fillcolor="#e581396b"] ;
64 -> 68 ;
69 [label="gini = 0.0\nsamples = 193\nvalue = [193, 0]", fillcolor="#e58139ff"] ;
68 -> 69 ;
70 [label="gini = 0.491\nsamples = 1097\nvalue = [624, 473]", fillcolor="#e581393e"] ;
68 -> 70 ;
71 [label="quiz_clicks_by_interval <= 90.942\ngini = 0.419\nsamples = 5812\nvalue = [1737, 4075]", fillcolor="#399de592"] ;
49 -> 71 ;
72 [label="due_vs_submission_date <= 0.002\ngini = 0.481\nsamples = 2943\nvalue = [1184, 1759]", fillcolor="#399de553"] ;
71 -> 72 ;
73 [label="due_vs_submission_date <= -0.007\ngini = 0.47\nsamples = 2829\nvalue = [1070, 1759]", fillcolor="#399de564"] ;
72 -> 73 ;
74 [label="due_vs_submission_date <= -0.999\ngini = 0.5\nsamples = 1856\nvalue = [901, 955]", fillcolor="#399de50e"] ;
73 -> 74 ;
75 [label="gini = 0.493\nsamples = 1713\nvalue = [758, 955]", fillcolor="#399de535"] ;
74 -> 75 ;
76 [label="gini = 0.0\nsamples = 143\nvalue = [143, 0]", fillcolor="#e58139ff"] ;
74 -> 76 ;
77 [label="forumng_clicks_by_interval <= 9.783\ngini = 0.287\nsamples = 973\nvalue = [169, 804]", fillcolor="#399de5c9"] ;
73 -> 77 ;
78 [label="gini = 0.39\nsamples = 411\nvalue = [109, 302]", fillcolor="#399de5a3"] ;
77 -> 78 ;
79 [label="gini = 0.191\nsamples = 562\nvalue = [60, 502]", fillcolor="#399de5e1"] ;
77 -> 79 ;
80 [label="gini = 0.0\nsamples = 114\nvalue = [114, 0]", fillcolor="#e58139ff"] ;
72 -> 80 ;
81 [label="date <= 67.201\ngini = 0.311\nsamples = 2869\nvalue = [553, 2316]", fillcolor="#399de5c2"] ;
71 -> 81 ;
82 [label="quiz_clicks_by_interval <= 131.646\ngini = 0.134\nsamples = 1192\nvalue = [86, 1106]", fillcolor="#399de5eb"] ;
81 -> 82 ;
83 [label="oucollaborate_clicks_by_interval_change <= 0.025\ngini = 0.276\nsamples = 357\nvalue = [59, 298]", fillcolor="#399de5cd"] ;
82 -> 83 ;
84 [label="gini = 0.192\nsamples = 289\nvalue = [31, 258]", fillcolor="#399de5e0"] ;
83 -> 84 ;
85 [label="gini = 0.484\nsamples = 68\nvalue = [28, 40]", fillcolor="#399de54d"] ;
83 -> 85 ;
86 [label="oucontent_clicks_by_interval <= 89.838\ngini = 0.063\nsamples = 835\nvalue = [27, 808]", fillcolor="#399de5f6"] ;
82 -> 86 ;
87 [label="gini = 0.019\nsamples = 739\nvalue = [7, 732]", fillcolor="#399de5fd"] ;
86 -> 87 ;
88 [label="gini = 0.33\nsamples = 96\nvalue = [20, 76]", fillcolor="#399de5bc"] ;
86 -> 88 ;
89 [label="weight <= 7.998\ngini = 0.402\nsamples = 1677\nvalue = [467, 1210]", fillcolor="#399de59d"] ;
81 -> 89 ;
90 [label="gini = 0.0\nsamples = 57\nvalue = [57, 0]", fillcolor="#e58139ff"] ;
89 -> 90 ;
91 [label="date <= 143.987\ngini = 0.378\nsamples = 1620\nvalue = [410, 1210]", fillcolor="#399de5a9"] ;
89 -> 91 ;
92 [label="gini = 0.472\nsamples = 647\nvalue = [247, 400]", fillcolor="#399de562"] ;
91 -> 92 ;
93 [label="gini = 0.279\nsamples = 973\nvalue = [163, 810]", fillcolor="#399de5cc"] ;
91 -> 93 ;
94 [label="assessment_type_TMA <= 0.982\ngini = 0.186\nsamples = 2989\nvalue = [311, 2678]", fillcolor="#399de5e1"] ;
0 -> 94 [labeldistance=2.5, labelangle=-45, headlabel="False"] ;
95 [label="subpage_clicks_by_interval <= 0.035\ngini = 0.44\nsamples = 168\nvalue = [113, 55]", fillcolor="#e5813983"] ;
94 -> 95 ;
96 [label="oucontent_clicks_by_interval <= 1.636\ngini = 0.486\nsamples = 60\nvalue = [25, 35]", fillcolor="#399de549"] ;
95 -> 96 ;
97 [label="homepage_clicks_by_interval_change <= -1.151\ngini = 0.346\nsamples = 45\nvalue = [10, 35]", fillcolor="#399de5b6"] ;
96 -> 97 ;
98 [label="resource_clicks_by_interval_change <= -1.0\ngini = 0.469\nsamples = 8\nvalue = [5, 3]", fillcolor="#e5813966"] ;
97 -> 98 ;
99 [label="gini = 0.0\nsamples = 3\nvalue = [0, 3]", fillcolor="#399de5ff"] ;
98 -> 99 ;
100 [label="gini = 0.0\nsamples = 5\nvalue = [5, 0]", fillcolor="#e58139ff"] ;
98 -> 100 ;
101 [label="forumng_clicks_by_interval_change <= 15.5\ngini = 0.234\nsamples = 37\nvalue = [5, 32]", fillcolor="#399de5d7"] ;
97 -> 101 ;
102 [label="weight <= 4.5\ngini = 0.198\nsamples = 36\nvalue = [4, 32]", fillcolor="#399de5df"] ;
101 -> 102 ;
103 [label="gini = 0.0\nsamples = 16\nvalue = [0, 16]", fillcolor="#399de5ff"] ;
102 -> 103 ;
104 [label="gini = 0.32\nsamples = 20\nvalue = [4, 16]", fillcolor="#399de5bf"] ;
102 -> 104 ;
105 [label="gini = 0.0\nsamples = 1\nvalue = [1, 0]", fillcolor="#e58139ff"] ;
101 -> 105 ;
106 [label="gini = 0.0\nsamples = 15\nvalue = [15, 0]", fillcolor="#e58139ff"] ;
96 -> 106 ;
107 [label="forumng_clicks_by_interval <= 18.824\ngini = 0.302\nsamples = 108\nvalue = [88, 20]", fillcolor="#e58139c5"] ;
95 -> 107 ;
108 [label="resource_clicks_by_interval <= 7.997\ngini = 0.211\nsamples = 100\nvalue = [88, 12]", fillcolor="#e58139dc"] ;
107 -> 108 ;
109 [label="oucontent_clicks_by_interval_change <= -14.5\ngini = 0.183\nsamples = 98\nvalue = [88, 10]", fillcolor="#e58139e2"] ;
108 -> 109 ;
110 [label="gini = 0.0\nsamples = 2\nvalue = [0, 2]", fillcolor="#399de5ff"] ;
109 -> 110 ;
111 [label="resource_clicks_by_interval_change <= 0.998\ngini = 0.153\nsamples = 96\nvalue = [88, 8]", fillcolor="#e58139e8"] ;
109 -> 111 ;
112 [label="gini = 0.074\nsamples = 78\nvalue = [75, 3]", fillcolor="#e58139f5"] ;
111 -> 112 ;
113 [label="gini = 0.401\nsamples = 18\nvalue = [13, 5]", fillcolor="#e581399d"] ;
111 -> 113 ;
114 [label="gini = 0.0\nsamples = 2\nvalue = [0, 2]", fillcolor="#399de5ff"] ;
108 -> 114 ;
115 [label="gini = 0.0\nsamples = 8\nvalue = [0, 8]", fillcolor="#399de5ff"] ;
107 -> 115 ;
116 [label="homepage_clicks_by_interval <= 14.984\ngini = 0.131\nsamples = 2821\nvalue = [198, 2623]", fillcolor="#399de5ec"] ;
94 -> 116 ;
117 [label="due_vs_submission_date <= 1.98\ngini = 0.261\nsamples = 948\nvalue = [146, 802]", fillcolor="#399de5d1"] ;
116 -> 117 ;
118 [label="due_vs_submission_date <= 1.009\ngini = 0.361\nsamples = 490\nvalue = [116, 374]", fillcolor="#399de5b0"] ;
117 -> 118 ;
119 [label="homepage_clicks_by_interval_change <= 10.752\ngini = 0.241\nsamples = 435\nvalue = [61, 374]", fillcolor="#399de5d5"] ;
118 -> 119 ;
120 [label="quiz_clicks_by_interval <= 9.792\ngini = 0.232\nsamples = 432\nvalue = [58, 374]", fillcolor="#399de5d7"] ;
119 -> 120 ;
121 [label="gini = 0.269\nsamples = 363\nvalue = [58, 305]", fillcolor="#399de5cf"] ;
120 -> 121 ;
122 [label="gini = 0.0\nsamples = 69\nvalue = [0, 69]", fillcolor="#399de5ff"] ;
120 -> 122 ;
123 [label="gini = 0.0\nsamples = 3\nvalue = [3, 0]", fillcolor="#e58139ff"] ;
119 -> 123 ;
124 [label="gini = 0.0\nsamples = 55\nvalue = [55, 0]", fillcolor="#e58139ff"] ;
118 -> 124 ;
125 [label="subpage_clicks_by_interval_change <= -4.5\ngini = 0.122\nsamples = 458\nvalue = [30, 428]", fillcolor="#399de5ed"] ;
117 -> 125 ;
126 [label="resource_clicks_by_interval_change <= -101.0\ngini = 0.033\nsamples = 235\nvalue = [4, 231]", fillcolor="#399de5fb"] ;
125 -> 126 ;
127 [label="gini = 0.0\nsamples = 1\nvalue = [1, 0]", fillcolor="#e58139ff"] ;
126 -> 127 ;
128 [label="resource_clicks_by_interval_change <= 5.5\ngini = 0.025\nsamples = 234\nvalue = [3, 231]", fillcolor="#399de5fc"] ;
126 -> 128 ;
129 [label="gini = 0.017\nsamples = 230\nvalue = [2, 228]", fillcolor="#399de5fd"] ;
128 -> 129 ;
130 [label="gini = 0.375\nsamples = 4\nvalue = [1, 3]", fillcolor="#399de5aa"] ;
128 -> 130 ;
131 [label="homepage_clicks_by_interval_change <= -7.298\ngini = 0.206\nsamples = 223\nvalue = [26, 197]", fillcolor="#399de5dd"] ;
125 -> 131 ;
132 [label="homepage_clicks_by_interval <= 3.865\ngini = 0.413\nsamples = 55\nvalue = [16, 39]", fillcolor="#399de596"] ;
131 -> 132 ;
133 [label="gini = 0.219\nsamples = 8\nvalue = [7, 1]", fillcolor="#e58139db"] ;
132 -> 133 ;
134 [label="gini = 0.31\nsamples = 47\nvalue = [9, 38]", fillcolor="#399de5c3"] ;
132 -> 134 ;
135 [label="resource_clicks_by_interval_change <= -3.644\ngini = 0.112\nsamples = 168\nvalue = [10, 158]", fillcolor="#399de5ef"] ;
131 -> 135 ;
136 [label="gini = 0.5\nsamples = 12\nvalue = [6, 6]", fillcolor="#e5813900"] ;
135 -> 136 ;
137 [label="gini = 0.05\nsamples = 156\nvalue = [4, 152]", fillcolor="#399de5f8"] ;
135 -> 137 ;
138 [label="due_vs_submission_date <= 1.993\ngini = 0.054\nsamples = 1873\nvalue = [52, 1821]", fillcolor="#399de5f8"] ;
116 -> 138 ;
139 [label="due_vs_submission_date <= 1.09\ngini = 0.103\nsamples = 863\nvalue = [47, 816]", fillcolor="#399de5f0"] ;
138 -> 139 ;
140 [label="resource_clicks_by_interval_change <= 22.008\ngini = 0.068\nsamples = 846\nvalue = [30, 816]", fillcolor="#399de5f6"] ;
139 -> 140 ;
141 [label="quiz_clicks_by_interval <= 0.5\ngini = 0.056\nsamples = 799\nvalue = [23, 776]", fillcolor="#399de5f7"] ;
140 -> 141 ;
142 [label="gini = 0.134\nsamples = 208\nvalue = [15, 193]", fillcolor="#399de5eb"] ;
141 -> 142 ;
143 [label="gini = 0.027\nsamples = 591\nvalue = [8, 583]", fillcolor="#399de5fc"] ;
141 -> 143 ;
144 [label="resource_clicks_by_interval <= 27.992\ngini = 0.254\nsamples = 47\nvalue = [7, 40]", fillcolor="#399de5d2"] ;
140 -> 144 ;
145 [label="gini = 0.469\nsamples = 8\nvalue = [5, 3]", fillcolor="#e5813966"] ;
144 -> 145 ;
146 [label="gini = 0.097\nsamples = 39\nvalue = [2, 37]", fillcolor="#399de5f1"] ;
144 -> 146 ;
147 [label="gini = 0.0\nsamples = 17\nvalue = [17, 0]", fillcolor="#e58139ff"] ;
139 -> 147 ;
148 [label="subpage_clicks_by_interval_change <= 47.359\ngini = 0.01\nsamples = 1010\nvalue = [5, 1005]", fillcolor="#399de5fe"] ;
138 -> 148 ;
149 [label="homepage_clicks_by_interval <= 20.5\ngini = 0.006\nsamples = 989\nvalue = [3, 986]", fillcolor="#399de5fe"] ;
148 -> 149 ;
150 [label="forumng_clicks_by_interval_change <= 11.5\ngini = 0.029\nsamples = 206\nvalue = [3, 203]", fillcolor="#399de5fb"] ;
149 -> 150 ;
151 [label="gini = 0.011\nsamples = 179\nvalue = [1, 178]", fillcolor="#399de5fe"] ;
150 -> 151 ;
152 [label="gini = 0.137\nsamples = 27\nvalue = [2, 25]", fillcolor="#399de5eb"] ;
150 -> 152 ;
153 [label="gini = 0.0\nsamples = 783\nvalue = [0, 783]", fillcolor="#399de5ff"] ;
149 -> 153 ;
154 [label="forumng_clicks_by_interval_change <= -3.982\ngini = 0.172\nsamples = 21\nvalue = [2, 19]", fillcolor="#399de5e4"] ;
148 -> 154 ;
155 [label="due_vs_submission_date <= 13.0\ngini = 0.444\nsamples = 3\nvalue = [2, 1]", fillcolor="#e581397f"] ;
154 -> 155 ;
156 [label="gini = 0.0\nsamples = 2\nvalue = [2, 0]", fillcolor="#e58139ff"] ;
155 -> 156 ;
157 [label="gini = 0.0\nsamples = 1\nvalue = [0, 1]", fillcolor="#399de5ff"] ;
155 -> 157 ;
158 [label="gini = 0.0\nsamples = 18\nvalue = [0, 18]", fillcolor="#399de5ff"] ;
154 -> 158 ;
}