digraph Tree {
node [shape=box, style="filled", color="black"] ;
0 [label="due_vs_submission_date <= 1.0\ngini = 0.5\nsamples = 48936\nvalue = [24468, 24468]", fillcolor="#e5813900"] ;
1 [label="gini = 0.476\nsamples = 32022\nvalue = [19535, 12487]", fillcolor="#e581395c"] ;
0 -> 1 [labeldistance=2.5, labelangle=45, headlabel="True"] ;
2 [label="gini = 0.413\nsamples = 16914\nvalue = [4933, 11981]", fillcolor="#399de596"] ;
0 -> 2 [labeldistance=2.5, labelangle=-45, headlabel="False"] ;
}