digraph Tree {
node [shape=box, style="filled", color="black"] ;
0 [label="due_vs_submission_date <= 1.0\ngini = 0.5\nsamples = 48936\nvalue = [24468, 24468]", fillcolor="#e5813900"] ;
1 [label="due_vs_submission_date <= 0.0\ngini = 0.476\nsamples = 32049\nvalue = [19562, 12487]", fillcolor="#e581395c"] ;
0 -> 1 [labeldistance=2.5, labelangle=45, headlabel="True"] ;
2 [label="url_clicks_by_interval <= 1.0\ngini = 0.49\nsamples = 29103\nvalue = [16616, 12487]", fillcolor="#e581393f"] ;
1 -> 2 ;
3 [label="url_clicks_by_interval <= 0.0\ngini = 0.425\nsamples = 14573\nvalue = [10110, 4463]", fillcolor="#e581398e"] ;
2 -> 3 ;
4 [label="date <= 114.005\ngini = 0.479\nsamples = 11219\nvalue = [6756, 4463]", fillcolor="#e5813957"] ;
3 -> 4 ;
5 [label="forumng_clicks_by_interval <= 8.977\ngini = 0.498\nsamples = 5275\nvalue = [2490, 2785]", fillcolor="#399de51b"] ;
4 -> 5 ;
6 [label="due_vs_submission_date <= -0.001\ngini = 0.493\nsamples = 3928\nvalue = [2199, 1729]", fillcolor="#e5813937"] ;
5 -> 6 ;
7 [label="assessment_type_TMA <= 0.003\ngini = 0.448\nsamples = 2550\nvalue = [1685, 865]", fillcolor="#e581397c"] ;
6 -> 7 ;
8 [label="homepage_clicks_by_interval <= 8.976\ngini = 0.472\nsamples = 558\nvalue = [213, 345]", fillcolor="#399de562"] ;
7 -> 8 ;
9 [label="gini = 0.499\nsamples = 281\nvalue = [148, 133]", fillcolor="#e581391a"] ;
8 -> 9 ;
10 [label="gini = 0.359\nsamples = 277\nvalue = [65, 212]", fillcolor="#399de5b1"] ;
8 -> 10 ;
11 [label="due_vs_submission_date <= -0.996\ngini = 0.386\nsamples = 1992\nvalue = [1472, 520]", fillcolor="#e58139a5"] ;
7 -> 11 ;
12 [label="gini = 0.419\nsamples = 1743\nvalue = [1223, 520]", fillcolor="#e5813993"] ;
11 -> 12 ;
13 [label="gini = 0.0\nsamples = 249\nvalue = [249, 0]", fillcolor="#e58139ff"] ;
11 -> 13 ;
14 [label="homepage_clicks_by_interval_change <= -15.897\ngini = 0.468\nsamples = 1378\nvalue = [514, 864]", fillcolor="#399de567"] ;
6 -> 14 ;
15 [label="weight <= 12.571\ngini = 0.187\nsamples = 317\nvalue = [33, 284]", fillcolor="#399de5e1"] ;
14 -> 15 ;
16 [label="gini = 0.122\nsamples = 245\nvalue = [16, 229]", fillcolor="#399de5ed"] ;
15 -> 16 ;
17 [label="gini = 0.361\nsamples = 72\nvalue = [17, 55]", fillcolor="#399de5b0"] ;
15 -> 17 ;
18 [label="externalquiz_clicks_by_interval_change <= -0.017\ngini = 0.496\nsamples = 1061\nvalue = [481, 580]", fillcolor="#399de52c"] ;
14 -> 18 ;
19 [label="gini = 0.478\nsamples = 480\nvalue = [290, 190]", fillcolor="#e5813958"] ;
18 -> 19 ;
20 [label="gini = 0.441\nsamples = 581\nvalue = [191, 390]", fillcolor="#399de582"] ;
18 -> 20 ;
21 [label="due_vs_submission_date <= -0.043\ngini = 0.339\nsamples = 1347\nvalue = [291, 1056]", fillcolor="#399de5b9"] ;
5 -> 21 ;
22 [label="ouwiki_clicks_by_interval_change <= 3.914\ngini = 0.44\nsamples = 720\nvalue = [235, 485]", fillcolor="#399de583"] ;
21 -> 22 ;
23 [label="resource_clicks_by_interval <= 4.99\ngini = 0.472\nsamples = 602\nvalue = [230, 372]", fillcolor="#399de561"] ;
22 -> 23 ;
24 [label="gini = 0.495\nsamples = 431\nvalue = [195, 236]", fillcolor="#399de52c"] ;
23 -> 24 ;
25 [label="gini = 0.326\nsamples = 171\nvalue = [35, 136]", fillcolor="#399de5bd"] ;
23 -> 25 ;
26 [label="ouelluminate_clicks_by_interval <= 13.854\ngini = 0.081\nsamples = 118\nvalue = [5, 113]", fillcolor="#399de5f4"] ;
22 -> 26 ;
27 [label="gini = 0.05\nsamples = 116\nvalue = [3, 113]", fillcolor="#399de5f8"] ;
26 -> 27 ;
28 [label="gini = 0.0\nsamples = 2\nvalue = [2, 0]", fillcolor="#e58139ff"] ;
26 -> 28 ;
29 [label="oucontent_clicks_by_interval_change <= 24.013\ngini = 0.163\nsamples = 627\nvalue = [56, 571]", fillcolor="#399de5e6"] ;
21 -> 29 ;
30 [label="date <= 111.206\ngini = 0.116\nsamples = 534\nvalue = [33, 501]", fillcolor="#399de5ee"] ;
29 -> 30 ;
31 [label="gini = 0.107\nsamples = 531\nvalue = [30, 501]", fillcolor="#399de5f0"] ;
30 -> 31 ;
32 [label="gini = 0.0\nsamples = 3\nvalue = [3, 0]", fillcolor="#e58139ff"] ;
30 -> 32 ;
33 [label="glossary_clicks_by_interval_change <= -2.029\ngini = 0.372\nsamples = 93\nvalue = [23, 70]", fillcolor="#399de5ab"] ;
29 -> 33 ;
34 [label="gini = 0.18\nsamples = 10\nvalue = [9, 1]", fillcolor="#e58139e3"] ;
33 -> 34 ;
35 [label="gini = 0.28\nsamples = 83\nvalue = [14, 69]", fillcolor="#399de5cb"] ;
33 -> 35 ;
36 [label="externalquiz_clicks_by_interval_change <= 2.0\ngini = 0.405\nsamples = 5944\nvalue = [4266, 1678]", fillcolor="#e581399b"] ;
4 -> 36 ;
37 [label="due_vs_submission_date <= -0.001\ngini = 0.385\nsamples = 5640\nvalue = [4171, 1469]", fillcolor="#e58139a5"] ;
36 -> 37 ;
38 [label="assessment_type_CMA <= 0.999\ngini = 0.311\nsamples = 3569\nvalue = [2883, 686]", fillcolor="#e58139c2"] ;
37 -> 38 ;
39 [label="homepage_clicks_by_interval <= 0.008\ngini = 0.257\nsamples = 2783\nvalue = [2361, 422]", fillcolor="#e58139d1"] ;
38 -> 39 ;
40 [label="gini = 0.499\nsamples = 126\nvalue = [66, 60]", fillcolor="#e5813917"] ;
39 -> 40 ;
41 [label="gini = 0.235\nsamples = 2657\nvalue = [2295, 362]", fillcolor="#e58139d7"] ;
39 -> 41 ;
42 [label="externalquiz_clicks_by_interval <= 0.004\ngini = 0.446\nsamples = 786\nvalue = [522, 264]", fillcolor="#e581397e"] ;
38 -> 42 ;
43 [label="gini = 0.255\nsamples = 80\nvalue = [12, 68]", fillcolor="#399de5d2"] ;
42 -> 43 ;
44 [label="gini = 0.401\nsamples = 706\nvalue = [510, 196]", fillcolor="#e581399d"] ;
42 -> 44 ;
45 [label="forumng_clicks_by_interval_change <= -11.889\ngini = 0.47\nsamples = 2071\nvalue = [1288, 783]", fillcolor="#e5813964"] ;
37 -> 45 ;
46 [label="url_clicks_by_interval_change <= -4.857\ngini = 0.435\nsamples = 391\nvalue = [125, 266]", fillcolor="#399de587"] ;
45 -> 46 ;
47 [label="gini = 0.249\nsamples = 103\nvalue = [15, 88]", fillcolor="#399de5d4"] ;
46 -> 47 ;
48 [label="gini = 0.472\nsamples = 288\nvalue = [110, 178]", fillcolor="#399de561"] ;
46 -> 48 ;
49 [label="homepage_clicks_by_interval <= 24.823\ngini = 0.426\nsamples = 1680\nvalue = [1163, 517]", fillcolor="#e581398e"] ;
45 -> 49 ;
50 [label="gini = 0.383\nsamples = 1462\nvalue = [1085, 377]", fillcolor="#e58139a6"] ;
49 -> 50 ;
51 [label="gini = 0.46\nsamples = 218\nvalue = [78, 140]", fillcolor="#399de571"] ;
49 -> 51 ;
52 [label="url_clicks_by_interval_change <= -0.003\ngini = 0.43\nsamples = 304\nvalue = [95, 209]", fillcolor="#399de58b"] ;
36 -> 52 ;
53 [label="externalquiz_clicks_by_interval <= 2.998\ngini = 0.5\nsamples = 101\nvalue = [51, 50]", fillcolor="#e5813905"] ;
52 -> 53 ;
54 [label="externalquiz_clicks_by_interval <= 2.011\ngini = 0.38\nsamples = 55\nvalue = [41, 14]", fillcolor="#e58139a8"] ;
53 -> 54 ;
55 [label="gini = 0.495\nsamples = 31\nvalue = [17, 14]", fillcolor="#e581392d"] ;
54 -> 55 ;
56 [label="gini = 0.0\nsamples = 24\nvalue = [24, 0]", fillcolor="#e58139ff"] ;
54 -> 56 ;
57 [label="date <= 206.5\ngini = 0.34\nsamples = 46\nvalue = [10, 36]", fillcolor="#399de5b8"] ;
53 -> 57 ;
58 [label="gini = 0.245\nsamples = 42\nvalue = [6, 36]", fillcolor="#399de5d4"] ;
57 -> 58 ;
59 [label="gini = 0.0\nsamples = 4\nvalue = [4, 0]", fillcolor="#e58139ff"] ;
57 -> 59 ;
60 [label="date <= 115.22\ngini = 0.34\nsamples = 203\nvalue = [44, 159]", fillcolor="#399de5b8"] ;
52 -> 60 ;
61 [label="gini = 0.0\nsamples = 4\nvalue = [4, 0]", fillcolor="#e58139ff"] ;
60 -> 61 ;
62 [label="forumng_clicks_by_interval_change <= 0.5\ngini = 0.321\nsamples = 199\nvalue = [40, 159]", fillcolor="#399de5bf"] ;
60 -> 62 ;
63 [label="gini = 0.427\nsamples = 97\nvalue = [30, 67]", fillcolor="#399de58d"] ;
62 -> 63 ;
64 [label="gini = 0.177\nsamples = 102\nvalue = [10, 92]", fillcolor="#399de5e3"] ;
62 -> 64 ;
65 [label="gini = 0.0\nsamples = 3354\nvalue = [3354, 0]", fillcolor="#e58139ff"] ;
3 -> 65 ;
66 [label="due_vs_submission_date <= -0.0\ngini = 0.495\nsamples = 14530\nvalue = [6506, 8024]", fillcolor="#399de530"] ;
2 -> 66 ;
67 [label="assessment_type_TMA <= 0.001\ngini = 0.498\nsamples = 9376\nvalue = [4947, 4429]", fillcolor="#e581391b"] ;
66 -> 67 ;
68 [label="due_vs_submission_date <= -3.0\ngini = 0.443\nsamples = 4803\nvalue = [1590, 3213]", fillcolor="#399de581"] ;
67 -> 68 ;
69 [label="due_vs_submission_date <= -8.93\ngini = 0.17\nsamples = 139\nvalue = [126, 13]", fillcolor="#e58139e5"] ;
68 -> 69 ;
70 [label="weight <= 3.46\ngini = 0.422\nsamples = 43\nvalue = [30, 13]", fillcolor="#e5813991"] ;
69 -> 70 ;
71 [label="homepage_clicks_by_interval <= 26.0\ngini = 0.488\nsamples = 19\nvalue = [8, 11]", fillcolor="#399de546"] ;
70 -> 71 ;
72 [label="gini = 0.346\nsamples = 9\nvalue = [7, 2]", fillcolor="#e58139b6"] ;
71 -> 72 ;
73 [label="gini = 0.18\nsamples = 10\nvalue = [1, 9]", fillcolor="#399de5e3"] ;
71 -> 73 ;
74 [label="homepage_clicks_by_interval_change <= -22.191\ngini = 0.153\nsamples = 24\nvalue = [22, 2]", fillcolor="#e58139e8"] ;
70 -> 74 ;
75 [label="gini = 0.0\nsamples = 2\nvalue = [0, 2]", fillcolor="#399de5ff"] ;
74 -> 75 ;
76 [label="gini = 0.0\nsamples = 22\nvalue = [22, 0]", fillcolor="#e58139ff"] ;
74 -> 76 ;
77 [label="gini = 0.0\nsamples = 96\nvalue = [96, 0]", fillcolor="#e58139ff"] ;
69 -> 77 ;
78 [label="due_vs_submission_date <= -3.0\ngini = 0.431\nsamples = 4664\nvalue = [1464, 3200]", fillcolor="#399de58a"] ;
68 -> 78 ;
79 [label="date <= 57.7\ngini = 0.355\nsamples = 2595\nvalue = [598, 1997]", fillcolor="#399de5b3"] ;
78 -> 79 ;
80 [label="subpage_clicks_by_interval <= 4.87\ngini = 0.092\nsamples = 665\nvalue = [32, 633]", fillcolor="#399de5f2"] ;
79 -> 80 ;
81 [label="gini = 0.444\nsamples = 27\nvalue = [9, 18]", fillcolor="#399de57f"] ;
80 -> 81 ;
82 [label="gini = 0.07\nsamples = 638\nvalue = [23, 615]", fillcolor="#399de5f5"] ;
80 -> 82 ;
83 [label="url_clicks_by_interval <= 3.989\ngini = 0.415\nsamples = 1930\nvalue = [566, 1364]", fillcolor="#399de595"] ;
79 -> 83 ;
84 [label="gini = 0.484\nsamples = 882\nvalue = [363, 519]", fillcolor="#399de54d"] ;
83 -> 84 ;
85 [label="gini = 0.312\nsamples = 1048\nvalue = [203, 845]", fillcolor="#399de5c2"] ;
83 -> 85 ;
86 [label="forumng_clicks_by_interval <= 58.968\ngini = 0.487\nsamples = 2069\nvalue = [866, 1203]", fillcolor="#399de547"] ;
78 -> 86 ;
87 [label="externalquiz_clicks_by_interval <= 1.001\ngini = 0.5\nsamples = 1506\nvalue = [742, 764]", fillcolor="#399de507"] ;
86 -> 87 ;
88 [label="gini = 0.347\nsamples = 277\nvalue = [62, 215]", fillcolor="#399de5b5"] ;
87 -> 88 ;
89 [label="gini = 0.494\nsamples = 1229\nvalue = [680, 549]", fillcolor="#e5813931"] ;
87 -> 89 ;
90 [label="due_vs_submission_date <= -2.026\ngini = 0.343\nsamples = 563\nvalue = [124, 439]", fillcolor="#399de5b7"] ;
86 -> 90 ;
91 [label="gini = 0.0\nsamples = 18\nvalue = [18, 0]", fillcolor="#e58139ff"] ;
90 -> 91 ;
92 [label="gini = 0.313\nsamples = 545\nvalue = [106, 439]", fillcolor="#399de5c1"] ;
90 -> 92 ;
93 [label="assessment_type_TMA <= 1.0\ngini = 0.39\nsamples = 4573\nvalue = [3357, 1216]", fillcolor="#e58139a3"] ;
67 -> 93 ;
94 [label="gini = 0.0\nsamples = 1185\nvalue = [1185, 0]", fillcolor="#e58139ff"] ;
93 -> 94 ;
95 [label="due_vs_submission_date <= -0.998\ngini = 0.46\nsamples = 3388\nvalue = [2172, 1216]", fillcolor="#e5813970"] ;
93 -> 95 ;
96 [label="date <= 111.038\ngini = 0.484\nsamples = 2957\nvalue = [1741, 1216]", fillcolor="#e581394d"] ;
95 -> 96 ;
97 [label="due_vs_submission_date <= -1.006\ngini = 0.488\nsamples = 1174\nvalue = [495, 679]", fillcolor="#399de545"] ;
96 -> 97 ;
98 [label="gini = 0.498\nsamples = 1034\nvalue = [485, 549]", fillcolor="#399de51e"] ;
97 -> 98 ;
99 [label="gini = 0.133\nsamples = 140\nvalue = [10, 130]", fillcolor="#399de5eb"] ;
97 -> 99 ;
100 [label="weight <= 24.962\ngini = 0.421\nsamples = 1783\nvalue = [1246, 537]", fillcolor="#e5813991"] ;
96 -> 100 ;
101 [label="gini = 0.369\nsamples = 1431\nvalue = [1082, 349]", fillcolor="#e58139ad"] ;
100 -> 101 ;
102 [label="gini = 0.498\nsamples = 352\nvalue = [164, 188]", fillcolor="#399de521"] ;
100 -> 102 ;
103 [label="gini = 0.0\nsamples = 431\nvalue = [431, 0]", fillcolor="#e58139ff"] ;
95 -> 103 ;
104 [label="date <= 111.721\ngini = 0.422\nsamples = 5154\nvalue = [1559, 3595]", fillcolor="#399de590"] ;
66 -> 104 ;
105 [label="forumng_clicks_by_interval <= 5.979\ngini = 0.247\nsamples = 2530\nvalue = [366, 2164]", fillcolor="#399de5d4"] ;
104 -> 105 ;
106 [label="forumng_clicks_by_interval <= 0.012\ngini = 0.379\nsamples = 775\nvalue = [197, 578]", fillcolor="#399de5a8"] ;
105 -> 106 ;
107 [label="subpage_clicks_by_interval_change <= -74.5\ngini = 0.257\nsamples = 449\nvalue = [68, 381]", fillcolor="#399de5d1"] ;
106 -> 107 ;
108 [label="url_clicks_by_interval_change <= -22.0\ngini = 0.408\nsamples = 14\nvalue = [10, 4]", fillcolor="#e5813999"] ;
107 -> 108 ;
109 [label="gini = 0.0\nsamples = 10\nvalue = [10, 0]", fillcolor="#e58139ff"] ;
108 -> 109 ;
110 [label="gini = 0.0\nsamples = 4\nvalue = [0, 4]", fillcolor="#399de5ff"] ;
108 -> 110 ;
111 [label="homepage_clicks_by_interval <= 2.821\ngini = 0.231\nsamples = 435\nvalue = [58, 377]", fillcolor="#399de5d8"] ;
107 -> 111 ;
112 [label="gini = 0.496\nsamples = 22\nvalue = [12, 10]", fillcolor="#e581392a"] ;
111 -> 112 ;
113 [label="gini = 0.198\nsamples = 413\nvalue = [46, 367]", fillcolor="#399de5df"] ;
111 -> 113 ;
114 [label="forumng_clicks_by_interval <= 1.981\ngini = 0.478\nsamples = 326\nvalue = [129, 197]", fillcolor="#399de558"] ;
106 -> 114 ;
115 [label="forumng_clicks_by_interval <= 1.016\ngini = 0.416\nsamples = 78\nvalue = [55, 23]", fillcolor="#e5813994"] ;
114 -> 115 ;
116 [label="gini = 0.499\nsamples = 44\nvalue = [21, 23]", fillcolor="#399de516"] ;
115 -> 116 ;
117 [label="gini = 0.0\nsamples = 34\nvalue = [34, 0]", fillcolor="#e58139ff"] ;
115 -> 117 ;
118 [label="ouwiki_clicks_by_interval_change <= -0.874\ngini = 0.419\nsamples = 248\nvalue = [74, 174]", fillcolor="#399de593"] ;
114 -> 118 ;
119 [label="gini = 0.134\nsamples = 83\nvalue = [6, 77]", fillcolor="#399de5eb"] ;
118 -> 119 ;
120 [label="gini = 0.485\nsamples = 165\nvalue = [68, 97]", fillcolor="#399de54c"] ;
118 -> 120 ;
121 [label="url_clicks_by_interval_change <= 1.021\ngini = 0.174\nsamples = 1755\nvalue = [169, 1586]", fillcolor="#399de5e4"] ;
105 -> 121 ;
122 [label="homepage_clicks_by_interval <= 1.506\ngini = 0.084\nsamples = 961\nvalue = [42, 919]", fillcolor="#399de5f3"] ;
121 -> 122 ;
123 [label="forumng_clicks_by_interval <= 14.5\ngini = 0.444\nsamples = 3\nvalue = [2, 1]", fillcolor="#e581397f"] ;
122 -> 123 ;
124 [label="gini = 0.0\nsamples = 2\nvalue = [2, 0]", fillcolor="#e58139ff"] ;
123 -> 124 ;
125 [label="gini = 0.0\nsamples = 1\nvalue = [0, 1]", fillcolor="#399de5ff"] ;
123 -> 125 ;
126 [label="externalquiz_clicks_by_interval_change <= 7.5\ngini = 0.08\nsamples = 958\nvalue = [40, 918]", fillcolor="#399de5f4"] ;
122 -> 126 ;
127 [label="gini = 0.078\nsamples = 957\nvalue = [39, 918]", fillcolor="#399de5f4"] ;
126 -> 127 ;
128 [label="gini = 0.0\nsamples = 1\nvalue = [1, 0]", fillcolor="#e58139ff"] ;
126 -> 128 ;
129 [label="url_clicks_by_interval_change <= 1.996\ngini = 0.269\nsamples = 794\nvalue = [127, 667]", fillcolor="#399de5ce"] ;
121 -> 129 ;
130 [label="gini = 0.0\nsamples = 27\nvalue = [27, 0]", fillcolor="#e58139ff"] ;
129 -> 130 ;
131 [label="subpage_clicks_by_interval <= 26.837\ngini = 0.227\nsamples = 767\nvalue = [100, 667]", fillcolor="#399de5d9"] ;
129 -> 131 ;
132 [label="gini = 0.336\nsamples = 356\nvalue = [76, 280]", fillcolor="#399de5ba"] ;
131 -> 132 ;
133 [label="gini = 0.11\nsamples = 411\nvalue = [24, 387]", fillcolor="#399de5ef"] ;
131 -> 133 ;
134 [label="url_clicks_by_interval <= 4.0\ngini = 0.496\nsamples = 2624\nvalue = [1193, 1431]", fillcolor="#399de52a"] ;
104 -> 134 ;
135 [label="url_clicks_by_interval <= 3.017\ngini = 0.494\nsamples = 1577\nvalue = [874, 703]", fillcolor="#e5813932"] ;
134 -> 135 ;
136 [label="url_clicks_by_interval <= 2.993\ngini = 0.499\nsamples = 1474\nvalue = [771, 703]", fillcolor="#e5813916"] ;
135 -> 136 ;
137 [label="url_clicks_by_interval <= 2.002\ngini = 0.492\nsamples = 1283\nvalue = [725, 558]", fillcolor="#e581393b"] ;
136 -> 137 ;
138 [label="gini = 0.5\nsamples = 1147\nvalue = [589, 558]", fillcolor="#e581390d"] ;
137 -> 138 ;
139 [label="gini = 0.0\nsamples = 136\nvalue = [136, 0]", fillcolor="#e58139ff"] ;
137 -> 139 ;
140 [label="forumng_clicks_by_interval_change <= -192.0\ngini = 0.366\nsamples = 191\nvalue = [46, 145]", fillcolor="#399de5ae"] ;
136 -> 140 ;
141 [label="gini = 0.198\nsamples = 9\nvalue = [8, 1]", fillcolor="#e58139df"] ;
140 -> 141 ;
142 [label="gini = 0.33\nsamples = 182\nvalue = [38, 144]", fillcolor="#399de5bc"] ;
140 -> 142 ;
143 [label="gini = 0.0\nsamples = 103\nvalue = [103, 0]", fillcolor="#e58139ff"] ;
135 -> 143 ;
144 [label="date <= 195.076\ngini = 0.424\nsamples = 1047\nvalue = [319, 728]", fillcolor="#399de58f"] ;
134 -> 144 ;
145 [label="glossary_clicks_by_interval_change <= -0.032\ngini = 0.344\nsamples = 688\nvalue = [152, 536]", fillcolor="#399de5b7"] ;
144 -> 145 ;
146 [label="forumng_clicks_by_interval <= 8.777\ngini = 0.496\nsamples = 88\nvalue = [40, 48]", fillcolor="#399de52a"] ;
145 -> 146 ;
147 [label="gini = 0.32\nsamples = 30\nvalue = [24, 6]", fillcolor="#e58139bf"] ;
146 -> 147 ;
148 [label="gini = 0.4\nsamples = 58\nvalue = [16, 42]", fillcolor="#399de59e"] ;
146 -> 148 ;
149 [label="externalquiz_clicks_by_interval_change <= -0.035\ngini = 0.304\nsamples = 600\nvalue = [112, 488]", fillcolor="#399de5c4"] ;
145 -> 149 ;
150 [label="gini = 0.42\nsamples = 210\nvalue = [63, 147]", fillcolor="#399de592"] ;
149 -> 150 ;
151 [label="gini = 0.22\nsamples = 390\nvalue = [49, 341]", fillcolor="#399de5da"] ;
149 -> 151 ;
152 [label="glossary_clicks_by_interval <= 0.033\ngini = 0.498\nsamples = 359\nvalue = [167, 192]", fillcolor="#399de521"] ;
144 -> 152 ;
153 [label="ouwiki_clicks_by_interval_change <= -56.5\ngini = 0.469\nsamples = 251\nvalue = [94, 157]", fillcolor="#399de566"] ;
152 -> 153 ;
154 [label="gini = 0.242\nsamples = 85\nvalue = [12, 73]", fillcolor="#399de5d5"] ;
153 -> 154 ;
155 [label="gini = 0.5\nsamples = 166\nvalue = [82, 84]", fillcolor="#399de506"] ;
153 -> 155 ;
156 [label="date <= 206.914\ngini = 0.438\nsamples = 108\nvalue = [73, 35]", fillcolor="#e5813985"] ;
152 -> 156 ;
157 [label="gini = 0.336\nsamples = 89\nvalue = [70, 19]", fillcolor="#e58139ba"] ;
156 -> 157 ;
158 [label="gini = 0.266\nsamples = 19\nvalue = [3, 16]", fillcolor="#399de5cf"] ;
156 -> 158 ;
159 [label="gini = 0.0\nsamples = 2946\nvalue = [2946, 0]", fillcolor="#e58139ff"] ;
1 -> 159 ;
160 [label="date <= 111.019\ngini = 0.412\nsamples = 16887\nvalue = [4906, 11981]", fillcolor="#399de597"] ;
0 -> 160 [labeldistance=2.5, labelangle=-45, headlabel="False"] ;
161 [label="assessment_type_TMA <= 0.992\ngini = 0.202\nsamples = 8166\nvalue = [929, 7237]", fillcolor="#399de5de"] ;
160 -> 161 ;
162 [label="assessment_type_CMA <= 0.966\ngini = 0.382\nsamples = 105\nvalue = [78, 27]", fillcolor="#e58139a7"] ;
161 -> 162 ;
163 [label="gini = 0.0\nsamples = 77\nvalue = [77, 0]", fillcolor="#e58139ff"] ;
162 -> 163 ;
164 [label="due_vs_submission_date <= 66.0\ngini = 0.069\nsamples = 28\nvalue = [1, 27]", fillcolor="#399de5f6"] ;
162 -> 164 ;
165 [label="gini = 0.0\nsamples = 24\nvalue = [0, 24]", fillcolor="#399de5ff"] ;
164 -> 165 ;
166 [label="homepage_clicks_by_interval <= 0.5\ngini = 0.375\nsamples = 4\nvalue = [1, 3]", fillcolor="#399de5aa"] ;
164 -> 166 ;
167 [label="gini = 0.0\nsamples = 3\nvalue = [0, 3]", fillcolor="#399de5ff"] ;
166 -> 167 ;
168 [label="gini = 0.0\nsamples = 1\nvalue = [1, 0]", fillcolor="#e58139ff"] ;
166 -> 168 ;
169 [label="forumng_clicks_by_interval <= 4.961\ngini = 0.189\nsamples = 8061\nvalue = [851, 7210]", fillcolor="#399de5e1"] ;
161 -> 169 ;
170 [label="forumng_clicks_by_interval_change <= -3.953\ngini = 0.334\nsamples = 2501\nvalue = [529, 1972]", fillcolor="#399de5bb"] ;
169 -> 170 ;
171 [label="page_clicks_by_interval_change <= -0.003\ngini = 0.239\nsamples = 1352\nvalue = [188, 1164]", fillcolor="#399de5d6"] ;
170 -> 171 ;
172 [label="page_clicks_by_interval_change <= -1.0\ngini = 0.5\nsamples = 71\nvalue = [36, 35]", fillcolor="#e5813907"] ;
171 -> 172 ;
173 [label="homepage_clicks_by_interval_change <= -29.0\ngini = 0.184\nsamples = 39\nvalue = [4, 35]", fillcolor="#399de5e2"] ;
172 -> 173 ;
174 [label="ouwiki_clicks_by_interval <= 3.5\ngini = 0.059\nsamples = 33\nvalue = [1, 32]", fillcolor="#399de5f7"] ;
173 -> 174 ;
175 [label="gini = 0.0\nsamples = 31\nvalue = [0, 31]", fillcolor="#399de5ff"] ;
174 -> 175 ;
176 [label="gini = 0.5\nsamples = 2\nvalue = [1, 1]", fillcolor="#e5813900"] ;
174 -> 176 ;
177 [label="homepage_clicks_by_interval_change <= -20.0\ngini = 0.5\nsamples = 6\nvalue = [3, 3]", fillcolor="#e5813900"] ;
173 -> 177 ;
178 [label="gini = 0.0\nsamples = 3\nvalue = [3, 0]", fillcolor="#e58139ff"] ;
177 -> 178 ;
179 [label="gini = 0.0\nsamples = 3\nvalue = [0, 3]", fillcolor="#399de5ff"] ;
177 -> 179 ;
180 [label="gini = 0.0\nsamples = 32\nvalue = [32, 0]", fillcolor="#e58139ff"] ;
172 -> 180 ;
181 [label="forumng_clicks_by_interval <= 4.026\ngini = 0.209\nsamples = 1281\nvalue = [152, 1129]", fillcolor="#399de5dd"] ;
171 -> 181 ;
182 [label="ouelluminate_clicks_by_interval_change <= -0.029\ngini = 0.204\nsamples = 1276\nvalue = [147, 1129]", fillcolor="#399de5de"] ;
181 -> 182 ;
183 [label="ouelluminate_clicks_by_interval_change <= -0.993\ngini = 0.306\nsamples = 413\nvalue = [78, 335]", fillcolor="#399de5c4"] ;
182 -> 183 ;
184 [label="gini = 0.223\nsamples = 384\nvalue = [49, 335]", fillcolor="#399de5da"] ;
183 -> 184 ;
185 [label="gini = 0.0\nsamples = 29\nvalue = [29, 0]", fillcolor="#e58139ff"] ;
183 -> 185 ;
186 [label="oucontent_clicks_by_interval_change <= 9.111\ngini = 0.147\nsamples = 863\nvalue = [69, 794]", fillcolor="#399de5e9"] ;
182 -> 186 ;
187 [label="gini = 0.122\nsamples = 784\nvalue = [51, 733]", fillcolor="#399de5ed"] ;
186 -> 187 ;
188 [label="gini = 0.352\nsamples = 79\nvalue = [18, 61]", fillcolor="#399de5b4"] ;
186 -> 188 ;
189 [label="gini = 0.0\nsamples = 5\nvalue = [5, 0]", fillcolor="#e58139ff"] ;
181 -> 189 ;
190 [label="homepage_clicks_by_interval_change <= -4.073\ngini = 0.417\nsamples = 1149\nvalue = [341, 808]", fillcolor="#399de593"] ;
170 -> 190 ;
191 [label="homepage_clicks_by_interval_change <= -8.989\ngini = 0.499\nsamples = 343\nvalue = [179, 164]", fillcolor="#e5813915"] ;
190 -> 191 ;
192 [label="oucontent_clicks_by_interval <= 10.146\ngini = 0.467\nsamples = 196\nvalue = [73, 123]", fillcolor="#399de568"] ;
191 -> 192 ;
193 [label="subpage_clicks_by_interval_change <= -7.992\ngini = 0.32\nsamples = 115\nvalue = [23, 92]", fillcolor="#399de5bf"] ;
192 -> 193 ;
194 [label="gini = 0.167\nsamples = 76\nvalue = [7, 69]", fillcolor="#399de5e5"] ;
193 -> 194 ;
195 [label="gini = 0.484\nsamples = 39\nvalue = [16, 23]", fillcolor="#399de54e"] ;
193 -> 195 ;
196 [label="url_clicks_by_interval_change <= -0.001\ngini = 0.472\nsamples = 81\nvalue = [50, 31]", fillcolor="#e5813961"] ;
192 -> 196 ;
197 [label="gini = 0.415\nsamples = 68\nvalue = [48, 20]", fillcolor="#e5813995"] ;
196 -> 197 ;
198 [label="gini = 0.26\nsamples = 13\nvalue = [2, 11]", fillcolor="#399de5d1"] ;
196 -> 198 ;
199 [label="url_clicks_by_interval_change <= -0.998\ngini = 0.402\nsamples = 147\nvalue = [106, 41]", fillcolor="#e581399c"] ;
191 -> 199 ;
200 [label="date <= 60.094\ngini = 0.452\nsamples = 29\nvalue = [10, 19]", fillcolor="#399de579"] ;
199 -> 200 ;
201 [label="gini = 0.444\nsamples = 15\nvalue = [10, 5]", fillcolor="#e581397f"] ;
200 -> 201 ;
202 [label="gini = 0.0\nsamples = 14\nvalue = [0, 14]", fillcolor="#399de5ff"] ;
200 -> 202 ;
203 [label="externalquiz_clicks_by_interval_change <= -0.027\ngini = 0.303\nsamples = 118\nvalue = [96, 22]", fillcolor="#e58139c5"] ;
199 -> 203 ;
204 [label="gini = 0.127\nsamples = 88\nvalue = [82, 6]", fillcolor="#e58139ec"] ;
203 -> 204 ;
205 [label="gini = 0.498\nsamples = 30\nvalue = [14, 16]", fillcolor="#399de520"] ;
203 -> 205 ;
206 [label="forumng_clicks_by_interval_change <= -0.021\ngini = 0.321\nsamples = 806\nvalue = [162, 644]", fillcolor="#399de5bf"] ;
190 -> 206 ;
207 [label="forumng_clicks_by_interval_change <= -1.992\ngini = 0.5\nsamples = 94\nvalue = [48, 46]", fillcolor="#e581390b"] ;
206 -> 207 ;
208 [label="homepage_clicks_by_interval <= 11.5\ngini = 0.32\nsamples = 40\nvalue = [8, 32]", fillcolor="#399de5bf"] ;
207 -> 208 ;
209 [label="gini = 0.472\nsamples = 21\nvalue = [8, 13]", fillcolor="#399de562"] ;
208 -> 209 ;
210 [label="gini = 0.0\nsamples = 19\nvalue = [0, 19]", fillcolor="#399de5ff"] ;
208 -> 210 ;
211 [label="oucontent_clicks_by_interval <= 5.444\ngini = 0.384\nsamples = 54\nvalue = [40, 14]", fillcolor="#e58139a6"] ;
207 -> 211 ;
212 [label="gini = 0.0\nsamples = 7\nvalue = [0, 7]", fillcolor="#399de5ff"] ;
211 -> 212 ;
213 [label="gini = 0.254\nsamples = 47\nvalue = [40, 7]", fillcolor="#e58139d2"] ;
211 -> 213 ;
214 [label="oucontent_clicks_by_interval_change <= 37.164\ngini = 0.269\nsamples = 712\nvalue = [114, 598]", fillcolor="#399de5ce"] ;
206 -> 214 ;
215 [label="resource_clicks_by_interval_change <= -1.297\ngini = 0.223\nsamples = 657\nvalue = [84, 573]", fillcolor="#399de5da"] ;
214 -> 215 ;
216 [label="gini = 0.481\nsamples = 57\nvalue = [23, 34]", fillcolor="#399de552"] ;
215 -> 216 ;
217 [label="gini = 0.183\nsamples = 600\nvalue = [61, 539]", fillcolor="#399de5e2"] ;
215 -> 217 ;
218 [label="forumng_clicks_by_interval <= 0.008\ngini = 0.496\nsamples = 55\nvalue = [30, 25]", fillcolor="#e581392a"] ;
214 -> 218 ;
219 [label="gini = 0.266\nsamples = 19\nvalue = [3, 16]", fillcolor="#399de5cf"] ;
218 -> 219 ;
220 [label="gini = 0.375\nsamples = 36\nvalue = [27, 9]", fillcolor="#e58139aa"] ;
218 -> 220 ;
221 [label="subpage_clicks_by_interval <= 6.983\ngini = 0.109\nsamples = 5560\nvalue = [322, 5238]", fillcolor="#399de5ef"] ;
169 -> 221 ;
222 [label="subpage_clicks_by_interval <= 6.168\ngini = 0.214\nsamples = 1157\nvalue = [141, 1016]", fillcolor="#399de5dc"] ;
221 -> 222 ;
223 [label="resource_clicks_by_interval_change <= 1.012\ngini = 0.195\nsamples = 1141\nvalue = [125, 1016]", fillcolor="#399de5e0"] ;
222 -> 223 ;
224 [label="homepage_clicks_by_interval <= 10.851\ngini = 0.134\nsamples = 871\nvalue = [63, 808]", fillcolor="#399de5eb"] ;
223 -> 224 ;
225 [label="resource_clicks_by_interval_change <= -5.843\ngini = 0.246\nsamples = 348\nvalue = [50, 298]", fillcolor="#399de5d4"] ;
224 -> 225 ;
226 [label="gini = 0.057\nsamples = 169\nvalue = [5, 164]", fillcolor="#399de5f7"] ;
225 -> 226 ;
227 [label="gini = 0.376\nsamples = 179\nvalue = [45, 134]", fillcolor="#399de5a9"] ;
225 -> 227 ;
228 [label="resource_clicks_by_interval <= 11.33\ngini = 0.048\nsamples = 523\nvalue = [13, 510]", fillcolor="#399de5f8"] ;
224 -> 228 ;
229 [label="gini = 0.034\nsamples = 514\nvalue = [9, 505]", fillcolor="#399de5fa"] ;
228 -> 229 ;
230 [label="gini = 0.494\nsamples = 9\nvalue = [4, 5]", fillcolor="#399de533"] ;
228 -> 230 ;
231 [label="resource_clicks_by_interval_change <= 1.93\ngini = 0.354\nsamples = 270\nvalue = [62, 208]", fillcolor="#399de5b3"] ;
223 -> 231 ;
232 [label="gini = 0.0\nsamples = 13\nvalue = [13, 0]", fillcolor="#e58139ff"] ;
231 -> 232 ;
233 [label="due_vs_submission_date <= 1.095\ngini = 0.309\nsamples = 257\nvalue = [49, 208]", fillcolor="#399de5c3"] ;
231 -> 233 ;
234 [label="gini = 0.038\nsamples = 104\nvalue = [2, 102]", fillcolor="#399de5fa"] ;
233 -> 234 ;
235 [label="gini = 0.426\nsamples = 153\nvalue = [47, 106]", fillcolor="#399de58e"] ;
233 -> 235 ;
236 [label="gini = 0.0\nsamples = 16\nvalue = [16, 0]", fillcolor="#e58139ff"] ;
222 -> 236 ;
237 [label="oucontent_clicks_by_interval_change <= 20.5\ngini = 0.079\nsamples = 4403\nvalue = [181, 4222]", fillcolor="#399de5f4"] ;
221 -> 237 ;
238 [label="forumng_clicks_by_interval <= 47.5\ngini = 0.052\nsamples = 3293\nvalue = [88, 3205]", fillcolor="#399de5f8"] ;
237 -> 238 ;
239 [label="homepage_clicks_by_interval_change <= 40.356\ngini = 0.081\nsamples = 1859\nvalue = [79, 1780]", fillcolor="#399de5f4"] ;
238 -> 239 ;
240 [label="oucollaborate_clicks_by_interval_change <= -8.02\ngini = 0.064\nsamples = 1746\nvalue = [58, 1688]", fillcolor="#399de5f6"] ;
239 -> 240 ;
241 [label="gini = 0.408\nsamples = 28\nvalue = [8, 20]", fillcolor="#399de599"] ;
240 -> 241 ;
242 [label="gini = 0.057\nsamples = 1718\nvalue = [50, 1668]", fillcolor="#399de5f7"] ;
240 -> 242 ;
243 [label="ouwiki_clicks_by_interval_change <= 13.5\ngini = 0.303\nsamples = 113\nvalue = [21, 92]", fillcolor="#399de5c5"] ;
239 -> 243 ;
244 [label="gini = 0.0\nsamples = 52\nvalue = [0, 52]", fillcolor="#399de5ff"] ;
243 -> 244 ;
245 [label="gini = 0.451\nsamples = 61\nvalue = [21, 40]", fillcolor="#399de579"] ;
243 -> 245 ;
246 [label="externalquiz_clicks_by_interval_change <= 5.046\ngini = 0.012\nsamples = 1434\nvalue = [9, 1425]", fillcolor="#399de5fd"] ;
238 -> 246 ;
247 [label="forumng_clicks_by_interval <= 71.799\ngini = 0.009\nsamples = 1367\nvalue = [6, 1361]", fillcolor="#399de5fe"] ;
246 -> 247 ;
248 [label="gini = 0.022\nsamples = 446\nvalue = [5, 441]", fillcolor="#399de5fc"] ;
247 -> 248 ;
249 [label="gini = 0.002\nsamples = 921\nvalue = [1, 920]", fillcolor="#399de5ff"] ;
247 -> 249 ;
250 [label="externalquiz_clicks_by_interval_change <= 5.566\ngini = 0.086\nsamples = 67\nvalue = [3, 64]", fillcolor="#399de5f3"] ;
246 -> 250 ;
251 [label="gini = 0.0\nsamples = 2\nvalue = [2, 0]", fillcolor="#e58139ff"] ;
250 -> 251 ;
252 [label="gini = 0.03\nsamples = 65\nvalue = [1, 64]", fillcolor="#399de5fb"] ;
250 -> 252 ;
253 [label="forumng_clicks_by_interval <= 16.573\ngini = 0.154\nsamples = 1110\nvalue = [93, 1017]", fillcolor="#399de5e8"] ;
237 -> 253 ;
254 [label="resource_clicks_by_interval_change <= 8.007\ngini = 0.35\nsamples = 159\nvalue = [36, 123]", fillcolor="#399de5b4"] ;
253 -> 254 ;
255 [label="homepage_clicks_by_interval <= 22.5\ngini = 0.202\nsamples = 105\nvalue = [12, 93]", fillcolor="#399de5de"] ;
254 -> 255 ;
256 [label="gini = 0.458\nsamples = 31\nvalue = [11, 20]", fillcolor="#399de573"] ;
255 -> 256 ;
257 [label="gini = 0.027\nsamples = 74\nvalue = [1, 73]", fillcolor="#399de5fc"] ;
255 -> 257 ;
258 [label="due_vs_submission_date <= 1.029\ngini = 0.494\nsamples = 54\nvalue = [24, 30]", fillcolor="#399de533"] ;
254 -> 258 ;
259 [label="gini = 0.0\nsamples = 17\nvalue = [0, 17]", fillcolor="#399de5ff"] ;
258 -> 259 ;
260 [label="gini = 0.456\nsamples = 37\nvalue = [24, 13]", fillcolor="#e5813975"] ;
258 -> 260 ;
261 [label="resource_clicks_by_interval_change <= 3.967\ngini = 0.113\nsamples = 951\nvalue = [57, 894]", fillcolor="#399de5ef"] ;
253 -> 261 ;
262 [label="resource_clicks_by_interval_change <= 3.01\ngini = 0.256\nsamples = 219\nvalue = [33, 186]", fillcolor="#399de5d2"] ;
261 -> 262 ;
263 [label="gini = 0.182\nsamples = 207\nvalue = [21, 186]", fillcolor="#399de5e2"] ;
262 -> 263 ;
264 [label="gini = 0.0\nsamples = 12\nvalue = [12, 0]", fillcolor="#e58139ff"] ;
262 -> 264 ;
265 [label="oucontent_clicks_by_interval <= 21.919\ngini = 0.063\nsamples = 732\nvalue = [24, 708]", fillcolor="#399de5f6"] ;
261 -> 265 ;
266 [label="gini = 0.326\nsamples = 39\nvalue = [8, 31]", fillcolor="#399de5bd"] ;
265 -> 266 ;
267 [label="gini = 0.045\nsamples = 693\nvalue = [16, 677]", fillcolor="#399de5f9"] ;
265 -> 267 ;
268 [label="url_clicks_by_interval <= 3.0\ngini = 0.496\nsamples = 8721\nvalue = [3977, 4744]", fillcolor="#399de529"] ;
160 -> 268 ;
269 [label="due_vs_submission_date <= 1.001\ngini = 0.493\nsamples = 5940\nvalue = [3332, 2608]", fillcolor="#e5813937"] ;
268 -> 269 ;
270 [label="url_clicks_by_interval <= 2.022\ngini = 0.416\nsamples = 1095\nvalue = [323, 772]", fillcolor="#399de594"] ;
269 -> 270 ;
271 [label="date <= 196.175\ngini = 0.395\nsamples = 1059\nvalue = [287, 772]", fillcolor="#399de5a0"] ;
270 -> 271 ;
272 [label="homepage_clicks_by_interval_change <= -39.0\ngini = 0.349\nsamples = 836\nvalue = [188, 648]", fillcolor="#399de5b5"] ;
271 -> 272 ;
273 [label="homepage_clicks_by_interval <= 20.0\ngini = 0.058\nsamples = 133\nvalue = [4, 129]", fillcolor="#399de5f7"] ;
272 -> 273 ;
274 [label="homepage_clicks_by_interval <= 0.5\ngini = 0.017\nsamples = 120\nvalue = [1, 119]", fillcolor="#399de5fd"] ;
273 -> 274 ;
275 [label="gini = 0.5\nsamples = 2\nvalue = [1, 1]", fillcolor="#e5813900"] ;
274 -> 275 ;
276 [label="gini = 0.0\nsamples = 118\nvalue = [0, 118]", fillcolor="#399de5ff"] ;
274 -> 276 ;
277 [label="subpage_clicks_by_interval <= 8.5\ngini = 0.355\nsamples = 13\nvalue = [3, 10]", fillcolor="#399de5b3"] ;
273 -> 277 ;
278 [label="gini = 0.48\nsamples = 5\nvalue = [3, 2]", fillcolor="#e5813955"] ;
277 -> 278 ;
279 [label="gini = 0.0\nsamples = 8\nvalue = [0, 8]", fillcolor="#399de5ff"] ;
277 -> 279 ;
280 [label="glossary_clicks_by_interval <= 0.042\ngini = 0.386\nsamples = 703\nvalue = [184, 519]", fillcolor="#399de5a5"] ;
272 -> 280 ;
281 [label="subpage_clicks_by_interval_change <= 22.5\ngini = 0.363\nsamples = 643\nvalue = [153, 490]", fillcolor="#399de5af"] ;
280 -> 281 ;
282 [label="gini = 0.339\nsamples = 605\nvalue = [131, 474]", fillcolor="#399de5b9"] ;
281 -> 282 ;
283 [label="gini = 0.488\nsamples = 38\nvalue = [22, 16]", fillcolor="#e5813946"] ;
281 -> 283 ;
284 [label="glossary_clicks_by_interval <= 3.948\ngini = 0.499\nsamples = 60\nvalue = [31, 29]", fillcolor="#e5813910"] ;
280 -> 284 ;
285 [label="gini = 0.278\nsamples = 30\nvalue = [25, 5]", fillcolor="#e58139cc"] ;
284 -> 285 ;
286 [label="gini = 0.32\nsamples = 30\nvalue = [6, 24]", fillcolor="#399de5bf"] ;
284 -> 286 ;
287 [label="forumng_clicks_by_interval <= 17.764\ngini = 0.494\nsamples = 223\nvalue = [99, 124]", fillcolor="#399de533"] ;
271 -> 287 ;
288 [label="url_clicks_by_interval_change <= 0.971\ngini = 0.5\nsamples = 176\nvalue = [89, 87]", fillcolor="#e5813906"] ;
287 -> 288 ;
289 [label="forumng_clicks_by_interval_change <= 1.045\ngini = 0.485\nsamples = 145\nvalue = [85, 60]", fillcolor="#e581394b"] ;
288 -> 289 ;
290 [label="gini = 0.497\nsamples = 128\nvalue = [69, 59]", fillcolor="#e5813925"] ;
289 -> 290 ;
291 [label="gini = 0.111\nsamples = 17\nvalue = [16, 1]", fillcolor="#e58139ef"] ;
289 -> 291 ;
292 [label="forumng_clicks_by_interval_change <= 3.826\ngini = 0.225\nsamples = 31\nvalue = [4, 27]", fillcolor="#399de5d9"] ;
288 -> 292 ;
293 [label="gini = 0.128\nsamples = 29\nvalue = [2, 27]", fillcolor="#399de5ec"] ;
292 -> 293 ;
294 [label="gini = 0.0\nsamples = 2\nvalue = [2, 0]", fillcolor="#e58139ff"] ;
292 -> 294 ;
295 [label="ouwiki_clicks_by_interval_change <= -82.0\ngini = 0.335\nsamples = 47\nvalue = [10, 37]", fillcolor="#399de5ba"] ;
287 -> 295 ;
296 [label="homepage_clicks_by_interval <= 80.0\ngini = 0.497\nsamples = 13\nvalue = [7, 6]", fillcolor="#e5813924"] ;
295 -> 296 ;
297 [label="gini = 0.346\nsamples = 9\nvalue = [7, 2]", fillcolor="#e58139b6"] ;
296 -> 297 ;
298 [label="gini = 0.0\nsamples = 4\nvalue = [0, 4]", fillcolor="#399de5ff"] ;
296 -> 298 ;
299 [label="oucontent_clicks_by_interval <= 80.0\ngini = 0.161\nsamples = 34\nvalue = [3, 31]", fillcolor="#399de5e6"] ;
295 -> 299 ;
300 [label="gini = 0.114\nsamples = 33\nvalue = [2, 31]", fillcolor="#399de5ef"] ;
299 -> 300 ;
301 [label="gini = 0.0\nsamples = 1\nvalue = [1, 0]", fillcolor="#e58139ff"] ;
299 -> 301 ;
302 [label="gini = 0.0\nsamples = 36\nvalue = [36, 0]", fillcolor="#e58139ff"] ;
270 -> 302 ;
303 [label="externalquiz_clicks_by_interval_change <= 1.99\ngini = 0.471\nsamples = 4845\nvalue = [3009, 1836]", fillcolor="#e5813963"] ;
269 -> 303 ;
304 [label="due_vs_submission_date <= 1.999\ngini = 0.445\nsamples = 4321\nvalue = [2874, 1447]", fillcolor="#e581397f"] ;
303 -> 304 ;
305 [label="gini = 0.0\nsamples = 423\nvalue = [423, 0]", fillcolor="#e58139ff"] ;
304 -> 305 ;
306 [label="due_vs_submission_date <= 2.004\ngini = 0.467\nsamples = 3898\nvalue = [2451, 1447]", fillcolor="#e5813968"] ;
304 -> 306 ;
307 [label="oucontent_clicks_by_interval_change <= -35.5\ngini = 0.276\nsamples = 272\nvalue = [45, 227]", fillcolor="#399de5cc"] ;
306 -> 307 ;
308 [label="forumng_clicks_by_interval_change <= -19.0\ngini = 0.464\nsamples = 52\nvalue = [19, 33]", fillcolor="#399de56c"] ;
307 -> 308 ;
309 [label="gini = 0.137\nsamples = 27\nvalue = [2, 25]", fillcolor="#399de5eb"] ;
308 -> 309 ;
310 [label="gini = 0.435\nsamples = 25\nvalue = [17, 8]", fillcolor="#e5813987"] ;
308 -> 310 ;
311 [label="glossary_clicks_by_interval_change <= 8.386\ngini = 0.208\nsamples = 220\nvalue = [26, 194]", fillcolor="#399de5dd"] ;
307 -> 311 ;
312 [label="gini = 0.19\nsamples = 216\nvalue = [23, 193]", fillcolor="#399de5e1"] ;
311 -> 312 ;
313 [label="gini = 0.375\nsamples = 4\nvalue = [3, 1]", fillcolor="#e58139aa"] ;
311 -> 313 ;
314 [label="url_clicks_by_interval_change <= -1.0\ngini = 0.447\nsamples = 3626\nvalue = [2406, 1220]", fillcolor="#e581397e"] ;
306 -> 314 ;
315 [label="forumng_clicks_by_interval_change <= 12.987\ngini = 0.499\nsamples = 1078\nvalue = [558, 520]", fillcolor="#e5813911"] ;
314 -> 315 ;
316 [label="gini = 0.486\nsamples = 857\nvalue = [500, 357]", fillcolor="#e5813949"] ;
315 -> 316 ;
317 [label="gini = 0.387\nsamples = 221\nvalue = [58, 163]", fillcolor="#399de5a4"] ;
315 -> 317 ;
318 [label="url_clicks_by_interval_change <= -0.007\ngini = 0.399\nsamples = 2548\nvalue = [1848, 700]", fillcolor="#e581399e"] ;
314 -> 318 ;
319 [label="gini = 0.0\nsamples = 330\nvalue = [330, 0]", fillcolor="#e58139ff"] ;
318 -> 319 ;
320 [label="gini = 0.432\nsamples = 2218\nvalue = [1518, 700]", fillcolor="#e5813989"] ;
318 -> 320 ;
321 [label="url_clicks_by_interval <= 2.057\ngini = 0.383\nsamples = 524\nvalue = [135, 389]", fillcolor="#399de5a7"] ;
303 -> 321 ;
322 [label="forumng_clicks_by_interval_change <= 15.5\ngini = 0.347\nsamples = 501\nvalue = [112, 389]", fillcolor="#399de5b6"] ;
321 -> 322 ;
323 [label="externalquiz_clicks_by_interval_change <= 5.901\ngini = 0.436\nsamples = 317\nvalue = [102, 215]", fillcolor="#399de586"] ;
322 -> 323 ;
324 [label="due_vs_submission_date <= 19.182\ngini = 0.496\nsamples = 174\nvalue = [79, 95]", fillcolor="#399de52b"] ;
323 -> 324 ;
325 [label="gini = 0.361\nsamples = 93\nvalue = [22, 71]", fillcolor="#399de5b0"] ;
324 -> 325 ;
326 [label="gini = 0.417\nsamples = 81\nvalue = [57, 24]", fillcolor="#e5813994"] ;
324 -> 326 ;
327 [label="url_clicks_by_interval_change <= 1.147\ngini = 0.27\nsamples = 143\nvalue = [23, 120]", fillcolor="#399de5ce"] ;
323 -> 327 ;
328 [label="gini = 0.191\nsamples = 131\nvalue = [14, 117]", fillcolor="#399de5e0"] ;
327 -> 328 ;
329 [label="gini = 0.375\nsamples = 12\nvalue = [9, 3]", fillcolor="#e58139aa"] ;
327 -> 329 ;
330 [label="ouwiki_clicks_by_interval_change <= -10.15\ngini = 0.103\nsamples = 184\nvalue = [10, 174]", fillcolor="#399de5f0"] ;
322 -> 330 ;
331 [label="resource_clicks_by_interval <= 6.918\ngini = 0.494\nsamples = 9\nvalue = [4, 5]", fillcolor="#399de533"] ;
330 -> 331 ;
332 [label="gini = 0.0\nsamples = 4\nvalue = [4, 0]", fillcolor="#e58139ff"] ;
331 -> 332 ;
333 [label="gini = 0.0\nsamples = 5\nvalue = [0, 5]", fillcolor="#399de5ff"] ;
331 -> 333 ;
334 [label="oucontent_clicks_by_interval <= 1.5\ngini = 0.066\nsamples = 175\nvalue = [6, 169]", fillcolor="#399de5f6"] ;
330 -> 334 ;
335 [label="gini = 0.175\nsamples = 62\nvalue = [6, 56]", fillcolor="#399de5e4"] ;
334 -> 335 ;
336 [label="gini = 0.0\nsamples = 113\nvalue = [0, 113]", fillcolor="#399de5ff"] ;
334 -> 336 ;
337 [label="gini = 0.0\nsamples = 23\nvalue = [23, 0]", fillcolor="#e58139ff"] ;
321 -> 337 ;
338 [label="ouelluminate_clicks_by_interval <= 0.022\ngini = 0.356\nsamples = 2781\nvalue = [645, 2136]", fillcolor="#399de5b2"] ;
268 -> 338 ;
339 [label="date <= 200.036\ngini = 0.31\nsamples = 2519\nvalue = [484, 2035]", fillcolor="#399de5c2"] ;
338 -> 339 ;
340 [label="url_clicks_by_interval <= 6.987\ngini = 0.205\nsamples = 1519\nvalue = [176, 1343]", fillcolor="#399de5de"] ;
339 -> 340 ;
341 [label="url_clicks_by_interval <= 6.077\ngini = 0.303\nsamples = 769\nvalue = [143, 626]", fillcolor="#399de5c5"] ;
340 -> 341 ;
342 [label="externalquiz_clicks_by_interval <= 0.945\ngini = 0.277\nsamples = 751\nvalue = [125, 626]", fillcolor="#399de5cc"] ;
341 -> 342 ;
343 [label="externalquiz_clicks_by_interval <= 0.001\ngini = 0.351\nsamples = 441\nvalue = [100, 341]", fillcolor="#399de5b4"] ;
342 -> 343 ;
344 [label="gini = 0.298\nsamples = 417\nvalue = [76, 341]", fillcolor="#399de5c6"] ;
343 -> 344 ;
345 [label="gini = 0.0\nsamples = 24\nvalue = [24, 0]", fillcolor="#e58139ff"] ;
343 -> 345 ;
346 [label="homepage_clicks_by_interval_change <= 20.5\ngini = 0.148\nsamples = 310\nvalue = [25, 285]", fillcolor="#399de5e9"] ;
342 -> 346 ;
347 [label="gini = 0.057\nsamples = 206\nvalue = [6, 200]", fillcolor="#399de5f7"] ;
346 -> 347 ;
348 [label="gini = 0.299\nsamples = 104\nvalue = [19, 85]", fillcolor="#399de5c6"] ;
346 -> 348 ;
349 [label="gini = 0.0\nsamples = 18\nvalue = [18, 0]", fillcolor="#e58139ff"] ;
341 -> 349 ;
350 [label="resource_clicks_by_interval <= 43.302\ngini = 0.084\nsamples = 750\nvalue = [33, 717]", fillcolor="#399de5f3"] ;
340 -> 350 ;
351 [label="forumng_clicks_by_interval_change <= 413.076\ngini = 0.073\nsamples = 736\nvalue = [28, 708]", fillcolor="#399de5f5"] ;
350 -> 351 ;
352 [label="oucontent_clicks_by_interval_change <= -107.0\ngini = 0.071\nsamples = 735\nvalue = [27, 708]", fillcolor="#399de5f5"] ;
351 -> 352 ;
353 [label="gini = 0.0\nsamples = 1\nvalue = [1, 0]", fillcolor="#e58139ff"] ;
352 -> 353 ;
354 [label="gini = 0.068\nsamples = 734\nvalue = [26, 708]", fillcolor="#399de5f6"] ;
352 -> 354 ;
355 [label="gini = 0.0\nsamples = 1\nvalue = [1, 0]", fillcolor="#e58139ff"] ;
351 -> 355 ;
356 [label="resource_clicks_by_interval_change <= 28.695\ngini = 0.459\nsamples = 14\nvalue = [5, 9]", fillcolor="#399de571"] ;
350 -> 356 ;
357 [label="subpage_clicks_by_interval_change <= 24.0\ngini = 0.32\nsamples = 5\nvalue = [4, 1]", fillcolor="#e58139bf"] ;
356 -> 357 ;
358 [label="gini = 0.0\nsamples = 1\nvalue = [0, 1]", fillcolor="#399de5ff"] ;
357 -> 358 ;
359 [label="gini = 0.0\nsamples = 4\nvalue = [4, 0]", fillcolor="#e58139ff"] ;
357 -> 359 ;
360 [label="externalquiz_clicks_by_interval_change <= -3.5\ngini = 0.198\nsamples = 9\nvalue = [1, 8]", fillcolor="#399de5df"] ;
356 -> 360 ;
361 [label="gini = 0.0\nsamples = 1\nvalue = [1, 0]", fillcolor="#e58139ff"] ;
360 -> 361 ;
362 [label="gini = 0.0\nsamples = 8\nvalue = [0, 8]", fillcolor="#399de5ff"] ;
360 -> 362 ;
363 [label="date <= 206.932\ngini = 0.426\nsamples = 1000\nvalue = [308, 692]", fillcolor="#399de58e"] ;
339 -> 363 ;
364 [label="gini = 0.0\nsamples = 38\nvalue = [38, 0]", fillcolor="#e58139ff"] ;
363 -> 364 ;
365 [label="externalquiz_clicks_by_interval <= 1.996\ngini = 0.404\nsamples = 962\nvalue = [270, 692]", fillcolor="#399de59c"] ;
363 -> 365 ;
366 [label="externalquiz_clicks_by_interval <= 1.059\ngini = 0.479\nsamples = 437\nvalue = [174, 263]", fillcolor="#399de556"] ;
365 -> 366 ;
367 [label="externalquiz_clicks_by_interval <= 0.989\ngini = 0.462\nsamples = 412\nvalue = [149, 263]", fillcolor="#399de56f"] ;
366 -> 367 ;
368 [label="gini = 0.486\nsamples = 346\nvalue = [144, 202]", fillcolor="#399de549"] ;
367 -> 368 ;
369 [label="gini = 0.14\nsamples = 66\nvalue = [5, 61]", fillcolor="#399de5ea"] ;
367 -> 369 ;
370 [label="gini = 0.0\nsamples = 25\nvalue = [25, 0]", fillcolor="#e58139ff"] ;
366 -> 370 ;
371 [label="resource_clicks_by_interval <= 66.811\ngini = 0.299\nsamples = 525\nvalue = [96, 429]", fillcolor="#399de5c6"] ;
365 -> 371 ;
372 [label="homepage_clicks_by_interval <= 18.687\ngini = 0.266\nsamples = 494\nvalue = [78, 416]", fillcolor="#399de5cf"] ;
371 -> 372 ;
373 [label="gini = 0.444\nsamples = 21\nvalue = [14, 7]", fillcolor="#e581397f"] ;
372 -> 373 ;
374 [label="gini = 0.234\nsamples = 473\nvalue = [64, 409]", fillcolor="#399de5d7"] ;
372 -> 374 ;
375 [label="externalquiz_clicks_by_interval <= 8.0\ngini = 0.487\nsamples = 31\nvalue = [18, 13]", fillcolor="#e5813947"] ;
371 -> 375 ;
376 [label="gini = 0.18\nsamples = 20\nvalue = [18, 2]", fillcolor="#e58139e3"] ;
375 -> 376 ;
377 [label="gini = 0.0\nsamples = 11\nvalue = [0, 11]", fillcolor="#399de5ff"] ;
375 -> 377 ;
378 [label="ouelluminate_clicks_by_interval <= 1.997\ngini = 0.474\nsamples = 262\nvalue = [161, 101]", fillcolor="#e581395f"] ;
338 -> 378 ;
379 [label="homepage_clicks_by_interval <= 33.356\ngini = 0.224\nsamples = 101\nvalue = [88, 13]", fillcolor="#e58139d9"] ;
378 -> 379 ;
380 [label="externalquiz_clicks_by_interval <= 0.61\ngini = 0.483\nsamples = 22\nvalue = [13, 9]", fillcolor="#e581394e"] ;
379 -> 380 ;
381 [label="url_clicks_by_interval_change <= 6.355\ngini = 0.36\nsamples = 17\nvalue = [13, 4]", fillcolor="#e58139b1"] ;
380 -> 381 ;
382 [label="homepage_clicks_by_interval <= 19.705\ngini = 0.133\nsamples = 14\nvalue = [13, 1]", fillcolor="#e58139eb"] ;
381 -> 382 ;
383 [label="gini = 0.0\nsamples = 1\nvalue = [0, 1]", fillcolor="#399de5ff"] ;
382 -> 383 ;
384 [label="gini = 0.0\nsamples = 13\nvalue = [13, 0]", fillcolor="#e58139ff"] ;
382 -> 384 ;
385 [label="gini = 0.0\nsamples = 3\nvalue = [0, 3]", fillcolor="#399de5ff"] ;
381 -> 385 ;
386 [label="gini = 0.0\nsamples = 5\nvalue = [0, 5]", fillcolor="#399de5ff"] ;
380 -> 386 ;
387 [label="url_clicks_by_interval <= 25.268\ngini = 0.096\nsamples = 79\nvalue = [75, 4]", fillcolor="#e58139f1"] ;
379 -> 387 ;
388 [label="externalquiz_clicks_by_interval_change <= -1.006\ngini = 0.074\nsamples = 78\nvalue = [75, 3]", fillcolor="#e58139f5"] ;
387 -> 388 ;
389 [label="gini = 0.0\nsamples = 51\nvalue = [51, 0]", fillcolor="#e58139ff"] ;
388 -> 389 ;
390 [label="externalquiz_clicks_by_interval_change <= -0.943\ngini = 0.198\nsamples = 27\nvalue = [24, 3]", fillcolor="#e58139df"] ;
388 -> 390 ;
391 [label="gini = 0.0\nsamples = 2\nvalue = [0, 2]", fillcolor="#399de5ff"] ;
390 -> 391 ;
392 [label="gini = 0.077\nsamples = 25\nvalue = [24, 1]", fillcolor="#e58139f4"] ;
390 -> 392 ;
393 [label="gini = 0.0\nsamples = 1\nvalue = [0, 1]", fillcolor="#399de5ff"] ;
387 -> 393 ;
394 [label="url_clicks_by_interval_change <= 4.016\ngini = 0.496\nsamples = 161\nvalue = [73, 88]", fillcolor="#399de52b"] ;
378 -> 394 ;
395 [label="externalquiz_clicks_by_interval_change <= 2.195\ngini = 0.229\nsamples = 53\nvalue = [7, 46]", fillcolor="#399de5d8"] ;
394 -> 395 ;
396 [label="oucollaborate_clicks_by_interval_change <= 0.555\ngini = 0.18\nsamples = 50\nvalue = [5, 45]", fillcolor="#399de5e3"] ;
395 -> 396 ;
397 [label="forumng_clicks_by_interval <= 0.5\ngini = 0.15\nsamples = 49\nvalue = [4, 45]", fillcolor="#399de5e8"] ;
396 -> 397 ;
398 [label="gini = 0.0\nsamples = 1\nvalue = [1, 0]", fillcolor="#e58139ff"] ;
397 -> 398 ;
399 [label="gini = 0.117\nsamples = 48\nvalue = [3, 45]", fillcolor="#399de5ee"] ;
397 -> 399 ;
400 [label="gini = 0.0\nsamples = 1\nvalue = [1, 0]", fillcolor="#e58139ff"] ;
396 -> 400 ;
401 [label="ouelluminate_clicks_by_interval_change <= 2.043\ngini = 0.444\nsamples = 3\nvalue = [2, 1]", fillcolor="#e581397f"] ;
395 -> 401 ;
402 [label="gini = 0.0\nsamples = 1\nvalue = [0, 1]", fillcolor="#399de5ff"] ;
401 -> 402 ;
403 [label="gini = 0.0\nsamples = 2\nvalue = [2, 0]", fillcolor="#e58139ff"] ;
401 -> 403 ;
404 [label="forumng_clicks_by_interval <= 14.627\ngini = 0.475\nsamples = 108\nvalue = [66, 42]", fillcolor="#e581395d"] ;
394 -> 404 ;
405 [label="resource_clicks_by_interval_change <= 0.462\ngini = 0.223\nsamples = 47\nvalue = [41, 6]", fillcolor="#e58139da"] ;
404 -> 405 ;
406 [label="gini = 0.0\nsamples = 2\nvalue = [0, 2]", fillcolor="#399de5ff"] ;
405 -> 406 ;
407 [label="homepage_clicks_by_interval <= 90.303\ngini = 0.162\nsamples = 45\nvalue = [41, 4]", fillcolor="#e58139e6"] ;
405 -> 407 ;
408 [label="gini = 0.089\nsamples = 43\nvalue = [41, 2]", fillcolor="#e58139f3"] ;
407 -> 408 ;
409 [label="gini = 0.0\nsamples = 2\nvalue = [0, 2]", fillcolor="#399de5ff"] ;
407 -> 409 ;
410 [label="forumng_clicks_by_interval_change <= 199.668\ngini = 0.484\nsamples = 61\nvalue = [25, 36]", fillcolor="#399de54e"] ;
404 -> 410 ;
411 [label="glossary_clicks_by_interval_change <= 10.908\ngini = 0.359\nsamples = 47\nvalue = [11, 36]", fillcolor="#399de5b1"] ;
410 -> 411 ;
412 [label="gini = 0.224\nsamples = 39\nvalue = [5, 34]", fillcolor="#399de5da"] ;
411 -> 412 ;
413 [label="gini = 0.375\nsamples = 8\nvalue = [6, 2]", fillcolor="#e58139aa"] ;
411 -> 413 ;
414 [label="gini = 0.0\nsamples = 14\nvalue = [14, 0]", fillcolor="#e58139ff"] ;
410 -> 414 ;
}