digraph Tree {
node [shape=box, style="filled", color="black"] ;
0 [label="due_vs_submission_date <= 1.0\ngini = 0.5\nsamples = 96638\nvalue = [48319, 48319]", fillcolor="#e5813900"] ;
1 [label="homepage_clicks_by_days <= 17.999\ngini = 0.339\nsamples = 52763\nvalue = [41350, 11413]", fillcolor="#e58139b9"] ;
0 -> 1 [labeldistance=2.5, labelangle=45, headlabel="True"] ;
2 [label="quiz_clicks_by_days <= 223.485\ngini = 0.216\nsamples = 35782\nvalue = [31368, 4414]", fillcolor="#e58139db"] ;
1 -> 2 ;
3 [label="page_clicks_by_days_change <= 1.0\ngini = 0.2\nsamples = 35134\nvalue = [31170, 3964]", fillcolor="#e58139df"] ;
2 -> 3 ;
4 [label="due_vs_submission_date <= 0.0\ngini = 0.185\nsamples = 34182\nvalue = [30649, 3533]", fillcolor="#e58139e2"] ;
3 -> 4 ;
5 [label="due_vs_submission_date <= -0.0\ngini = 0.214\nsamples = 28965\nvalue = [25432, 3533]", fillcolor="#e58139dc"] ;
4 -> 5 ;
6 [label="homepage_clicks_by_days <= 0.0\ngini = 0.152\nsamples = 22306\nvalue = [20460, 1846]", fillcolor="#e58139e8"] ;
5 -> 6 ;
7 [label="gini = 0.377\nsamples = 918\nvalue = [687, 231]", fillcolor="#e58139a9"] ;
6 -> 7 ;
8 [label="gini = 0.14\nsamples = 21388\nvalue = [19773, 1615]", fillcolor="#e58139ea"] ;
6 -> 8 ;
9 [label="date <= 24.945\ngini = 0.378\nsamples = 6659\nvalue = [4972, 1687]", fillcolor="#e58139a8"] ;
5 -> 9 ;
10 [label="gini = 0.344\nsamples = 258\nvalue = [57, 201]", fillcolor="#399de5b7"] ;
9 -> 10 ;
11 [label="gini = 0.357\nsamples = 6401\nvalue = [4915, 1486]", fillcolor="#e58139b2"] ;
9 -> 11 ;
12 [label="gini = 0.0\nsamples = 5217\nvalue = [5217, 0]", fillcolor="#e58139ff"] ;
4 -> 12 ;
13 [label="page_clicks_by_days_change <= 1.003\ngini = 0.496\nsamples = 952\nvalue = [521, 431]", fillcolor="#e581392c"] ;
3 -> 13 ;
14 [label="forumng_clicks_by_days_change <= -38.5\ngini = 0.186\nsamples = 328\nvalue = [34, 294]", fillcolor="#399de5e2"] ;
13 -> 14 ;
15 [label="subpage_clicks_by_days_change <= -5.0\ngini = 0.457\nsamples = 34\nvalue = [22, 12]", fillcolor="#e5813974"] ;
14 -> 15 ;
16 [label="gini = 0.0\nsamples = 11\nvalue = [0, 11]", fillcolor="#399de5ff"] ;
15 -> 16 ;
17 [label="gini = 0.083\nsamples = 23\nvalue = [22, 1]", fillcolor="#e58139f3"] ;
15 -> 17 ;
18 [label="quiz_clicks_by_days <= 150.0\ngini = 0.078\nsamples = 294\nvalue = [12, 282]", fillcolor="#399de5f4"] ;
14 -> 18 ;
19 [label="gini = 0.072\nsamples = 293\nvalue = [11, 282]", fillcolor="#399de5f5"] ;
18 -> 19 ;
20 [label="gini = 0.0\nsamples = 1\nvalue = [1, 0]", fillcolor="#e58139ff"] ;
18 -> 20 ;
21 [label="page_clicks_by_days <= 2.0\ngini = 0.343\nsamples = 624\nvalue = [487, 137]", fillcolor="#e58139b7"] ;
13 -> 21 ;
22 [label="gini = 0.0\nsamples = 278\nvalue = [278, 0]", fillcolor="#e58139ff"] ;
21 -> 22 ;
23 [label="due_vs_submission_date <= -0.04\ngini = 0.478\nsamples = 346\nvalue = [209, 137]", fillcolor="#e5813958"] ;
21 -> 23 ;
24 [label="gini = 0.335\nsamples = 235\nvalue = [185, 50]", fillcolor="#e58139ba"] ;
23 -> 24 ;
25 [label="gini = 0.339\nsamples = 111\nvalue = [24, 87]", fillcolor="#399de5b9"] ;
23 -> 25 ;
26 [label="forumng_clicks_by_days <= 0.013\ngini = 0.424\nsamples = 648\nvalue = [198, 450]", fillcolor="#399de58f"] ;
2 -> 26 ;
27 [label="due_vs_submission_date <= 0.161\ngini = 0.033\nsamples = 299\nvalue = [5, 294]", fillcolor="#399de5fb"] ;
26 -> 27 ;
28 [label="homepage_clicks_by_days <= 17.124\ngini = 0.02\nsamples = 297\nvalue = [3, 294]", fillcolor="#399de5fc"] ;
27 -> 28 ;
29 [label="resource_clicks_by_days <= 8.5\ngini = 0.013\nsamples = 296\nvalue = [2, 294]", fillcolor="#399de5fd"] ;
28 -> 29 ;
30 [label="gini = 0.007\nsamples = 290\nvalue = [1, 289]", fillcolor="#399de5fe"] ;
29 -> 30 ;
31 [label="gini = 0.278\nsamples = 6\nvalue = [1, 5]", fillcolor="#399de5cc"] ;
29 -> 31 ;
32 [label="gini = 0.0\nsamples = 1\nvalue = [1, 0]", fillcolor="#e58139ff"] ;
28 -> 32 ;
33 [label="gini = 0.0\nsamples = 2\nvalue = [2, 0]", fillcolor="#e58139ff"] ;
27 -> 33 ;
34 [label="resource_clicks_by_days <= 0.006\ngini = 0.494\nsamples = 349\nvalue = [193, 156]", fillcolor="#e5813931"] ;
26 -> 34 ;
35 [label="date <= 238.5\ngini = 0.215\nsamples = 90\nvalue = [11, 79]", fillcolor="#399de5db"] ;
34 -> 35 ;
36 [label="due_vs_submission_date <= 0.363\ngini = 0.096\nsamples = 79\nvalue = [4, 75]", fillcolor="#399de5f1"] ;
35 -> 36 ;
37 [label="gini = 0.051\nsamples = 77\nvalue = [2, 75]", fillcolor="#399de5f8"] ;
36 -> 37 ;
38 [label="gini = 0.0\nsamples = 2\nvalue = [2, 0]", fillcolor="#e58139ff"] ;
36 -> 38 ;
39 [label="oucontent_clicks_by_days <= 21.509\ngini = 0.463\nsamples = 11\nvalue = [7, 4]", fillcolor="#e581396d"] ;
35 -> 39 ;
40 [label="gini = 0.0\nsamples = 6\nvalue = [6, 0]", fillcolor="#e58139ff"] ;
39 -> 40 ;
41 [label="gini = 0.32\nsamples = 5\nvalue = [1, 4]", fillcolor="#399de5bf"] ;
39 -> 41 ;
42 [label="date <= 240.993\ngini = 0.418\nsamples = 259\nvalue = [182, 77]", fillcolor="#e5813993"] ;
34 -> 42 ;
43 [label="quiz_clicks_by_days <= 533.638\ngini = 0.346\nsamples = 234\nvalue = [182, 52]", fillcolor="#e58139b6"] ;
42 -> 43 ;
44 [label="gini = 0.257\nsamples = 211\nvalue = [179, 32]", fillcolor="#e58139d1"] ;
43 -> 44 ;
45 [label="gini = 0.227\nsamples = 23\nvalue = [3, 20]", fillcolor="#399de5d9"] ;
43 -> 45 ;
46 [label="gini = 0.0\nsamples = 25\nvalue = [0, 25]", fillcolor="#399de5ff"] ;
42 -> 46 ;
47 [label="due_vs_submission_date <= 0.0\ngini = 0.485\nsamples = 16981\nvalue = [9982, 6999]", fillcolor="#e581394c"] ;
1 -> 47 ;
48 [label="due_vs_submission_date <= -0.0\ngini = 0.498\nsamples = 14954\nvalue = [7955, 6999]", fillcolor="#e581391f"] ;
47 -> 48 ;
49 [label="date <= 199.0\ngini = 0.412\nsamples = 8287\nvalue = [5884, 2403]", fillcolor="#e5813997"] ;
48 -> 49 ;
50 [label="homepage_clicks_by_days <= 18.001\ngini = 0.3\nsamples = 6335\nvalue = [5170, 1165]", fillcolor="#e58139c6"] ;
49 -> 50 ;
51 [label="oucontent_clicks_by_days <= 221.5\ngini = 0.075\nsamples = 77\nvalue = [3, 74]", fillcolor="#399de5f5"] ;
50 -> 51 ;
52 [label="gini = 0.051\nsamples = 76\nvalue = [2, 74]", fillcolor="#399de5f8"] ;
51 -> 52 ;
53 [label="gini = 0.0\nsamples = 1\nvalue = [1, 0]", fillcolor="#e58139ff"] ;
51 -> 53 ;
54 [label="due_vs_submission_date <= -1.0\ngini = 0.288\nsamples = 6258\nvalue = [5167, 1091]", fillcolor="#e58139c9"] ;
50 -> 54 ;
55 [label="gini = 0.322\nsamples = 5416\nvalue = [4325, 1091]", fillcolor="#e58139bf"] ;
54 -> 55 ;
56 [label="gini = 0.0\nsamples = 842\nvalue = [842, 0]", fillcolor="#e58139ff"] ;
54 -> 56 ;
57 [label="due_vs_submission_date <= -0.999\ngini = 0.464\nsamples = 1952\nvalue = [714, 1238]", fillcolor="#399de56c"] ;
49 -> 57 ;
58 [label="oucontent_clicks_by_days <= 115.908\ngini = 0.405\nsamples = 1723\nvalue = [485, 1238]", fillcolor="#399de59b"] ;
57 -> 58 ;
59 [label="gini = 0.5\nsamples = 779\nvalue = [378, 401]", fillcolor="#399de50f"] ;
58 -> 59 ;
60 [label="gini = 0.201\nsamples = 944\nvalue = [107, 837]", fillcolor="#399de5de"] ;
58 -> 60 ;
61 [label="gini = 0.0\nsamples = 229\nvalue = [229, 0]", fillcolor="#e58139ff"] ;
57 -> 61 ;
62 [label="homepage_clicks_by_days <= 36.999\ngini = 0.428\nsamples = 6667\nvalue = [2071, 4596]", fillcolor="#399de58c"] ;
48 -> 62 ;
63 [label="date <= 24.189\ngini = 0.483\nsamples = 4357\nvalue = [1775, 2582]", fillcolor="#399de550"] ;
62 -> 63 ;
64 [label="ouelluminate_clicks_by_days <= 7.023\ngini = 0.136\nsamples = 506\nvalue = [37, 469]", fillcolor="#399de5eb"] ;
63 -> 64 ;
65 [label="gini = 0.045\nsamples = 478\nvalue = [11, 467]", fillcolor="#399de5f9"] ;
64 -> 65 ;
66 [label="gini = 0.133\nsamples = 28\nvalue = [26, 2]", fillcolor="#e58139eb"] ;
64 -> 66 ;
67 [label="date <= 198.775\ngini = 0.495\nsamples = 3851\nvalue = [1738, 2113]", fillcolor="#399de52d"] ;
63 -> 67 ;
68 [label="gini = 0.5\nsamples = 3442\nvalue = [1718, 1724]", fillcolor="#399de501"] ;
67 -> 68 ;
69 [label="gini = 0.093\nsamples = 409\nvalue = [20, 389]", fillcolor="#399de5f2"] ;
67 -> 69 ;
70 [label="folder_clicks_by_days_change <= 0.007\ngini = 0.223\nsamples = 2310\nvalue = [296, 2014]", fillcolor="#399de5da"] ;
62 -> 70 ;
71 [label="oucollaborate_clicks_by_days_change <= -3.007\ngini = 0.177\nsamples = 2195\nvalue = [216, 1979]", fillcolor="#399de5e3"] ;
70 -> 71 ;
72 [label="gini = 0.481\nsamples = 92\nvalue = [55, 37]", fillcolor="#e5813953"] ;
71 -> 72 ;
73 [label="gini = 0.141\nsamples = 2103\nvalue = [161, 1942]", fillcolor="#399de5ea"] ;
71 -> 73 ;
74 [label="folder_clicks_by_days_change <= 1.0\ngini = 0.423\nsamples = 115\nvalue = [80, 35]", fillcolor="#e581398f"] ;
70 -> 74 ;
75 [label="gini = 0.0\nsamples = 78\nvalue = [78, 0]", fillcolor="#e58139ff"] ;
74 -> 75 ;
76 [label="gini = 0.102\nsamples = 37\nvalue = [2, 35]", fillcolor="#399de5f0"] ;
74 -> 76 ;
77 [label="gini = 0.0\nsamples = 2027\nvalue = [2027, 0]", fillcolor="#e58139ff"] ;
47 -> 77 ;
78 [label="weight <= 12.51\ngini = 0.267\nsamples = 43875\nvalue = [6969, 36906]", fillcolor="#399de5cf"] ;
0 -> 78 [labeldistance=2.5, labelangle=-45, headlabel="False"] ;
79 [label="oucontent_clicks_by_days <= 91.955\ngini = 0.19\nsamples = 34941\nvalue = [3713, 31228]", fillcolor="#399de5e1"] ;
78 -> 79 ;
80 [label="due_vs_submission_date <= 32.936\ngini = 0.26\nsamples = 18767\nvalue = [2885, 15882]", fillcolor="#399de5d1"] ;
79 -> 80 ;
81 [label="quiz_clicks_by_days <= 693.01\ngini = 0.353\nsamples = 9398\nvalue = [2154, 7244]", fillcolor="#399de5b3"] ;
80 -> 81 ;
82 [label="date <= 236.003\ngini = 0.333\nsamples = 9114\nvalue = [1927, 7187]", fillcolor="#399de5bb"] ;
81 -> 82 ;
83 [label="page_clicks_by_days <= 3.006\ngini = 0.28\nsamples = 7689\nvalue = [1293, 6396]", fillcolor="#399de5cb"] ;
82 -> 83 ;
84 [label="gini = 0.251\nsamples = 7338\nvalue = [1081, 6257]", fillcolor="#399de5d3"] ;
83 -> 84 ;
85 [label="gini = 0.478\nsamples = 351\nvalue = [212, 139]", fillcolor="#e5813958"] ;
83 -> 85 ;
86 [label="date <= 241.0\ngini = 0.494\nsamples = 1425\nvalue = [634, 791]", fillcolor="#399de533"] ;
82 -> 86 ;
87 [label="gini = 0.0\nsamples = 356\nvalue = [356, 0]", fillcolor="#e58139ff"] ;
86 -> 87 ;
88 [label="gini = 0.385\nsamples = 1069\nvalue = [278, 791]", fillcolor="#399de5a5"] ;
86 -> 88 ;
89 [label="folder_clicks_by_days <= 0.315\ngini = 0.321\nsamples = 284\nvalue = [227, 57]", fillcolor="#e58139bf"] ;
81 -> 89 ;
90 [label="gini = 0.0\nsamples = 41\nvalue = [0, 41]", fillcolor="#399de5ff"] ;
89 -> 90 ;
91 [label="due_vs_submission_date <= 1.019\ngini = 0.123\nsamples = 243\nvalue = [227, 16]", fillcolor="#e58139ed"] ;
89 -> 91 ;
92 [label="gini = 0.0\nsamples = 9\nvalue = [0, 9]", fillcolor="#399de5ff"] ;
91 -> 92 ;
93 [label="gini = 0.058\nsamples = 234\nvalue = [227, 7]", fillcolor="#e58139f7"] ;
91 -> 93 ;
94 [label="homepage_clicks_by_days <= 2.964\ngini = 0.144\nsamples = 9369\nvalue = [731, 8638]", fillcolor="#399de5e9"] ;
80 -> 94 ;
95 [label="oucollaborate_clicks_by_days <= 0.001\ngini = 0.272\nsamples = 2665\nvalue = [433, 2232]", fillcolor="#399de5ce"] ;
94 -> 95 ;
96 [label="url_clicks_by_days <= 0.001\ngini = 0.251\nsamples = 2607\nvalue = [383, 2224]", fillcolor="#399de5d3"] ;
95 -> 96 ;
97 [label="gini = 0.238\nsamples = 2581\nvalue = [357, 2224]", fillcolor="#399de5d6"] ;
96 -> 97 ;
98 [label="gini = 0.0\nsamples = 26\nvalue = [26, 0]", fillcolor="#e58139ff"] ;
96 -> 98 ;
99 [label="assessment_type_CMA <= 0.5\ngini = 0.238\nsamples = 58\nvalue = [50, 8]", fillcolor="#e58139d6"] ;
95 -> 99 ;
100 [label="gini = 0.0\nsamples = 50\nvalue = [50, 0]", fillcolor="#e58139ff"] ;
99 -> 100 ;
101 [label="gini = 0.0\nsamples = 8\nvalue = [0, 8]", fillcolor="#399de5ff"] ;
99 -> 101 ;
102 [label="quiz_clicks_by_days <= 476.1\ngini = 0.085\nsamples = 6704\nvalue = [298, 6406]", fillcolor="#399de5f3"] ;
94 -> 102 ;
103 [label="folder_clicks_by_days_change <= 0.0\ngini = 0.067\nsamples = 6535\nvalue = [227, 6308]", fillcolor="#399de5f6"] ;
102 -> 103 ;
104 [label="gini = 0.047\nsamples = 6156\nvalue = [148, 6008]", fillcolor="#399de5f9"] ;
103 -> 104 ;
105 [label="gini = 0.33\nsamples = 379\nvalue = [79, 300]", fillcolor="#399de5bc"] ;
103 -> 105 ;
106 [label="quiz_clicks_by_days <= 512.855\ngini = 0.487\nsamples = 169\nvalue = [71, 98]", fillcolor="#399de546"] ;
102 -> 106 ;
107 [label="gini = 0.388\nsamples = 95\nvalue = [70, 25]", fillcolor="#e58139a4"] ;
106 -> 107 ;
108 [label="gini = 0.027\nsamples = 74\nvalue = [1, 73]", fillcolor="#399de5fc"] ;
106 -> 108 ;
109 [label="htmlactivity_clicks_by_days_change <= -1.012\ngini = 0.097\nsamples = 16174\nvalue = [828, 15346]", fillcolor="#399de5f1"] ;
79 -> 109 ;
110 [label="homepage_clicks_by_days <= 36.0\ngini = 0.331\nsamples = 67\nvalue = [53, 14]", fillcolor="#e58139bc"] ;
109 -> 110 ;
111 [label="forumng_clicks_by_days <= 22.113\ngini = 0.131\nsamples = 57\nvalue = [53, 4]", fillcolor="#e58139ec"] ;
110 -> 111 ;
112 [label="gini = 0.0\nsamples = 3\nvalue = [0, 3]", fillcolor="#399de5ff"] ;
111 -> 112 ;
113 [label="resource_clicks_by_days_change <= -1.304\ngini = 0.036\nsamples = 54\nvalue = [53, 1]", fillcolor="#e58139fa"] ;
111 -> 113 ;
114 [label="gini = 0.0\nsamples = 53\nvalue = [53, 0]", fillcolor="#e58139ff"] ;
113 -> 114 ;
115 [label="gini = 0.0\nsamples = 1\nvalue = [0, 1]", fillcolor="#399de5ff"] ;
113 -> 115 ;
116 [label="gini = 0.0\nsamples = 10\nvalue = [0, 10]", fillcolor="#399de5ff"] ;
110 -> 116 ;
117 [label="resource_clicks_by_days_change <= 10.004\ngini = 0.092\nsamples = 16107\nvalue = [775, 15332]", fillcolor="#399de5f2"] ;
109 -> 117 ;
118 [label="folder_clicks_by_days <= 0.001\ngini = 0.08\nsamples = 15648\nvalue = [649, 14999]", fillcolor="#399de5f4"] ;
117 -> 118 ;
119 [label="page_clicks_by_days_change <= -1.0\ngini = 0.04\nsamples = 11261\nvalue = [227, 11034]", fillcolor="#399de5fa"] ;
118 -> 119 ;
120 [label="gini = 0.245\nsamples = 406\nvalue = [58, 348]", fillcolor="#399de5d4"] ;
119 -> 120 ;
121 [label="gini = 0.031\nsamples = 10855\nvalue = [169, 10686]", fillcolor="#399de5fb"] ;
119 -> 121 ;
122 [label="folder_clicks_by_days <= 0.991\ngini = 0.174\nsamples = 4387\nvalue = [422, 3965]", fillcolor="#399de5e4"] ;
118 -> 122 ;
123 [label="gini = 0.0\nsamples = 149\nvalue = [149, 0]", fillcolor="#e58139ff"] ;
122 -> 123 ;
124 [label="gini = 0.121\nsamples = 4238\nvalue = [273, 3965]", fillcolor="#399de5ed"] ;
122 -> 124 ;
125 [label="resource_clicks_by_days <= 10.999\ngini = 0.398\nsamples = 459\nvalue = [126, 333]", fillcolor="#399de59f"] ;
117 -> 125 ;
126 [label="gini = 0.0\nsamples = 58\nvalue = [58, 0]", fillcolor="#e58139ff"] ;
125 -> 126 ;
127 [label="ouelluminate_clicks_by_days_change <= 0.074\ngini = 0.282\nsamples = 401\nvalue = [68, 333]", fillcolor="#399de5cb"] ;
125 -> 127 ;
128 [label="gini = 0.159\nsamples = 310\nvalue = [27, 283]", fillcolor="#399de5e7"] ;
127 -> 128 ;
129 [label="gini = 0.495\nsamples = 91\nvalue = [41, 50]", fillcolor="#399de52e"] ;
127 -> 129 ;
130 [label="homepage_clicks_by_days <= 14.981\ngini = 0.463\nsamples = 8934\nvalue = [3256, 5678]", fillcolor="#399de56d"] ;
78 -> 130 ;
131 [label="due_vs_submission_date <= 1.001\ngini = 0.475\nsamples = 3586\nvalue = [2196, 1390]", fillcolor="#e581395e"] ;
130 -> 131 ;
132 [label="oucontent_clicks_by_days <= 68.989\ngini = 0.48\nsamples = 1214\nvalue = [487, 727]", fillcolor="#399de554"] ;
131 -> 132 ;
133 [label="resource_clicks_by_days <= 2.0\ngini = 0.497\nsamples = 1044\nvalue = [482, 562]", fillcolor="#399de524"] ;
132 -> 133 ;
134 [label="resource_clicks_by_days <= 1.006\ngini = 0.485\nsamples = 586\nvalue = [343, 243]", fillcolor="#e581394a"] ;
133 -> 134 ;
135 [label="gini = 0.493\nsamples = 435\nvalue = [192, 243]", fillcolor="#399de536"] ;
134 -> 135 ;
136 [label="gini = 0.0\nsamples = 151\nvalue = [151, 0]", fillcolor="#e58139ff"] ;
134 -> 136 ;
137 [label="oucollaborate_clicks_by_days_change <= 0.018\ngini = 0.423\nsamples = 458\nvalue = [139, 319]", fillcolor="#399de590"] ;
133 -> 137 ;
138 [label="gini = 0.338\nsamples = 394\nvalue = [85, 309]", fillcolor="#399de5b9"] ;
137 -> 138 ;
139 [label="gini = 0.264\nsamples = 64\nvalue = [54, 10]", fillcolor="#e58139d0"] ;
137 -> 139 ;
140 [label="subpage_clicks_by_days_change <= 35.279\ngini = 0.057\nsamples = 170\nvalue = [5, 165]", fillcolor="#399de5f7"] ;
132 -> 140 ;
141 [label="forumng_clicks_by_days_change <= -23.5\ngini = 0.035\nsamples = 167\nvalue = [3, 164]", fillcolor="#399de5fa"] ;
140 -> 141 ;
142 [label="gini = 0.18\nsamples = 30\nvalue = [3, 27]", fillcolor="#399de5e3"] ;
141 -> 142 ;
143 [label="gini = 0.0\nsamples = 137\nvalue = [0, 137]", fillcolor="#399de5ff"] ;
141 -> 143 ;
144 [label="homepage_clicks_by_days_change <= 5.483\ngini = 0.444\nsamples = 3\nvalue = [2, 1]", fillcolor="#e581397f"] ;
140 -> 144 ;
145 [label="gini = 0.0\nsamples = 1\nvalue = [0, 1]", fillcolor="#399de5ff"] ;
144 -> 145 ;
146 [label="gini = 0.0\nsamples = 2\nvalue = [2, 0]", fillcolor="#e58139ff"] ;
144 -> 146 ;
147 [label="due_vs_submission_date <= 2.0\ngini = 0.403\nsamples = 2372\nvalue = [1709, 663]", fillcolor="#e581399c"] ;
131 -> 147 ;
148 [label="gini = 0.0\nsamples = 714\nvalue = [714, 0]", fillcolor="#e58139ff"] ;
147 -> 148 ;
149 [label="oucontent_clicks_by_days <= 50.856\ngini = 0.48\nsamples = 1658\nvalue = [995, 663]", fillcolor="#e5813955"] ;
147 -> 149 ;
150 [label="due_vs_submission_date <= 2.005\ngini = 0.447\nsamples = 1440\nvalue = [955, 485]", fillcolor="#e581397d"] ;
149 -> 150 ;
151 [label="gini = 0.241\nsamples = 150\nvalue = [21, 129]", fillcolor="#399de5d5"] ;
150 -> 151 ;
152 [label="gini = 0.4\nsamples = 1290\nvalue = [934, 356]", fillcolor="#e581399e"] ;
150 -> 152 ;
153 [label="ouwiki_clicks_by_days_change <= -0.07\ngini = 0.3\nsamples = 218\nvalue = [40, 178]", fillcolor="#399de5c6"] ;
149 -> 153 ;
154 [label="gini = 0.494\nsamples = 56\nvalue = [31, 25]", fillcolor="#e5813931"] ;
153 -> 154 ;
155 [label="gini = 0.105\nsamples = 162\nvalue = [9, 153]", fillcolor="#399de5f0"] ;
153 -> 155 ;
156 [label="weight <= 24.903\ngini = 0.318\nsamples = 5348\nvalue = [1060, 4288]", fillcolor="#399de5c0"] ;
130 -> 156 ;
157 [label="gini = 0.0\nsamples = 189\nvalue = [189, 0]", fillcolor="#e58139ff"] ;
156 -> 157 ;
158 [label="oucontent_clicks_by_days <= 118.866\ngini = 0.281\nsamples = 5159\nvalue = [871, 4288]", fillcolor="#399de5cb"] ;
156 -> 158 ;
159 [label="due_vs_submission_date <= 1.001\ngini = 0.365\nsamples = 3228\nvalue = [775, 2453]", fillcolor="#399de5ae"] ;
158 -> 159 ;
160 [label="quiz_clicks_by_days_change <= 111.392\ngini = 0.184\nsamples = 1486\nvalue = [152, 1334]", fillcolor="#399de5e2"] ;
159 -> 160 ;
161 [label="gini = 0.133\nsamples = 1349\nvalue = [97, 1252]", fillcolor="#399de5eb"] ;
160 -> 161 ;
162 [label="gini = 0.481\nsamples = 137\nvalue = [55, 82]", fillcolor="#399de554"] ;
160 -> 162 ;
163 [label="due_vs_submission_date <= 1.999\ngini = 0.459\nsamples = 1742\nvalue = [623, 1119]", fillcolor="#399de571"] ;
159 -> 163 ;
164 [label="gini = 0.0\nsamples = 297\nvalue = [297, 0]", fillcolor="#e58139ff"] ;
163 -> 164 ;
165 [label="gini = 0.349\nsamples = 1445\nvalue = [326, 1119]", fillcolor="#399de5b5"] ;
163 -> 165 ;
166 [label="folder_clicks_by_days_change <= 0.062\ngini = 0.094\nsamples = 1931\nvalue = [96, 1835]", fillcolor="#399de5f2"] ;
158 -> 166 ;
167 [label="questionnaire_clicks_by_days_change <= -0.005\ngini = 0.073\nsamples = 1848\nvalue = [70, 1778]", fillcolor="#399de5f5"] ;
166 -> 167 ;
168 [label="gini = 0.257\nsamples = 271\nvalue = [41, 230]", fillcolor="#399de5d2"] ;
167 -> 168 ;
169 [label="gini = 0.036\nsamples = 1577\nvalue = [29, 1548]", fillcolor="#399de5fa"] ;
167 -> 169 ;
170 [label="folder_clicks_by_days <= 0.997\ngini = 0.43\nsamples = 83\nvalue = [26, 57]", fillcolor="#399de58b"] ;
166 -> 170 ;
171 [label="gini = 0.0\nsamples = 25\nvalue = [25, 0]", fillcolor="#e58139ff"] ;
170 -> 171 ;
172 [label="gini = 0.034\nsamples = 58\nvalue = [1, 57]", fillcolor="#399de5fb"] ;
170 -> 172 ;
}