digraph Tree {
node [shape=box, style="filled", color="black"] ;
0 [label="due_vs_submission_date <= 1.0\ngini = 0.5\nsamples = 294546\nvalue = [147273, 147273]", fillcolor="#e5813900"] ;
1 [label="gender_M <= 0.0\ngini = 0.464\nsamples = 180395\nvalue = [114250, 66145]", fillcolor="#e581396b"] ;
0 -> 1 [labeldistance=2.5, labelangle=45, headlabel="True"] ;
2 [label="due_vs_submission_date <= 0.0\ngini = 0.478\nsamples = 55702\nvalue = [22015, 33687]", fillcolor="#399de558"] ;
1 -> 2 ;
3 [label="assessment_type_TMA <= 0.0\ngini = 0.455\nsamples = 51868\nvalue = [18181, 33687]", fillcolor="#399de575"] ;
2 -> 3 ;
4 [label="weight <= 1.007\ngini = 0.306\nsamples = 21176\nvalue = [3990, 17186]", fillcolor="#399de5c4"] ;
3 -> 4 ;
5 [label="studied_credits <= 59.513\ngini = 0.191\nsamples = 14979\nvalue = [1606, 13373]", fillcolor="#399de5e0"] ;
4 -> 5 ;
6 [label="due_vs_submission_date <= -0.003\ngini = 0.499\nsamples = 885\nvalue = [427, 458]", fillcolor="#399de511"] ;
5 -> 6 ;
7 [label="date <= 222.004\ngini = 0.488\nsamples = 723\nvalue = [418, 305]", fillcolor="#e5813945"] ;
6 -> 7 ;
8 [label="gini = 0.265\nsamples = 159\nvalue = [25, 134]", fillcolor="#399de5cf"] ;
7 -> 8 ;
9 [label="gini = 0.423\nsamples = 564\nvalue = [393, 171]", fillcolor="#e5813990"] ;
7 -> 9 ;
10 [label="region_South East Region <= 0.076\ngini = 0.105\nsamples = 162\nvalue = [9, 153]", fillcolor="#399de5f0"] ;
6 -> 10 ;
11 [label="gini = 0.052\nsamples = 151\nvalue = [4, 147]", fillcolor="#399de5f8"] ;
10 -> 11 ;
12 [label="gini = 0.496\nsamples = 11\nvalue = [5, 6]", fillcolor="#399de52a"] ;
10 -> 12 ;
13 [label="imd_band_0-10% <= 0.002\ngini = 0.153\nsamples = 14094\nvalue = [1179, 12915]", fillcolor="#399de5e8"] ;
5 -> 13 ;
14 [label="num_of_prev_attempts <= 0.001\ngini = 0.106\nsamples = 12198\nvalue = [685, 11513]", fillcolor="#399de5f0"] ;
13 -> 14 ;
15 [label="gini = 0.064\nsamples = 10401\nvalue = [342, 10059]", fillcolor="#399de5f6"] ;
14 -> 15 ;
16 [label="gini = 0.309\nsamples = 1797\nvalue = [343, 1454]", fillcolor="#399de5c3"] ;
14 -> 16 ;
17 [label="imd_band_0-10% <= 0.999\ngini = 0.385\nsamples = 1896\nvalue = [494, 1402]", fillcolor="#399de5a5"] ;
13 -> 17 ;
18 [label="gini = 0.0\nsamples = 381\nvalue = [381, 0]", fillcolor="#e58139ff"] ;
17 -> 18 ;
19 [label="gini = 0.138\nsamples = 1515\nvalue = [113, 1402]", fillcolor="#399de5ea"] ;
17 -> 19 ;
20 [label="subpage_clicks_by_interval <= 9.987\ngini = 0.473\nsamples = 6197\nvalue = [2384, 3813]", fillcolor="#399de560"] ;
4 -> 20 ;
21 [label="highest_education_HE Qualification <= 0.999\ngini = 0.496\nsamples = 2620\nvalue = [1428, 1192]", fillcolor="#e581392a"] ;
20 -> 21 ;
22 [label="highest_education_A Level or Equivalent <= 0.997\ngini = 0.483\nsamples = 2352\nvalue = [1395, 957]", fillcolor="#e5813950"] ;
21 -> 22 ;
23 [label="gini = 0.405\nsamples = 1184\nvalue = [850, 334]", fillcolor="#e581399b"] ;
22 -> 23 ;
24 [label="gini = 0.498\nsamples = 1168\nvalue = [545, 623]", fillcolor="#399de520"] ;
22 -> 24 ;
25 [label="disability_N <= 0.881\ngini = 0.216\nsamples = 268\nvalue = [33, 235]", fillcolor="#399de5db"] ;
21 -> 25 ;
26 [label="gini = 0.5\nsamples = 12\nvalue = [6, 6]", fillcolor="#e5813900"] ;
25 -> 26 ;
27 [label="gini = 0.189\nsamples = 256\nvalue = [27, 229]", fillcolor="#399de5e1"] ;
25 -> 27 ;
28 [label="highest_education_Lower Than A Level <= 0.001\ngini = 0.392\nsamples = 3577\nvalue = [956, 2621]", fillcolor="#399de5a2"] ;
20 -> 28 ;
29 [label="imd_band_10-20% <= 0.005\ngini = 0.299\nsamples = 2397\nvalue = [438, 1959]", fillcolor="#399de5c6"] ;
28 -> 29 ;
30 [label="gini = 0.234\nsamples = 2081\nvalue = [281, 1800]", fillcolor="#399de5d7"] ;
29 -> 30 ;
31 [label="gini = 0.5\nsamples = 316\nvalue = [157, 159]", fillcolor="#399de503"] ;
29 -> 31 ;
32 [label="highest_education_Lower Than A Level <= 0.998\ngini = 0.493\nsamples = 1180\nvalue = [518, 662]", fillcolor="#399de537"] ;
28 -> 32 ;
33 [label="gini = 0.0\nsamples = 338\nvalue = [338, 0]", fillcolor="#e58139ff"] ;
32 -> 33 ;
34 [label="gini = 0.336\nsamples = 842\nvalue = [180, 662]", fillcolor="#399de5ba"] ;
32 -> 34 ;
35 [label="due_vs_submission_date <= -0.0\ngini = 0.497\nsamples = 30692\nvalue = [14191, 16501]", fillcolor="#399de524"] ;
3 -> 35 ;
36 [label="age_band_35-55 <= 1.0\ngini = 0.468\nsamples = 17533\nvalue = [10997, 6536]", fillcolor="#e5813967"] ;
35 -> 36 ;
37 [label="age_band_35-55 <= 0.0\ngini = 0.426\nsamples = 14460\nvalue = [10020, 4440]", fillcolor="#e581398e"] ;
36 -> 37 ;
38 [label="due_vs_submission_date <= -1.0\ngini = 0.486\nsamples = 10675\nvalue = [6235, 4440]", fillcolor="#e5813949"] ;
37 -> 38 ;
39 [label="gini = 0.498\nsamples = 9520\nvalue = [5080, 4440]", fillcolor="#e5813920"] ;
38 -> 39 ;
40 [label="gini = 0.0\nsamples = 1155\nvalue = [1155, 0]", fillcolor="#e58139ff"] ;
38 -> 40 ;
41 [label="gini = 0.0\nsamples = 3785\nvalue = [3785, 0]", fillcolor="#e58139ff"] ;
37 -> 41 ;
42 [label="due_vs_submission_date <= -0.997\ngini = 0.434\nsamples = 3073\nvalue = [977, 2096]", fillcolor="#399de588"] ;
36 -> 42 ;
43 [label="imd_band_10-20% <= 0.005\ngini = 0.403\nsamples = 2911\nvalue = [815, 2096]", fillcolor="#399de59c"] ;
42 -> 43 ;
44 [label="gini = 0.353\nsamples = 2464\nvalue = [563, 1901]", fillcolor="#399de5b3"] ;
43 -> 44 ;
45 [label="gini = 0.492\nsamples = 447\nvalue = [252, 195]", fillcolor="#e581393a"] ;
43 -> 45 ;
46 [label="gini = 0.0\nsamples = 162\nvalue = [162, 0]", fillcolor="#e58139ff"] ;
42 -> 46 ;
47 [label="highest_education_Lower Than A Level <= 0.0\ngini = 0.368\nsamples = 13159\nvalue = [3194, 9965]", fillcolor="#399de5ad"] ;
35 -> 47 ;
48 [label="homepage_clicks_by_days <= 5.998\ngini = 0.273\nsamples = 7705\nvalue = [1259, 6446]", fillcolor="#399de5cd"] ;
47 -> 48 ;
49 [label="homepage_clicks_by_days <= 5.004\ngini = 0.423\nsamples = 1681\nvalue = [510, 1171]", fillcolor="#399de590"] ;
48 -> 49 ;
50 [label="gini = 0.398\nsamples = 1613\nvalue = [442, 1171]", fillcolor="#399de59f"] ;
49 -> 50 ;
51 [label="gini = 0.0\nsamples = 68\nvalue = [68, 0]", fillcolor="#e58139ff"] ;
49 -> 51 ;
52 [label="num_of_prev_attempts <= 0.002\ngini = 0.218\nsamples = 6024\nvalue = [749, 5275]", fillcolor="#399de5db"] ;
48 -> 52 ;
53 [label="gini = 0.178\nsamples = 5170\nvalue = [512, 4658]", fillcolor="#399de5e3"] ;
52 -> 53 ;
54 [label="gini = 0.401\nsamples = 854\nvalue = [237, 617]", fillcolor="#399de59d"] ;
52 -> 54 ;
55 [label="highest_education_Lower Than A Level <= 0.999\ngini = 0.458\nsamples = 5454\nvalue = [1935, 3519]", fillcolor="#399de573"] ;
47 -> 55 ;
56 [label="gini = 0.0\nsamples = 1219\nvalue = [1219, 0]", fillcolor="#e58139ff"] ;
55 -> 56 ;
57 [label="forumng_clicks_by_days <= 12.952\ngini = 0.281\nsamples = 4235\nvalue = [716, 3519]", fillcolor="#399de5cb"] ;
55 -> 57 ;
58 [label="gini = 0.353\nsamples = 2614\nvalue = [599, 2015]", fillcolor="#399de5b3"] ;
57 -> 58 ;
59 [label="gini = 0.134\nsamples = 1621\nvalue = [117, 1504]", fillcolor="#399de5eb"] ;
57 -> 59 ;
60 [label="gini = 0.0\nsamples = 3834\nvalue = [3834, 0]", fillcolor="#e58139ff"] ;
2 -> 60 ;
61 [label="gender_M <= 1.0\ngini = 0.385\nsamples = 124693\nvalue = [92235, 32458]", fillcolor="#e58139a5"] ;
1 -> 61 ;
62 [label="gini = 0.0\nsamples = 44208\nvalue = [44208, 0]", fillcolor="#e58139ff"] ;
61 -> 62 ;
63 [label="highest_education_Lower Than A Level <= 0.0\ngini = 0.481\nsamples = 80485\nvalue = [48027, 32458]", fillcolor="#e5813953"] ;
61 -> 63 ;
64 [label="homepage_clicks_by_days <= 14.999\ngini = 0.497\nsamples = 40444\nvalue = [18544, 21900]", fillcolor="#399de527"] ;
63 -> 64 ;
65 [label="age_band_0-35 <= 0.0\ngini = 0.487\nsamples = 24073\nvalue = [13956, 10117]", fillcolor="#e5813946"] ;
64 -> 65 ;
66 [label="highest_education_HE Qualification <= 0.001\ngini = 0.392\nsamples = 3585\nvalue = [959, 2626]", fillcolor="#399de5a2"] ;
65 -> 66 ;
67 [label="region_Scotland <= 0.005\ngini = 0.278\nsamples = 1873\nvalue = [312, 1561]", fillcolor="#399de5cc"] ;
66 -> 67 ;
68 [label="gini = 0.223\nsamples = 1522\nvalue = [195, 1327]", fillcolor="#399de5da"] ;
67 -> 68 ;
69 [label="gini = 0.444\nsamples = 351\nvalue = [117, 234]", fillcolor="#399de57f"] ;
67 -> 69 ;
70 [label="highest_education_HE Qualification <= 0.999\ngini = 0.47\nsamples = 1712\nvalue = [647, 1065]", fillcolor="#399de564"] ;
66 -> 70 ;
71 [label="gini = 0.0\nsamples = 350\nvalue = [350, 0]", fillcolor="#e58139ff"] ;
70 -> 71 ;
72 [label="gini = 0.341\nsamples = 1362\nvalue = [297, 1065]", fillcolor="#399de5b8"] ;
70 -> 72 ;
73 [label="age_band_0-35 <= 1.0\ngini = 0.464\nsamples = 20488\nvalue = [12997, 7491]", fillcolor="#e581396c"] ;
65 -> 73 ;
74 [label="gini = 0.0\nsamples = 4198\nvalue = [4198, 0]", fillcolor="#e58139ff"] ;
73 -> 74 ;
75 [label="highest_education_A Level or Equivalent <= 0.0\ngini = 0.497\nsamples = 16290\nvalue = [8799, 7491]", fillcolor="#e5813926"] ;
73 -> 75 ;
76 [label="gini = 0.358\nsamples = 2330\nvalue = [544, 1786]", fillcolor="#399de5b1"] ;
75 -> 76 ;
77 [label="gini = 0.483\nsamples = 13960\nvalue = [8255, 5705]", fillcolor="#e581394f"] ;
75 -> 77 ;
78 [label="due_vs_submission_date <= 0.001\ngini = 0.403\nsamples = 16371\nvalue = [4588, 11783]", fillcolor="#399de59c"] ;
64 -> 78 ;
79 [label="date <= 18.725\ngini = 0.384\nsamples = 15900\nvalue = [4117, 11783]", fillcolor="#399de5a6"] ;
78 -> 79 ;
80 [label="due_vs_submission_date <= -3.0\ngini = 0.487\nsamples = 2252\nvalue = [1307, 945]", fillcolor="#e5813947"] ;
79 -> 80 ;
81 [label="gini = 0.438\nsamples = 819\nvalue = [265, 554]", fillcolor="#399de585"] ;
80 -> 81 ;
82 [label="gini = 0.397\nsamples = 1433\nvalue = [1042, 391]", fillcolor="#e581399f"] ;
80 -> 82 ;
83 [label="due_vs_submission_date <= -0.003\ngini = 0.327\nsamples = 13648\nvalue = [2810, 10838]", fillcolor="#399de5bd"] ;
79 -> 83 ;
84 [label="gini = 0.409\nsamples = 7081\nvalue = [2026, 5055]", fillcolor="#399de599"] ;
83 -> 84 ;
85 [label="gini = 0.21\nsamples = 6567\nvalue = [784, 5783]", fillcolor="#399de5dc"] ;
83 -> 85 ;
86 [label="gini = 0.0\nsamples = 471\nvalue = [471, 0]", fillcolor="#e58139ff"] ;
78 -> 86 ;
87 [label="highest_education_Lower Than A Level <= 1.0\ngini = 0.388\nsamples = 40041\nvalue = [29483, 10558]", fillcolor="#e58139a4"] ;
63 -> 87 ;
88 [label="gini = 0.0\nsamples = 20973\nvalue = [20973, 0]", fillcolor="#e58139ff"] ;
87 -> 88 ;
89 [label="due_vs_submission_date <= 0.0\ngini = 0.494\nsamples = 19068\nvalue = [8510, 10558]", fillcolor="#399de531"] ;
87 -> 89 ;
90 [label="homepage_clicks_by_days <= 17.999\ngini = 0.485\nsamples = 18012\nvalue = [7454, 10558]", fillcolor="#399de54b"] ;
89 -> 90 ;
91 [label="weight <= 1.047\ngini = 0.499\nsamples = 10919\nvalue = [5638, 5281]", fillcolor="#e5813910"] ;
90 -> 91 ;
92 [label="gini = 0.164\nsamples = 911\nvalue = [82, 829]", fillcolor="#399de5e6"] ;
91 -> 92 ;
93 [label="gini = 0.494\nsamples = 10008\nvalue = [5556, 4452]", fillcolor="#e5813933"] ;
91 -> 93 ;
94 [label="due_vs_submission_date <= -0.001\ngini = 0.381\nsamples = 7093\nvalue = [1816, 5277]", fillcolor="#399de5a7"] ;
90 -> 94 ;
95 [label="gini = 0.461\nsamples = 4011\nvalue = [1445, 2566]", fillcolor="#399de56f"] ;
94 -> 95 ;
96 [label="gini = 0.212\nsamples = 3082\nvalue = [371, 2711]", fillcolor="#399de5dc"] ;
94 -> 96 ;
97 [label="gini = 0.0\nsamples = 1056\nvalue = [1056, 0]", fillcolor="#e58139ff"] ;
89 -> 97 ;
98 [label="date <= 23.999\ngini = 0.411\nsamples = 114151\nvalue = [33023, 81128]", fillcolor="#399de597"] ;
0 -> 98 [labeldistance=2.5, labelangle=-45, headlabel="False"] ;
99 [label="weight <= 4.999\ngini = 0.433\nsamples = 20233\nvalue = [13810, 6423]", fillcolor="#e5813988"] ;
98 -> 99 ;
100 [label="region_Ireland <= 1.0\ngini = 0.112\nsamples = 13831\nvalue = [13006, 825]", fillcolor="#e58139ef"] ;
99 -> 100 ;
101 [label="region_Scotland <= 1.0\ngini = 0.101\nsamples = 13701\nvalue = [12971, 730]", fillcolor="#e58139f1"] ;
100 -> 101 ;
102 [label="region_West Midlands Region <= 1.0\ngini = 0.09\nsamples = 13454\nvalue = [12822, 632]", fillcolor="#e58139f2"] ;
101 -> 102 ;
103 [label="region_Wales <= 1.0\ngini = 0.081\nsamples = 13322\nvalue = [12756, 566]", fillcolor="#e58139f4"] ;
102 -> 103 ;
104 [label="region_East Anglian Region <= 1.0\ngini = 0.069\nsamples = 13012\nvalue = [12548, 464]", fillcolor="#e58139f6"] ;
103 -> 104 ;
105 [label="gini = 0.058\nsamples = 12781\nvalue = [12399, 382]", fillcolor="#e58139f7"] ;
104 -> 105 ;
106 [label="gini = 0.458\nsamples = 231\nvalue = [149, 82]", fillcolor="#e5813973"] ;
104 -> 106 ;
107 [label="imd_band_20-30% <= 0.995\ngini = 0.442\nsamples = 310\nvalue = [208, 102]", fillcolor="#e5813982"] ;
103 -> 107 ;
108 [label="gini = 0.401\nsamples = 278\nvalue = [201, 77]", fillcolor="#e581399d"] ;
107 -> 108 ;
109 [label="gini = 0.342\nsamples = 32\nvalue = [7, 25]", fillcolor="#399de5b8"] ;
107 -> 109 ;
110 [label="oucollaborate_clicks_by_interval <= 0.018\ngini = 0.5\nsamples = 132\nvalue = [66, 66]", fillcolor="#e5813900"] ;
102 -> 110 ;
111 [label="imd_band_40-50% <= 0.363\ngini = 0.472\nsamples = 89\nvalue = [34, 55]", fillcolor="#399de561"] ;
110 -> 111 ;
112 [label="gini = 0.438\nsamples = 74\nvalue = [24, 50]", fillcolor="#399de585"] ;
111 -> 112 ;
113 [label="gini = 0.444\nsamples = 15\nvalue = [10, 5]", fillcolor="#e581397f"] ;
111 -> 113 ;
114 [label="subpage_clicks_by_days <= 14.5\ngini = 0.381\nsamples = 43\nvalue = [32, 11]", fillcolor="#e58139a7"] ;
110 -> 114 ;
115 [label="gini = 0.266\nsamples = 38\nvalue = [32, 6]", fillcolor="#e58139cf"] ;
114 -> 115 ;
116 [label="gini = 0.0\nsamples = 5\nvalue = [0, 5]", fillcolor="#399de5ff"] ;
114 -> 116 ;
117 [label="highest_education_Lower Than A Level <= 0.007\ngini = 0.479\nsamples = 247\nvalue = [149, 98]", fillcolor="#e5813957"] ;
101 -> 117 ;
118 [label="forumng_clicks_by_interval <= 15.5\ngini = 0.493\nsamples = 127\nvalue = [56, 71]", fillcolor="#399de536"] ;
117 -> 118 ;
119 [label="oucontent_clicks_by_days_change <= 1.5\ngini = 0.488\nsamples = 85\nvalue = [49, 36]", fillcolor="#e5813944"] ;
118 -> 119 ;
120 [label="gini = 0.0\nsamples = 11\nvalue = [0, 11]", fillcolor="#399de5ff"] ;
119 -> 120 ;
121 [label="gini = 0.447\nsamples = 74\nvalue = [49, 25]", fillcolor="#e581397d"] ;
119 -> 121 ;
122 [label="oucollaborate_clicks_by_interval_change <= 4.5\ngini = 0.278\nsamples = 42\nvalue = [7, 35]", fillcolor="#399de5cc"] ;
118 -> 122 ;
123 [label="gini = 0.219\nsamples = 40\nvalue = [5, 35]", fillcolor="#399de5db"] ;
122 -> 123 ;
124 [label="gini = 0.0\nsamples = 2\nvalue = [2, 0]", fillcolor="#e58139ff"] ;
122 -> 124 ;
125 [label="highest_education_Lower Than A Level <= 0.999\ngini = 0.349\nsamples = 120\nvalue = [93, 27]", fillcolor="#e58139b5"] ;
117 -> 125 ;
126 [label="gini = 0.0\nsamples = 52\nvalue = [52, 0]", fillcolor="#e58139ff"] ;
125 -> 126 ;
127 [label="oucontent_clicks_by_interval <= 1.5\ngini = 0.479\nsamples = 68\nvalue = [41, 27]", fillcolor="#e5813957"] ;
125 -> 127 ;
128 [label="gini = 0.298\nsamples = 22\nvalue = [18, 4]", fillcolor="#e58139c6"] ;
127 -> 128 ;
129 [label="gini = 0.5\nsamples = 46\nvalue = [23, 23]", fillcolor="#e5813900"] ;
127 -> 129 ;
130 [label="imd_band_50-60% <= 0.054\ngini = 0.393\nsamples = 130\nvalue = [35, 95]", fillcolor="#399de5a1"] ;
100 -> 130 ;
131 [label="imd_band_60-70% <= 0.5\ngini = 0.188\nsamples = 95\nvalue = [10, 85]", fillcolor="#399de5e1"] ;
130 -> 131 ;
132 [label="due_vs_submission_date <= 14.0\ngini = 0.111\nsamples = 85\nvalue = [5, 80]", fillcolor="#399de5ef"] ;
131 -> 132 ;
133 [label="resource_clicks_by_days <= 10.5\ngini = 0.075\nsamples = 77\nvalue = [3, 74]", fillcolor="#399de5f5"] ;
132 -> 133 ;
134 [label="gini = 0.03\nsamples = 66\nvalue = [1, 65]", fillcolor="#399de5fb"] ;
133 -> 134 ;
135 [label="gini = 0.298\nsamples = 11\nvalue = [2, 9]", fillcolor="#399de5c6"] ;
133 -> 135 ;
136 [label="imd_band_80-90% <= 0.5\ngini = 0.375\nsamples = 8\nvalue = [2, 6]", fillcolor="#399de5aa"] ;
132 -> 136 ;
137 [label="gini = 0.245\nsamples = 7\nvalue = [1, 6]", fillcolor="#399de5d4"] ;
136 -> 137 ;
138 [label="gini = 0.0\nsamples = 1\nvalue = [1, 0]", fillcolor="#e58139ff"] ;
136 -> 138 ;
139 [label="subpage_clicks_by_interval_change <= 6.0\ngini = 0.5\nsamples = 10\nvalue = [5, 5]", fillcolor="#e5813900"] ;
131 -> 139 ;
140 [label="subpage_clicks_by_interval_change <= 1.5\ngini = 0.408\nsamples = 7\nvalue = [2, 5]", fillcolor="#399de599"] ;
139 -> 140 ;
141 [label="gini = 0.0\nsamples = 1\nvalue = [1, 0]", fillcolor="#e58139ff"] ;
140 -> 141 ;
142 [label="gini = 0.278\nsamples = 6\nvalue = [1, 5]", fillcolor="#399de5cc"] ;
140 -> 142 ;
143 [label="gini = 0.0\nsamples = 3\nvalue = [3, 0]", fillcolor="#e58139ff"] ;
139 -> 143 ;
144 [label="imd_band_50-60% <= 0.978\ngini = 0.408\nsamples = 35\nvalue = [25, 10]", fillcolor="#e5813999"] ;
130 -> 144 ;
145 [label="gini = 0.0\nsamples = 23\nvalue = [23, 0]", fillcolor="#e58139ff"] ;
144 -> 145 ;
146 [label="oucontent_clicks_by_days <= 69.0\ngini = 0.278\nsamples = 12\nvalue = [2, 10]", fillcolor="#399de5cc"] ;
144 -> 146 ;
147 [label="resource_clicks_by_interval <= 1.0\ngini = 0.165\nsamples = 11\nvalue = [1, 10]", fillcolor="#399de5e6"] ;
146 -> 147 ;
148 [label="gini = 0.0\nsamples = 1\nvalue = [1, 0]", fillcolor="#e58139ff"] ;
147 -> 148 ;
149 [label="gini = 0.0\nsamples = 10\nvalue = [0, 10]", fillcolor="#399de5ff"] ;
147 -> 149 ;
150 [label="gini = 0.0\nsamples = 1\nvalue = [1, 0]", fillcolor="#e58139ff"] ;
146 -> 150 ;
151 [label="date <= 20.012\ngini = 0.22\nsamples = 6402\nvalue = [804, 5598]", fillcolor="#399de5da"] ;
99 -> 151 ;
152 [label="imd_band_0-10% <= 0.009\ngini = 0.118\nsamples = 5973\nvalue = [375, 5598]", fillcolor="#399de5ee"] ;
151 -> 152 ;
153 [label="page_clicks_by_interval_change <= 1.017\ngini = 0.07\nsamples = 5295\nvalue = [192, 5103]", fillcolor="#399de5f5"] ;
152 -> 153 ;
154 [label="region_Yorkshire Region <= 0.02\ngini = 0.04\nsamples = 4279\nvalue = [87, 4192]", fillcolor="#399de5fa"] ;
153 -> 154 ;
155 [label="url_clicks_by_interval_change <= -0.737\ngini = 0.028\nsamples = 4026\nvalue = [57, 3969]", fillcolor="#399de5fb"] ;
154 -> 155 ;
156 [label="gini = 0.0\nsamples = 1\nvalue = [1, 0]", fillcolor="#e58139ff"] ;
155 -> 156 ;
157 [label="gini = 0.027\nsamples = 4025\nvalue = [56, 3969]", fillcolor="#399de5fb"] ;
155 -> 157 ;
158 [label="region_Yorkshire Region <= 0.979\ngini = 0.209\nsamples = 253\nvalue = [30, 223]", fillcolor="#399de5dd"] ;
154 -> 158 ;
159 [label="gini = 0.0\nsamples = 28\nvalue = [28, 0]", fillcolor="#e58139ff"] ;
158 -> 159 ;
160 [label="gini = 0.018\nsamples = 225\nvalue = [2, 223]", fillcolor="#399de5fd"] ;
158 -> 160 ;
161 [label="weight <= 12.428\ngini = 0.185\nsamples = 1016\nvalue = [105, 911]", fillcolor="#399de5e2"] ;
153 -> 161 ;
162 [label="gini = 0.0\nsamples = 77\nvalue = [77, 0]", fillcolor="#e58139ff"] ;
161 -> 162 ;
163 [label="date <= 19.009\ngini = 0.058\nsamples = 939\nvalue = [28, 911]", fillcolor="#399de5f7"] ;
161 -> 163 ;
164 [label="gini = 0.048\nsamples = 934\nvalue = [23, 911]", fillcolor="#399de5f9"] ;
163 -> 164 ;
165 [label="gini = 0.0\nsamples = 5\nvalue = [5, 0]", fillcolor="#e58139ff"] ;
163 -> 165 ;
166 [label="imd_band_0-10% <= 0.998\ngini = 0.394\nsamples = 678\nvalue = [183, 495]", fillcolor="#399de5a1"] ;
152 -> 166 ;
167 [label="gini = 0.0\nsamples = 150\nvalue = [150, 0]", fillcolor="#e58139ff"] ;
166 -> 167 ;
168 [label="region_East Midlands Region <= 0.04\ngini = 0.117\nsamples = 528\nvalue = [33, 495]", fillcolor="#399de5ee"] ;
166 -> 168 ;
169 [label="studied_credits <= 225.0\ngini = 0.06\nsamples = 483\nvalue = [15, 468]", fillcolor="#399de5f7"] ;
168 -> 169 ;
170 [label="gini = 0.041\nsamples = 473\nvalue = [10, 463]", fillcolor="#399de5f9"] ;
169 -> 170 ;
171 [label="gini = 0.5\nsamples = 10\nvalue = [5, 5]", fillcolor="#e5813900"] ;
169 -> 171 ;
172 [label="region_East Midlands Region <= 0.96\ngini = 0.48\nsamples = 45\nvalue = [18, 27]", fillcolor="#399de555"] ;
168 -> 172 ;
173 [label="gini = 0.0\nsamples = 15\nvalue = [15, 0]", fillcolor="#e58139ff"] ;
172 -> 173 ;
174 [label="gini = 0.18\nsamples = 30\nvalue = [3, 27]", fillcolor="#399de5e3"] ;
172 -> 174 ;
175 [label="gini = 0.0\nsamples = 429\nvalue = [429, 0]", fillcolor="#e58139ff"] ;
151 -> 175 ;
176 [label="assessment_type_Exam <= 0.03\ngini = 0.325\nsamples = 93918\nvalue = [19213, 74705]", fillcolor="#399de5bd"] ;
98 -> 176 ;
177 [label="highest_education_Lower Than A Level <= 0.0\ngini = 0.276\nsamples = 87535\nvalue = [14497, 73038]", fillcolor="#399de5cc"] ;
176 -> 177 ;
178 [label="num_of_prev_attempts <= 0.001\ngini = 0.163\nsamples = 49907\nvalue = [4472, 45435]", fillcolor="#399de5e6"] ;
177 -> 178 ;
179 [label="weight <= 12.517\ngini = 0.126\nsamples = 43759\nvalue = [2951, 40808]", fillcolor="#399de5ed"] ;
178 -> 179 ;
180 [label="highest_education_No Formal quals <= 0.002\ngini = 0.065\nsamples = 26005\nvalue = [881, 25124]", fillcolor="#399de5f6"] ;
179 -> 180 ;
181 [label="gender_F <= 0.003\ngini = 0.058\nsamples = 25505\nvalue = [759, 24746]", fillcolor="#399de5f7"] ;
180 -> 181 ;
182 [label="gini = 0.027\nsamples = 16143\nvalue = [223, 15920]", fillcolor="#399de5fb"] ;
181 -> 182 ;
183 [label="gini = 0.108\nsamples = 9362\nvalue = [536, 8826]", fillcolor="#399de5f0"] ;
181 -> 183 ;
184 [label="highest_education_No Formal quals <= 1.0\ngini = 0.369\nsamples = 500\nvalue = [122, 378]", fillcolor="#399de5ad"] ;
180 -> 184 ;
185 [label="gini = 0.0\nsamples = 110\nvalue = [110, 0]", fillcolor="#e58139ff"] ;
184 -> 185 ;
186 [label="gini = 0.06\nsamples = 390\nvalue = [12, 378]", fillcolor="#399de5f7"] ;
184 -> 186 ;
187 [label="externalquiz_clicks_by_interval_change <= -0.0\ngini = 0.206\nsamples = 17754\nvalue = [2070, 15684]", fillcolor="#399de5dd"] ;
179 -> 187 ;
188 [label="externalquiz_clicks_by_interval_change <= -0.999\ngini = 0.459\nsamples = 1520\nvalue = [542, 978]", fillcolor="#399de572"] ;
187 -> 188 ;
189 [label="gini = 0.367\nsamples = 1290\nvalue = [312, 978]", fillcolor="#399de5ae"] ;
188 -> 189 ;
190 [label="gini = 0.0\nsamples = 230\nvalue = [230, 0]", fillcolor="#e58139ff"] ;
188 -> 190 ;
191 [label="homepage_clicks_by_days <= 9.994\ngini = 0.171\nsamples = 16234\nvalue = [1528, 14706]", fillcolor="#399de5e5"] ;
187 -> 191 ;
192 [label="gini = 0.311\nsamples = 4857\nvalue = [937, 3920]", fillcolor="#399de5c2"] ;
191 -> 192 ;
193 [label="gini = 0.098\nsamples = 11377\nvalue = [591, 10786]", fillcolor="#399de5f1"] ;
191 -> 193 ;
194 [label="num_of_prev_attempts <= 1.0\ngini = 0.372\nsamples = 6148\nvalue = [1521, 4627]", fillcolor="#399de5ab"] ;
178 -> 194 ;
195 [label="gini = 0.0\nsamples = 834\nvalue = [834, 0]", fillcolor="#e58139ff"] ;
194 -> 195 ;
196 [label="homepage_clicks_by_days <= 1.993\ngini = 0.225\nsamples = 5314\nvalue = [687, 4627]", fillcolor="#399de5d9"] ;
194 -> 196 ;
197 [label="gender_M <= 0.993\ngini = 0.449\nsamples = 1082\nvalue = [369, 713]", fillcolor="#399de57b"] ;
196 -> 197 ;
198 [label="gini = 0.5\nsamples = 633\nvalue = [322, 311]", fillcolor="#e5813909"] ;
197 -> 198 ;
199 [label="gini = 0.187\nsamples = 449\nvalue = [47, 402]", fillcolor="#399de5e1"] ;
197 -> 199 ;
200 [label="num_of_prev_attempts <= 1.002\ngini = 0.139\nsamples = 4232\nvalue = [318, 3914]", fillcolor="#399de5ea"] ;
196 -> 200 ;
201 [label="gini = 0.081\nsamples = 3415\nvalue = [145, 3270]", fillcolor="#399de5f4"] ;
200 -> 201 ;
202 [label="gini = 0.334\nsamples = 817\nvalue = [173, 644]", fillcolor="#399de5ba"] ;
200 -> 202 ;
203 [label="highest_education_Lower Than A Level <= 1.0\ngini = 0.391\nsamples = 37628\nvalue = [10025, 27603]", fillcolor="#399de5a2"] ;
177 -> 203 ;
204 [label="gini = 0.0\nsamples = 6265\nvalue = [6265, 0]", fillcolor="#e58139ff"] ;
203 -> 204 ;
205 [label="gender_M <= 0.999\ngini = 0.211\nsamples = 31363\nvalue = [3760, 27603]", fillcolor="#399de5dc"] ;
203 -> 205 ;
206 [label="gender_F <= 0.998\ngini = 0.296\nsamples = 14770\nvalue = [2670, 12100]", fillcolor="#399de5c7"] ;
205 -> 206 ;
207 [label="gini = 0.0\nsamples = 1148\nvalue = [1148, 0]", fillcolor="#e58139ff"] ;
206 -> 207 ;
208 [label="age_band_0-35 <= 0.001\ngini = 0.198\nsamples = 13622\nvalue = [1522, 12100]", fillcolor="#399de5df"] ;
206 -> 208 ;
209 [label="gini = 0.069\nsamples = 4696\nvalue = [168, 4528]", fillcolor="#399de5f6"] ;
208 -> 209 ;
210 [label="gini = 0.257\nsamples = 8926\nvalue = [1354, 7572]", fillcolor="#399de5d1"] ;
208 -> 210 ;
211 [label="weight <= 12.686\ngini = 0.123\nsamples = 16593\nvalue = [1090, 15503]", fillcolor="#399de5ed"] ;
205 -> 211 ;
212 [label="resource_clicks_by_interval <= 101.226\ngini = 0.059\nsamples = 11729\nvalue = [359, 11370]", fillcolor="#399de5f7"] ;
211 -> 212 ;
213 [label="gini = 0.057\nsamples = 11715\nvalue = [346, 11369]", fillcolor="#399de5f7"] ;
212 -> 213 ;
214 [label="gini = 0.133\nsamples = 14\nvalue = [13, 1]", fillcolor="#e58139eb"] ;
212 -> 214 ;
215 [label="homepage_clicks_by_interval <= 21.993\ngini = 0.255\nsamples = 4864\nvalue = [731, 4133]", fillcolor="#399de5d2"] ;
211 -> 215 ;
216 [label="gini = 0.443\nsamples = 1246\nvalue = [412, 834]", fillcolor="#399de581"] ;
215 -> 216 ;
217 [label="gini = 0.161\nsamples = 3618\nvalue = [319, 3299]", fillcolor="#399de5e6"] ;
215 -> 217 ;
218 [label="externalquiz_clicks_by_interval <= 5.998\ngini = 0.386\nsamples = 6383\nvalue = [4716, 1667]", fillcolor="#e58139a5"] ;
176 -> 218 ;
219 [label="gender_F <= 0.0\ngini = 0.33\nsamples = 5649\nvalue = [4472, 1177]", fillcolor="#e58139bc"] ;
218 -> 219 ;
220 [label="highest_education_Lower Than A Level <= 0.002\ngini = 0.473\nsamples = 1952\nvalue = [1201, 751]", fillcolor="#e5813960"] ;
219 -> 220 ;
221 [label="subpage_clicks_by_interval <= 5.95\ngini = 0.484\nsamples = 887\nvalue = [363, 524]", fillcolor="#399de54e"] ;
220 -> 221 ;
222 [label="externalquiz_clicks_by_interval_change <= -0.025\ngini = 0.471\nsamples = 314\nvalue = [195, 119]", fillcolor="#e5813963"] ;
221 -> 222 ;
223 [label="gini = 0.265\nsamples = 172\nvalue = [145, 27]", fillcolor="#e58139d0"] ;
222 -> 223 ;
224 [label="gini = 0.456\nsamples = 142\nvalue = [50, 92]", fillcolor="#399de574"] ;
222 -> 224 ;
225 [label="imd_band_50-60% <= 0.004\ngini = 0.414\nsamples = 573\nvalue = [168, 405]", fillcolor="#399de595"] ;
221 -> 225 ;
226 [label="gini = 0.344\nsamples = 472\nvalue = [104, 368]", fillcolor="#399de5b7"] ;
225 -> 226 ;
227 [label="gini = 0.464\nsamples = 101\nvalue = [64, 37]", fillcolor="#e581396c"] ;
225 -> 227 ;
228 [label="highest_education_Lower Than A Level <= 1.0\ngini = 0.335\nsamples = 1065\nvalue = [838, 227]", fillcolor="#e58139ba"] ;
220 -> 228 ;
229 [label="gini = 0.0\nsamples = 538\nvalue = [538, 0]", fillcolor="#e58139ff"] ;
228 -> 229 ;
230 [label="homepage_clicks_by_interval <= 21.921\ngini = 0.49\nsamples = 527\nvalue = [300, 227]", fillcolor="#e581393e"] ;
228 -> 230 ;
231 [label="gini = 0.382\nsamples = 330\nvalue = [245, 85]", fillcolor="#e58139a7"] ;
230 -> 231 ;
232 [label="gini = 0.402\nsamples = 197\nvalue = [55, 142]", fillcolor="#399de59c"] ;
230 -> 232 ;
233 [label="gender_M <= 0.0\ngini = 0.204\nsamples = 3697\nvalue = [3271, 426]", fillcolor="#e58139de"] ;
219 -> 233 ;
234 [label="highest_education_A Level or Equivalent <= 0.999\ngini = 0.379\nsamples = 1675\nvalue = [1249, 426]", fillcolor="#e58139a8"] ;
233 -> 234 ;
235 [label="highest_education_A Level or Equivalent <= 0.0\ngini = 0.281\nsamples = 1141\nvalue = [948, 193]", fillcolor="#e58139cb"] ;
234 -> 235 ;
236 [label="gini = 0.461\nsamples = 535\nvalue = [342, 193]", fillcolor="#e581396f"] ;
235 -> 236 ;
237 [label="gini = 0.0\nsamples = 606\nvalue = [606, 0]", fillcolor="#e58139ff"] ;
235 -> 237 ;
238 [label="ouelluminate_clicks_by_days_change <= -0.007\ngini = 0.492\nsamples = 534\nvalue = [301, 233]", fillcolor="#e581393a"] ;
234 -> 238 ;
239 [label="gini = 0.129\nsamples = 101\nvalue = [94, 7]", fillcolor="#e58139ec"] ;
238 -> 239 ;
240 [label="gini = 0.499\nsamples = 433\nvalue = [207, 226]", fillcolor="#399de515"] ;
238 -> 240 ;
241 [label="gini = 0.0\nsamples = 2022\nvalue = [2022, 0]", fillcolor="#e58139ff"] ;
233 -> 241 ;
242 [label="highest_education_Lower Than A Level <= 0.003\ngini = 0.444\nsamples = 734\nvalue = [244, 490]", fillcolor="#399de580"] ;
218 -> 242 ;
243 [label="studied_credits <= 184.291\ngini = 0.293\nsamples = 438\nvalue = [78, 360]", fillcolor="#399de5c8"] ;
242 -> 243 ;
244 [label="imd_band_30-40% <= 0.027\ngini = 0.233\nsamples = 415\nvalue = [56, 359]", fillcolor="#399de5d7"] ;
243 -> 244 ;
245 [label="subpage_clicks_by_interval <= 25.724\ngini = 0.094\nsamples = 345\nvalue = [17, 328]", fillcolor="#399de5f2"] ;
244 -> 245 ;
246 [label="gini = 0.39\nsamples = 49\nvalue = [13, 36]", fillcolor="#399de5a3"] ;
245 -> 246 ;
247 [label="gini = 0.027\nsamples = 296\nvalue = [4, 292]", fillcolor="#399de5fc"] ;
245 -> 247 ;
248 [label="imd_band_30-40% <= 0.996\ngini = 0.493\nsamples = 70\nvalue = [39, 31]", fillcolor="#e5813934"] ;
244 -> 248 ;
249 [label="gini = 0.0\nsamples = 36\nvalue = [36, 0]", fillcolor="#e58139ff"] ;
248 -> 249 ;
250 [label="gini = 0.161\nsamples = 34\nvalue = [3, 31]", fillcolor="#399de5e6"] ;
248 -> 250 ;
251 [label="homepage_clicks_by_interval_change <= 0.522\ngini = 0.083\nsamples = 23\nvalue = [22, 1]", fillcolor="#e58139f3"] ;
243 -> 251 ;
252 [label="gini = 0.0\nsamples = 1\nvalue = [0, 1]", fillcolor="#399de5ff"] ;
251 -> 252 ;
253 [label="gini = 0.0\nsamples = 22\nvalue = [22, 0]", fillcolor="#e58139ff"] ;
251 -> 253 ;
254 [label="highest_education_Lower Than A Level <= 0.998\ngini = 0.493\nsamples = 296\nvalue = [166, 130]", fillcolor="#e5813937"] ;
242 -> 254 ;
255 [label="gini = 0.0\nsamples = 104\nvalue = [104, 0]", fillcolor="#e58139ff"] ;
254 -> 255 ;
256 [label="resource_clicks_by_interval <= 3.938\ngini = 0.437\nsamples = 192\nvalue = [62, 130]", fillcolor="#399de585"] ;
254 -> 256 ;
257 [label="forumng_clicks_by_interval_change <= -1.051\ngini = 0.375\nsamples = 36\nvalue = [27, 9]", fillcolor="#e58139aa"] ;
256 -> 257 ;
258 [label="gini = 0.0\nsamples = 4\nvalue = [0, 4]", fillcolor="#399de5ff"] ;
257 -> 258 ;
259 [label="gini = 0.264\nsamples = 32\nvalue = [27, 5]", fillcolor="#e58139d0"] ;
257 -> 259 ;
260 [label="oucollaborate_clicks_by_days <= 8.355\ngini = 0.348\nsamples = 156\nvalue = [35, 121]", fillcolor="#399de5b5"] ;
256 -> 260 ;
261 [label="gini = 0.243\nsamples = 141\nvalue = [20, 121]", fillcolor="#399de5d5"] ;
260 -> 261 ;
262 [label="gini = 0.0\nsamples = 15\nvalue = [15, 0]", fillcolor="#e58139ff"] ;
260 -> 262 ;
}